digraph Tree {
node [shape=box, style="filled", color="black", fontname="helvetica"] ;
edge [fontname="helvetica"] ;
0 [label="Average of indices 0 ,1 ,2 ,3 ,4 ,5 ,6 at lane N2S <= 0.07\ngini = 0.5\nsamples = 74048\nvalue = [37024.0, 37024.0]\nclass = Desirable", fillcolor="#ffffff"] ;
1 [label="Average of indices 0 ,1 ,2 ,3 ,4 ,5 ,6 at lane E2W <= 0.07\ngini = 0.394\nsamples = 44912\nvalue = [9115.586, 24687.92]\nclass = Desirable", fillcolor="#82c1ef"] ;
0 -> 1 [labeldistance=2.5, labelangle=45, headlabel="True"] ;
2 [label="Average of indices 0 ,1 ,2 at lane S2N <= 0.5\ngini = 0.148\nsamples = 34203\nvalue = [1726.833, 19673.76]\nclass = Desirable", fillcolor="#4aa6e7"] ;
1 -> 2 ;
3 [label="Average of indices 0 ,1 ,2 at lane W2E <= 0.5\ngini = 0.108\nsamples = 33867\nvalue = [1193.085, 19566.952]\nclass = Desirable", fillcolor="#45a3e7"] ;
2 -> 3 ;
4 [label="Average of indices 0 ,1 ,2 at lane W2TL <= 0.5\ngini = 0.067\nsamples = 33550\nvalue = [694.222, 19465.396]\nclass = Desirable", fillcolor="#40a0e6"] ;
3 -> 4 ;
5 [label="Average of indices 0 ,1 ,2 ,3 at lane S2TL <= 0.375\ngini = 0.047\nsamples = 33419\nvalue = [477.932, 19425.124]\nclass = Desirable", fillcolor="#3e9fe6"] ;
4 -> 5 ;
6 [label="Average of indices 0 ,1 ,2 at lane N2TL <= 0.5\ngini = 0.028\nsamples = 33306\nvalue = [282.573, 19391.856]\nclass = Desirable", fillcolor="#3c9ee5"] ;
5 -> 6 ;
7 [label="Average of indices 0 ,1 ,2 at lane E2TL <= 0.5\ngini = 0.012\nsamples = 33204\nvalue = [118.611, 19359.755]\nclass = Desirable", fillcolor="#3a9ee5"] ;
6 -> 7 ;
8 [label="gini = -0.0\nsamples = 33121\nvalue = [0.0, 19331.156]\nclass = Desirable", fillcolor="#399de5"] ;
7 -> 8 ;
9 [label="ACTION = EWL <= 0.5\ngini = 0.313\nsamples = 83\nvalue = [118.611, 28.599]\nclass = Undesirable", fillcolor="#eb9f69"] ;
7 -> 9 ;
10 [label="Value of index 1 at lane E2TL <= 0.5\ngini = 0.01\nsamples = 35\nvalue = [118.611, 0.584]\nclass = Undesirable", fillcolor="#e5823a"] ;
9 -> 10 ;
11 [label="gini = 0.0\nsamples = 1\nvalue = [0.0, 0.584]\nclass = Desirable", fillcolor="#399de5"] ;
10 -> 11 ;
12 [label="gini = 0.0\nsamples = 34\nvalue = [118.611, 0.0]\nclass = Undesirable", fillcolor="#e58139"] ;
10 -> 12 ;
13 [label="Difference between indices 0, 1 at lane S2N <= -0.5\ngini = 0.0\nsamples = 48\nvalue = [0.0, 28.015]\nclass = Desirable", fillcolor="#399de5"] ;
9 -> 13 ;
14 [label="gini = 0.0\nsamples = 2\nvalue = [0.0, 1.167]\nclass = Desirable", fillcolor="#399de5"] ;
13 -> 14 ;
15 [label="gini = 0.0\nsamples = 46\nvalue = [0.0, 26.848]\nclass = Desirable", fillcolor="#399de5"] ;
13 -> 15 ;
16 [label="ACTION = NSL <= 0.5\ngini = 0.274\nsamples = 102\nvalue = [163.962, 32.101]\nclass = Undesirable", fillcolor="#ea9a60"] ;
6 -> 16 ;
17 [label="Value of index 1 at lane N2TL <= 0.5\ngini = 0.034\nsamples = 52\nvalue = [163.962, 2.918]\nclass = Undesirable", fillcolor="#e5833d"] ;
16 -> 17 ;
18 [label="gini = 0.0\nsamples = 3\nvalue = [0.0, 1.751]\nclass = Desirable", fillcolor="#399de5"] ;
17 -> 18 ;
19 [label="Average of indices 0 ,1 ,2 ,3 at lane E2TL <= 0.625\ngini = 0.014\nsamples = 49\nvalue = [163.962, 1.167]\nclass = Undesirable", fillcolor="#e5823a"] ;
17 -> 19 ;
20 [label="gini = 0.007\nsamples = 48\nvalue = [163.962, 0.584]\nclass = Undesirable", fillcolor="#e5813a"] ;
19 -> 20 ;
21 [label="gini = -0.0\nsamples = 1\nvalue = [0.0, 0.584]\nclass = Desirable", fillcolor="#399de5"] ;
19 -> 21 ;
22 [label="gini = -0.0\nsamples = 50\nvalue = [0.0, 29.183]\nclass = Desirable", fillcolor="#399de5"] ;
16 -> 22 ;
23 [label="ACTION = NSL <= 0.5\ngini = 0.249\nsamples = 113\nvalue = [195.359, 33.268]\nclass = Undesirable", fillcolor="#e9965b"] ;
5 -> 23 ;
24 [label="Value of index 7 at lane S2TL <= 0.5\ngini = 0.012\nsamples = 57\nvalue = [191.87, 1.167]\nclass = Undesirable", fillcolor="#e5823a"] ;
23 -> 24 ;
25 [label="Difference between indices 0, 1 at lane S2TL <= 0.5\ngini = 0.006\nsamples = 56\nvalue = [191.87, 0.584]\nclass = Undesirable", fillcolor="#e5813a"] ;
24 -> 25 ;
26 [label="gini = 0.0\nsamples = 55\nvalue = [191.87, 0.0]\nclass = Undesirable", fillcolor="#e58139"] ;
25 -> 26 ;
27 [label="gini = -0.0\nsamples = 1\nvalue = [0.0, 0.584]\nclass = Desirable", fillcolor="#399de5"] ;
25 -> 27 ;
28 [label="gini = -0.0\nsamples = 1\nvalue = [0.0, 0.584]\nclass = Desirable", fillcolor="#399de5"] ;
24 -> 28 ;
29 [label="Difference between indices 0, 1 at lane S2TL <= -0.5\ngini = 0.177\nsamples = 56\nvalue = [3.489, 32.101]\nclass = Desirable", fillcolor="#4fa8e8"] ;
23 -> 29 ;
30 [label="gini = 0.0\nsamples = 1\nvalue = [3.489, 0.0]\nclass = Undesirable", fillcolor="#e58139"] ;
29 -> 30 ;
31 [label="gini = 0.0\nsamples = 55\nvalue = [0.0, 32.101]\nclass = Desirable", fillcolor="#399de5"] ;
29 -> 31 ;
32 [label="ACTION = EWL <= 0.5\ngini = 0.265\nsamples = 131\nvalue = [216.29, 40.272]\nclass = Undesirable", fillcolor="#ea985e"] ;
4 -> 32 ;
33 [label="Average of indices 0 ,1 ,2 at lane N2TL <= 0.5\ngini = 0.021\nsamples = 66\nvalue = [216.29, 2.335]\nclass = Undesirable", fillcolor="#e5823b"] ;
32 -> 33 ;
34 [label="Value of index 2 at lane W2E <= 0.5\ngini = 0.011\nsamples = 64\nvalue = [216.29, 1.167]\nclass = Undesirable", fillcolor="#e5823a"] ;
33 -> 34 ;
35 [label="Average of indices 0 ,1 ,2 ,3 ,4 ,5 at lane S2TL <= 0.25\ngini = 0.005\nsamples = 63\nvalue = [216.29, 0.584]\nclass = Undesirable", fillcolor="#e5813a"] ;
34 -> 35 ;
36 [label="gini = 0.0\nsamples = 61\nvalue = [212.802, 0.0]\nclass = Undesirable", fillcolor="#e58139"] ;
35 -> 36 ;
37 [label="Average of indices 0 ,1 ,2 ,3 ,4 at lane E2TL <= 0.2\ngini = 0.246\nsamples = 2\nvalue = [3.489, 0.584]\nclass = Undesirable", fillcolor="#e9965a"] ;
35 -> 37 ;
38 [label="gini = 0.0\nsamples = 1\nvalue = [3.489, 0.0]\nclass = Undesirable", fillcolor="#e58139"] ;
37 -> 38 ;
39 [label="gini = 0.0\nsamples = 1\nvalue = [0.0, 0.584]\nclass = Desirable", fillcolor="#399de5"] ;
37 -> 39 ;
40 [label="gini = -0.0\nsamples = 1\nvalue = [0.0, 0.584]\nclass = Desirable", fillcolor="#399de5"] ;
34 -> 40 ;
41 [label="gini = -0.0\nsamples = 2\nvalue = [0.0, 1.167]\nclass = Desirable", fillcolor="#399de5"] ;
33 -> 41 ;
42 [label="gini = -0.0\nsamples = 65\nvalue = [0.0, 37.937]\nclass = Desirable", fillcolor="#399de5"] ;
32 -> 42 ;
43 [label="ACTION = EW <= 0.5\ngini = 0.281\nsamples = 317\nvalue = [498.863, 101.556]\nclass = Undesirable", fillcolor="#ea9b61"] ;
3 -> 43 ;
44 [label="Difference between indices 0, 1 at lane W2E <= 0.5\ngini = 0.078\nsamples = 178\nvalue = [495.374, 21.011]\nclass = Undesirable", fillcolor="#e68641"] ;
43 -> 44 ;
45 [label="Average of indices 0 ,1 ,2 ,3 ,4 ,5 at lane E2TL <= 0.415\ngini = 0.054\nsamples = 165\nvalue = [491.886, 14.008]\nclass = Undesirable", fillcolor="#e6853f"] ;
44 -> 45 ;
46 [label="Difference between indices 0, 2 at lane W2E <= -0.5\ngini = 0.045\nsamples = 161\nvalue = [491.886, 11.673]\nclass = Undesirable", fillcolor="#e6843e"] ;
45 -> 46 ;
47 [label="gini = 0.0\nsamples = 3\nvalue = [0.0, 1.751]\nclass = Desirable", fillcolor="#399de5"] ;
46 -> 47 ;
48 [label="Value of index 1 at lane W2TL <= 0.5\ngini = 0.039\nsamples = 158\nvalue = [491.886, 9.922]\nclass = Undesirable", fillcolor="#e6843d"] ;
46 -> 48 ;
49 [label="Average of indices 0 ,1 ,2 ,3 ,4 ,5 ,6 at lane N2TL <= 0.36\ngini = 0.019\nsamples = 146\nvalue = [481.42, 4.669]\nclass = Undesirable", fillcolor="#e5823b"] ;
48 -> 49 ;
50 [label="gini = 0.014\nsamples = 144\nvalue = [481.42, 3.502]\nclass = Undesirable", fillcolor="#e5823a"] ;
49 -> 50 ;
51 [label="gini = 0.0\nsamples = 2\nvalue = [0.0, 1.167]\nclass = Desirable", fillcolor="#399de5"] ;
49 -> 51 ;
52 [label="ACTION = EWL <= 0.5\ngini = 0.445\nsamples = 12\nvalue = [10.466, 5.253]\nclass = Undesirable", fillcolor="#f2c09c"] ;
48 -> 52 ;
53 [label="gini = 0.1\nsamples = 4\nvalue = [10.466, 0.584]\nclass = Undesirable", fillcolor="#e68844"] ;
52 -> 53 ;
54 [label="gini = -0.0\nsamples = 8\nvalue = [0.0, 4.669]\nclass = Desirable", fillcolor="#399de5"] ;
52 -> 54 ;
55 [label="Difference between indices 0, 2 at lane W2TL <= 0.5\ngini = 0.0\nsamples = 4\nvalue = [0.0, 2.335]\nclass = Desirable", fillcolor="#399de5"] ;
45 -> 55 ;
56 [label="gini = 0.0\nsamples = 3\nvalue = [0.0, 1.751]\nclass = Desirable", fillcolor="#399de5"] ;
55 -> 56 ;
57 [label="gini = 0.0\nsamples = 1\nvalue = [0.0, 0.584]\nclass = Desirable", fillcolor="#399de5"] ;
55 -> 57 ;
58 [label="Value of index 1 at lane W2TL <= 0.5\ngini = 0.444\nsamples = 13\nvalue = [3.489, 7.004]\nclass = Desirable", fillcolor="#9ccef2"] ;
44 -> 58 ;
59 [label="gini = -0.0\nsamples = 10\nvalue = [0.0, 5.837]\nclass = Desirable", fillcolor="#399de5"] ;
58 -> 59 ;
60 [label="ACTION = EWL <= 0.5\ngini = 0.376\nsamples = 3\nvalue = [3.489, 1.167]\nclass = Undesirable", fillcolor="#eeab7b"] ;
58 -> 60 ;
61 [label="gini = 0.0\nsamples = 1\nvalue = [3.489, 0.0]\nclass = Undesirable", fillcolor="#e58139"] ;
60 -> 61 ;
62 [label="Difference between indices 0, 1 at lane S2TL <= 0.5\ngini = 0.0\nsamples = 2\nvalue = [0.0, 1.167]\nclass = Desirable", fillcolor="#399de5"] ;
60 -> 62 ;
63 [label="gini = 0.0\nsamples = 1\nvalue = [0.0, 0.584]\nclass = Desirable", fillcolor="#399de5"] ;
62 -> 63 ;
64 [label="gini = 0.0\nsamples = 1\nvalue = [0.0, 0.584]\nclass = Desirable", fillcolor="#399de5"] ;
62 -> 64 ;
65 [label="Average of indices 0 ,1 ,2 ,3 at lane W2TL <= 0.375\ngini = 0.08\nsamples = 139\nvalue = [3.489, 80.544]\nclass = Desirable", fillcolor="#42a1e6"] ;
43 -> 65 ;
66 [label="Average of indices 0 ,1 ,2 ,3 at lane W2E <= 0.625\ngini = 0.0\nsamples = 134\nvalue = [0.0, 78.209]\nclass = Desirable", fillcolor="#399de5"] ;
65 -> 66 ;
67 [label="gini = 0.0\nsamples = 122\nvalue = [0.0, 71.206]\nclass = Desirable", fillcolor="#399de5"] ;
66 -> 67 ;
68 [label="gini = 0.0\nsamples = 12\nvalue = [0.0, 7.004]\nclass = Desirable", fillcolor="#399de5"] ;
66 -> 68 ;
69 [label="Value of index 0 at lane S2TL <= 0.5\ngini = 0.48\nsamples = 5\nvalue = [3.489, 2.335]\nclass = Undesirable", fillcolor="#f6d5be"] ;
65 -> 69 ;
70 [label="gini = -0.0\nsamples = 4\nvalue = [0.0, 2.335]\nclass = Desirable", fillcolor="#399de5"] ;
69 -> 70 ;
71 [label="gini = 0.0\nsamples = 1\nvalue = [3.489, 0.0]\nclass = Undesirable", fillcolor="#e58139"] ;
69 -> 71 ;
72 [label="ACTION = NS <= 0.5\ngini = 0.278\nsamples = 336\nvalue = [533.748, 106.808]\nclass = Undesirable", fillcolor="#ea9a61"] ;
2 -> 72 ;
73 [label="Difference between indices 0, 1 at lane S2N <= 0.5\ngini = 0.096\nsamples = 198\nvalue = [523.283, 28.015]\nclass = Undesirable", fillcolor="#e68844"] ;
72 -> 73 ;
74 [label="Average of indices 0 ,1 ,2 ,3 at lane N2TL <= 0.625\ngini = 0.059\nsamples = 177\nvalue = [519.794, 16.342]\nclass = Undesirable", fillcolor="#e6853f"] ;
73 -> 74 ;
75 [label="Average of indices 0 ,1 ,2 ,3 ,4 ,5 at lane S2TL <= 0.25\ngini = 0.049\nsamples = 171\nvalue = [516.306, 13.424]\nclass = Undesirable", fillcolor="#e6843e"] ;
74 -> 75 ;
76 [label="Value of index 1 at lane E2TL <= 0.5\ngini = 0.034\nsamples = 159\nvalue = [502.351, 8.755]\nclass = Undesirable", fillcolor="#e5833c"] ;
75 -> 76 ;
77 [label="Average of indices 0 ,1 ,2 ,3 ,4 at lane W2TL <= 0.5\ngini = 0.021\nsamples = 149\nvalue = [488.397, 5.253]\nclass = Undesirable", fillcolor="#e5823b"] ;
76 -> 77 ;
78 [label="Average of indices 0 ,1 ,2 ,3 ,4 at lane W2E <= 0.5\ngini = 0.016\nsamples = 147\nvalue = [488.397, 4.086]\nclass = Undesirable", fillcolor="#e5823b"] ;
77 -> 78 ;
79 [label="gini = 0.014\nsamples = 146\nvalue = [488.397, 3.502]\nclass = Undesirable", fillcolor="#e5823a"] ;
78 -> 79 ;
80 [label="gini = 0.0\nsamples = 1\nvalue = [0.0, 0.584]\nclass = Desirable", fillcolor="#399de5"] ;
78 -> 80 ;
81 [label="Average of indices 0 ,1 ,2 at lane S2TL <= 0.165\ngini = 0.0\nsamples = 2\nvalue = [0.0, 1.167]\nclass = Desirable", fillcolor="#399de5"] ;
77 -> 81 ;
82 [label="gini = 0.0\nsamples = 1\nvalue = [0.0, 0.584]\nclass = Desirable", fillcolor="#399de5"] ;
81 -> 82 ;
83 [label="gini = 0.0\nsamples = 1\nvalue = [0.0, 0.584]\nclass = Desirable", fillcolor="#399de5"] ;
81 -> 83 ;
84 [label="ACTION = EWL <= 0.5\ngini = 0.321\nsamples = 10\nvalue = [13.954, 3.502]\nclass = Undesirable", fillcolor="#eca16b"] ;
76 -> 84 ;
85 [label="gini = 0.0\nsamples = 4\nvalue = [13.954, 0.0]\nclass = Undesirable", fillcolor="#e58139"] ;
84 -> 85 ;
86 [label="gini = -0.0\nsamples = 6\nvalue = [0.0, 3.502]\nclass = Desirable", fillcolor="#399de5"] ;
84 -> 86 ;
87 [label="ACTION = NSL <= 0.5\ngini = 0.376\nsamples = 12\nvalue = [13.954, 4.669]\nclass = Undesirable", fillcolor="#eeab7b"] ;
75 -> 87 ;
88 [label="gini = 0.0\nsamples = 4\nvalue = [13.954, 0.0]\nclass = Undesirable", fillcolor="#e58139"] ;
87 -> 88 ;
89 [label="gini = -0.0\nsamples = 8\nvalue = [0.0, 4.669]\nclass = Desirable", fillcolor="#399de5"] ;
87 -> 89 ;
90 [label="ACTION = NSL <= 0.5\ngini = 0.496\nsamples = 6\nvalue = [3.489, 2.918]\nclass = Undesirable", fillcolor="#fbeadf"] ;
74 -> 90 ;
91 [label="gini = 0.0\nsamples = 1\nvalue = [3.489, 0.0]\nclass = Undesirable", fillcolor="#e58139"] ;
90 -> 91 ;
92 [label="gini = -0.0\nsamples = 5\nvalue = [0.0, 2.918]\nclass = Desirable", fillcolor="#399de5"] ;
90 -> 92 ;
93 [label="Value of index 7 at lane W2TL <= 0.5\ngini = 0.354\nsamples = 21\nvalue = [3.489, 11.673]\nclass = Desirable", fillcolor="#74baed"] ;
73 -> 93 ;
94 [label="gini = -0.0\nsamples = 20\nvalue = [0.0, 11.673]\nclass = Desirable", fillcolor="#399de5"] ;
93 -> 94 ;
95 [label="gini = -0.0\nsamples = 1\nvalue = [3.489, 0.0]\nclass = Undesirable", fillcolor="#e58139"] ;
93 -> 95 ;
96 [label="Value of index 1 at lane S2N <= 0.5\ngini = 0.207\nsamples = 138\nvalue = [10.466, 78.793]\nclass = Desirable", fillcolor="#53aae8"] ;
72 -> 96 ;
97 [label="Average of indices 0 ,1 ,2 ,3 ,4 at lane W2TL <= 0.3\ngini = 0.492\nsamples = 17\nvalue = [10.466, 8.171]\nclass = Undesirable", fillcolor="#f9e3d4"] ;
96 -> 97 ;
98 [label="Average of indices 0 ,1 ,2 ,3 ,4 at lane W2E <= 0.3\ngini = 0.419\nsamples = 15\nvalue = [3.489, 8.171]\nclass = Desirable", fillcolor="#8ec7f0"] ;
97 -> 98 ;
99 [label="gini = -0.0\nsamples = 14\nvalue = [0.0, 8.171]\nclass = Desirable", fillcolor="#399de5"] ;
98 -> 99 ;
100 [label="gini = -0.0\nsamples = 1\nvalue = [3.489, 0.0]\nclass = Undesirable", fillcolor="#e58139"] ;
98 -> 100 ;
101 [label="gini = 0.0\nsamples = 2\nvalue = [6.977, 0.0]\nclass = Undesirable", fillcolor="#e58139"] ;
97 -> 101 ;
102 [label="Average of indices 0 ,1 ,2 ,3 ,4 ,5 at lane E2TL <= 0.085\ngini = 0.0\nsamples = 121\nvalue = [0.0, 70.622]\nclass = Desirable", fillcolor="#399de5"] ;
96 -> 102 ;
103 [label="gini = 0.0\nsamples = 108\nvalue = [0.0, 63.034]\nclass = Desirable", fillcolor="#399de5"] ;
102 -> 103 ;
104 [label="gini = 0.0\nsamples = 13\nvalue = [0.0, 7.587]\nclass = Desirable", fillcolor="#399de5"] ;
102 -> 104 ;
105 [label="ACTION = EW <= 0.5\ngini = 0.482\nsamples = 10709\nvalue = [7388.753, 5014.159]\nclass = Undesirable", fillcolor="#f7d7bf"] ;
1 -> 105 ;
106 [label="Average of indices 0 ,1 ,2 at lane E2W <= 0.5\ngini = 0.393\nsamples = 6155\nvalue = [6725.928, 2467.099]\nclass = Undesirable", fillcolor="#efaf82"] ;
105 -> 106 ;
107 [label="Average of indices 0 ,1 ,2 at lane W2E <= 0.5\ngini = 0.5\nsamples = 4613\nvalue = [2407.101, 2289.669]\nclass = Undesirable", fillcolor="#fef9f5"] ;
106 -> 107 ;
108 [label="Average of indices 0 ,1 ,2 at lane W2TL <= 0.5\ngini = 0.424\nsamples = 4060\nvalue = [969.817, 2207.374]\nclass = Desirable", fillcolor="#90c8f0"] ;
107 -> 108 ;
109 [label="Average of indices 0 ,1 ,2 at lane S2N <= 0.5\ngini = 0.374\nsamples = 3872\nvalue = [711.665, 2140.838]\nclass = Desirable", fillcolor="#7bbeee"] ;
108 -> 109 ;
110 [label="Average of indices 0 ,1 ,2 ,3 ,4 ,5 at lane N2TL <= 0.25\ngini = 0.31\nsamples = 3687\nvalue = [491.886, 2069.632]\nclass = Desirable", fillcolor="#68b4eb"] ;
109 -> 110 ;
111 [label="Average of indices 0 ,1 ,2 ,3 ,4 at lane E2TL <= 0.3\ngini = 0.218\nsamples = 3531\nvalue = [286.061, 2013.018]\nclass = Desirable", fillcolor="#55abe9"] ;
110 -> 111 ;
112 [label="Average of indices 0 ,1 ,2 at lane S2TL <= 0.5\ngini = 0.11\nsamples = 3402\nvalue = [122.099, 1965.158]\nclass = Desirable", fillcolor="#45a3e7"] ;
111 -> 112 ;
113 [label="gini = -0.0\nsamples = 3310\nvalue = [0.0, 1931.89]\nclass = Desirable", fillcolor="#399de5"] ;
112 -> 113 ;
114 [label="gini = 0.337\nsamples = 92\nvalue = [122.099, 33.268]\nclass = Undesirable", fillcolor="#eca36f"] ;
112 -> 114 ;
115 [label="ACTION = EWL <= 0.5\ngini = 0.35\nsamples = 129\nvalue = [163.962, 47.86]\nclass = Undesirable", fillcolor="#eda673"] ;
111 -> 115 ;
116 [label="gini = 0.048\nsamples = 53\nvalue = [160.473, 4.086]\nclass = Undesirable", fillcolor="#e6843e"] ;
115 -> 116 ;
117 [label="gini = 0.137\nsamples = 76\nvalue = [3.489, 43.774]\nclass = Desirable", fillcolor="#49a5e7"] ;
115 -> 117 ;
118 [label="ACTION = NSL <= 0.5\ngini = 0.338\nsamples = 156\nvalue = [205.825, 56.614]\nclass = Undesirable", fillcolor="#eca46f"] ;
110 -> 118 ;
119 [label="Difference between indices 0, 1 at lane N2TL <= 0.5\ngini = 0.039\nsamples = 65\nvalue = [202.336, 4.086]\nclass = Undesirable", fillcolor="#e6843d"] ;
118 -> 119 ;
120 [label="gini = 0.006\nsamples = 59\nvalue = [202.336, 0.584]\nclass = Undesirable", fillcolor="#e5813a"] ;
119 -> 120 ;
121 [label="gini = -0.0\nsamples = 6\nvalue = [0.0, 3.502]\nclass = Desirable", fillcolor="#399de5"] ;
119 -> 121 ;
122 [label="Average of indices 0 ,1 ,2 ,3 ,4 ,5 ,6 at lane E2W <= 0.5\ngini = 0.117\nsamples = 91\nvalue = [3.489, 52.529]\nclass = Desirable", fillcolor="#46a4e7"] ;
118 -> 122 ;
123 [label="gini = 0.0\nsamples = 90\nvalue = [0.0, 52.529]\nclass = Desirable", fillcolor="#399de5"] ;
122 -> 123 ;
124 [label="gini = -0.0\nsamples = 1\nvalue = [3.489, 0.0]\nclass = Undesirable", fillcolor="#e58139"] ;
122 -> 124 ;
125 [label="ACTION = NS <= 0.5\ngini = 0.37\nsamples = 185\nvalue = [219.779, 71.206]\nclass = Undesirable", fillcolor="#edaa79"] ;
109 -> 125 ;
126 [label="Difference between indices 0, 1 at lane S2N <= 0.5\ngini = 0.146\nsamples = 94\nvalue = [216.29, 18.677]\nclass = Undesirable", fillcolor="#e78c4a"] ;
125 -> 126 ;
127 [label="Average of indices 0 ,1 ,2 at lane N2TL <= 0.5\ngini = 0.093\nsamples = 81\nvalue = [216.29, 11.089]\nclass = Undesirable", fillcolor="#e68743"] ;
126 -> 127 ;
128 [label="gini = 0.052\nsamples = 71\nvalue = [212.802, 5.837]\nclass = Undesirable", fillcolor="#e6843e"] ;
127 -> 128 ;
129 [label="gini = 0.48\nsamples = 10\nvalue = [3.489, 5.253]\nclass = Desirable", fillcolor="#bcdef6"] ;
127 -> 129 ;
130 [label="gini = -0.0\nsamples = 13\nvalue = [0.0, 7.587]\nclass = Desirable", fillcolor="#399de5"] ;
126 -> 130 ;
131 [label="Average of indices 0 ,1 ,2 ,3 ,4 ,5 at lane E2TL <= 0.415\ngini = 0.117\nsamples = 91\nvalue = [3.489, 52.529]\nclass = Desirable", fillcolor="#46a4e7"] ;
125 -> 131 ;
132 [label="gini = 0.0\nsamples = 90\nvalue = [0.0, 52.529]\nclass = Desirable", fillcolor="#399de5"] ;
131 -> 132 ;
133 [label="gini = -0.0\nsamples = 1\nvalue = [3.489, 0.0]\nclass = Undesirable", fillcolor="#e58139"] ;
131 -> 133 ;
134 [label="ACTION = EWL <= 0.5\ngini = 0.326\nsamples = 188\nvalue = [258.153, 66.536]\nclass = Undesirable", fillcolor="#eca16c"] ;
108 -> 134 ;
135 [label="Value of index 1 at lane N2TL <= 0.5\ngini = 0.06\nsamples = 87\nvalue = [254.664, 8.171]\nclass = Undesirable", fillcolor="#e6853f"] ;
134 -> 135 ;
136 [label="Difference between indices 0, 2 at lane W2E <= -0.5\ngini = 0.035\nsamples = 81\nvalue = [254.664, 4.669]\nclass = Undesirable", fillcolor="#e5833d"] ;
135 -> 136 ;
137 [label="gini = 0.0\nsamples = 1\nvalue = [0.0, 0.584]\nclass = Desirable", fillcolor="#399de5"] ;
136 -> 137 ;
138 [label="Average of indices 0 ,1 ,2 ,3 ,4 ,5 ,6 at lane S2N <= 0.5\ngini = 0.031\nsamples = 80\nvalue = [254.664, 4.086]\nclass = Undesirable", fillcolor="#e5833c"] ;
136 -> 138 ;
139 [label="gini = 0.027\nsamples = 79\nvalue = [254.664, 3.502]\nclass = Undesirable", fillcolor="#e5833c"] ;
138 -> 139 ;
140 [label="gini = 0.0\nsamples = 1\nvalue = [0.0, 0.584]\nclass = Desirable", fillcolor="#399de5"] ;
138 -> 140 ;
141 [label="Difference between indices 0, 2 at lane E2W <= 0.5\ngini = 0.0\nsamples = 6\nvalue = [0.0, 3.502]\nclass = Desirable", fillcolor="#399de5"] ;
135 -> 141 ;
142 [label="gini = 0.0\nsamples = 3\nvalue = [0.0, 1.751]\nclass = Desirable", fillcolor="#399de5"] ;
141 -> 142 ;
143 [label="gini = 0.0\nsamples = 3\nvalue = [0.0, 1.751]\nclass = Desirable", fillcolor="#399de5"] ;
141 -> 143 ;
144 [label="Difference between indices 0, 2 at lane S2TL <= -0.5\ngini = 0.106\nsamples = 101\nvalue = [3.489, 58.365]\nclass = Desirable", fillcolor="#45a3e7"] ;
134 -> 144 ;
145 [label="gini = 0.0\nsamples = 1\nvalue = [3.489, 0.0]\nclass = Undesirable", fillcolor="#e58139"] ;
144 -> 145 ;
146 [label="gini = 0.0\nsamples = 100\nvalue = [0.0, 58.365]\nclass = Desirable", fillcolor="#399de5"] ;
144 -> 146 ;
147 [label="Difference between indices 0, 1 at lane W2E <= 0.5\ngini = 0.102\nsamples = 553\nvalue = [1437.283, 82.295]\nclass = Undesirable", fillcolor="#e68844"] ;
107 -> 147 ;
148 [label="Value of index 1 at lane E2TL <= 0.5\ngini = 0.078\nsamples = 510\nvalue = [1419.841, 60.116]\nclass = Undesirable", fillcolor="#e68641"] ;
147 -> 148 ;
149 [label="Average of indices 0 ,1 ,2 at lane W2TL <= 0.5\ngini = 0.06\nsamples = 467\nvalue = [1367.512, 43.774]\nclass = Undesirable", fillcolor="#e6853f"] ;
148 -> 149 ;
150 [label="Average of indices 0 ,1 ,2 at lane S2TL <= 0.5\ngini = 0.045\nsamples = 433\nvalue = [1325.65, 30.934]\nclass = Undesirable", fillcolor="#e6843e"] ;
149 -> 150 ;
151 [label="Difference between indices 0, 2 at lane W2E <= -0.5\ngini = 0.026\nsamples = 393\nvalue = [1269.833, 16.926]\nclass = Undesirable", fillcolor="#e5833c"] ;
150 -> 151 ;
152 [label="gini = 0.0\nsamples = 2\nvalue = [0.0, 1.167]\nclass = Desirable", fillcolor="#399de5"] ;
151 -> 152 ;
153 [label="gini = 0.024\nsamples = 391\nvalue = [1269.833, 15.759]\nclass = Undesirable", fillcolor="#e5833b"] ;
151 -> 153 ;
154 [label="ACTION = NSL <= 0.5\ngini = 0.321\nsamples = 40\nvalue = [55.817, 14.008]\nclass = Undesirable", fillcolor="#eca16b"] ;
150 -> 154 ;
155 [label="gini = 0.0\nsamples = 16\nvalue = [55.817, 0.0]\nclass = Undesirable", fillcolor="#e58139"] ;
154 -> 155 ;
156 [label="gini = 0.0\nsamples = 24\nvalue = [0.0, 14.008]\nclass = Desirable", fillcolor="#399de5"] ;
154 -> 156 ;
157 [label="ACTION = EWL <= 0.5\ngini = 0.359\nsamples = 34\nvalue = [41.863, 12.84]\nclass = Undesirable", fillcolor="#eda876"] ;
149 -> 157 ;
158 [label="Average of indices 0 ,1 ,2 at lane N2TL <= 0.5\ngini = 0.1\nsamples = 16\nvalue = [41.863, 2.335]\nclass = Undesirable", fillcolor="#e68844"] ;
157 -> 158 ;
159 [label="gini = 0.053\nsamples = 14\nvalue = [41.863, 1.167]\nclass = Undesirable", fillcolor="#e6853f"] ;
158 -> 159 ;
160 [label="gini = -0.0\nsamples = 2\nvalue = [0.0, 1.167]\nclass = Desirable", fillcolor="#399de5"] ;
158 -> 160 ;
161 [label="gini = -0.0\nsamples = 18\nvalue = [0.0, 10.506]\nclass = Desirable", fillcolor="#399de5"] ;
157 -> 161 ;
162 [label="ACTION = EWL <= 0.5\ngini = 0.363\nsamples = 43\nvalue = [52.328, 16.342]\nclass = Undesirable", fillcolor="#eda877"] ;
148 -> 162 ;
163 [label="Average of indices 0 ,1 ,2 at lane S2TL <= 0.5\ngini = 0.1\nsamples = 20\nvalue = [52.328, 2.918]\nclass = Undesirable", fillcolor="#e68844"] ;
162 -> 163 ;
164 [label="Value of index 1 at lane S2N <= 0.5\ngini = 0.043\nsamples = 17\nvalue = [52.328, 1.167]\nclass = Undesirable", fillcolor="#e6843d"] ;
163 -> 164 ;
165 [label="gini = 0.022\nsamples = 16\nvalue = [52.328, 0.584]\nclass = Undesirable", fillcolor="#e5823b"] ;
164 -> 165 ;
166 [label="gini = -0.0\nsamples = 1\nvalue = [0.0, 0.584]\nclass = Desirable", fillcolor="#399de5"] ;
164 -> 166 ;
167 [label="gini = -0.0\nsamples = 3\nvalue = [0.0, 1.751]\nclass = Desirable", fillcolor="#399de5"] ;
163 -> 167 ;
168 [label="Average of indices 0 ,1 ,2 at lane S2TL <= 0.165\ngini = 0.0\nsamples = 23\nvalue = [0.0, 13.424]\nclass = Desirable", fillcolor="#399de5"] ;
162 -> 168 ;
169 [label="gini = 0.0\nsamples = 15\nvalue = [0.0, 8.755]\nclass = Desirable", fillcolor="#399de5"] ;
168 -> 169 ;
170 [label="gini = 0.0\nsamples = 8\nvalue = [0.0, 4.669]\nclass = Desirable", fillcolor="#399de5"] ;
168 -> 170 ;
171 [label="Average of indices 0 ,1 ,2 ,3 ,4 ,5 at lane W2TL <= 0.085\ngini = 0.493\nsamples = 43\nvalue = [17.443, 22.179]\nclass = Desirable", fillcolor="#d5eaf9"] ;
147 -> 171 ;
172 [label="Difference between indices 0, 1 at lane N2TL <= 0.5\ngini = 0.0\nsamples = 27\nvalue = [0.0, 15.759]\nclass = Desirable", fillcolor="#399de5"] ;
171 -> 172 ;
173 [label="gini = 0.0\nsamples = 20\nvalue = [0.0, 11.673]\nclass = Desirable", fillcolor="#399de5"] ;
172 -> 173 ;
174 [label="gini = 0.0\nsamples = 7\nvalue = [0.0, 4.086]\nclass = Desirable", fillcolor="#399de5"] ;
172 -> 174 ;
175 [label="Difference between indices 0, 4 at lane E2W <= 0.5\ngini = 0.393\nsamples = 16\nvalue = [17.443, 6.42]\nclass = Undesirable", fillcolor="#efaf82"] ;
171 -> 175 ;
176 [label="gini = 0.0\nsamples = 4\nvalue = [13.954, 0.0]\nclass = Undesirable", fillcolor="#e58139"] ;
175 -> 176 ;
177 [label="Value of index 5 at lane W2TL <= 0.5\ngini = 0.456\nsamples = 12\nvalue = [3.489, 6.42]\nclass = Desirable", fillcolor="#a5d2f3"] ;
175 -> 177 ;
178 [label="gini = -0.0\nsamples = 11\nvalue = [0.0, 6.42]\nclass = Desirable", fillcolor="#399de5"] ;
177 -> 178 ;
179 [label="gini = -0.0\nsamples = 1\nvalue = [3.489, 0.0]\nclass = Undesirable", fillcolor="#e58139"] ;
177 -> 179 ;
180 [label="Value of index 1 at lane E2W <= 0.5\ngini = 0.076\nsamples = 1542\nvalue = [4318.827, 177.43]\nclass = Undesirable", fillcolor="#e68641"] ;
106 -> 180 ;
181 [label="Average of indices 0 ,1 ,2 ,3 ,4 at lane W2E <= 0.3\ngini = 0.471\nsamples = 79\nvalue = [59.305, 36.186]\nclass = Undesirable", fillcolor="#f5ceb2"] ;
180 -> 181 ;
182 [label="Difference between indices 0, 7 at lane S2TL <= -0.5\ngini = 0.283\nsamples = 60\nvalue = [6.977, 33.852]\nclass = Desirable", fillcolor="#62b1ea"] ;
181 -> 182 ;
183 [label="gini = 0.0\nsamples = 1\nvalue = [3.489, 0.0]\nclass = Undesirable", fillcolor="#e58139"] ;
182 -> 183 ;
184 [label="Value of index 5 at lane E2W <= 0.5\ngini = 0.169\nsamples = 59\nvalue = [3.489, 33.852]\nclass = Desirable", fillcolor="#4da7e8"] ;
182 -> 184 ;
185 [label="gini = 0.0\nsamples = 55\nvalue = [0.0, 32.101]\nclass = Desirable", fillcolor="#399de5"] ;
184 -> 185 ;
186 [label="Average of indices 0 ,1 ,2 ,3 ,4 ,5 ,6 at lane E2TL <= 0.07\ngini = 0.445\nsamples = 4\nvalue = [3.489, 1.751]\nclass = Undesirable", fillcolor="#f2c09c"] ;
184 -> 186 ;
187 [label="gini = 0.0\nsamples = 1\nvalue = [3.489, 0.0]\nclass = Undesirable", fillcolor="#e58139"] ;
186 -> 187 ;
188 [label="gini = 0.0\nsamples = 3\nvalue = [0.0, 1.751]\nclass = Desirable", fillcolor="#399de5"] ;
186 -> 188 ;
189 [label="Average of indices 0 ,1 ,2 ,3 ,4 at lane S2TL <= 0.3\ngini = 0.082\nsamples = 19\nvalue = [52.328, 2.335]\nclass = Undesirable", fillcolor="#e68742"] ;
181 -> 189 ;
190 [label="Value of index 2 at lane S2TL <= 0.5\ngini = 0.043\nsamples = 17\nvalue = [52.328, 1.167]\nclass = Undesirable", fillcolor="#e6843d"] ;
189 -> 190 ;
191 [label="Difference between indices 0, 1 at lane W2E <= 0.5\ngini = 0.022\nsamples = 16\nvalue = [52.328, 0.584]\nclass = Undesirable", fillcolor="#e5823b"] ;
190 -> 191 ;
192 [label="gini = 0.0\nsamples = 14\nvalue = [48.84, 0.0]\nclass = Undesirable", fillcolor="#e58139"] ;
191 -> 192 ;
193 [label="Difference between indices 0, 1 at lane W2TL <= 0.5\ngini = 0.246\nsamples = 2\nvalue = [3.489, 0.584]\nclass = Undesirable", fillcolor="#e9965a"] ;
191 -> 193 ;
194 [label="gini = 0.0\nsamples = 1\nvalue = [0.0, 0.584]\nclass = Desirable", fillcolor="#399de5"] ;
193 -> 194 ;
195 [label="gini = 0.0\nsamples = 1\nvalue = [3.489, 0.0]\nclass = Undesirable", fillcolor="#e58139"] ;
193 -> 195 ;
196 [label="gini = -0.0\nsamples = 1\nvalue = [0.0, 0.584]\nclass = Desirable", fillcolor="#399de5"] ;
190 -> 196 ;
197 [label="gini = -0.0\nsamples = 2\nvalue = [0.0, 1.167]\nclass = Desirable", fillcolor="#399de5"] ;
189 -> 197 ;
198 [label="Average of indices 0 ,1 ,2 at lane S2TL <= 0.5\ngini = 0.062\nsamples = 1463\nvalue = [4259.522, 141.244]\nclass = Undesirable", fillcolor="#e68540"] ;
180 -> 198 ;
199 [label="Value of index 1 at lane W2TL <= 0.5\ngini = 0.047\nsamples = 1343\nvalue = [4081.606, 100.972]\nclass = Undesirable", fillcolor="#e6843e"] ;
198 -> 199 ;
200 [label="Average of indices 0 ,1 ,2 at lane E2TL <= 0.5\ngini = 0.029\nsamples = 1201\nvalue = [3844.384, 57.782]\nclass = Undesirable", fillcolor="#e5833c"] ;
199 -> 200 ;
201 [label="Average of indices 0 ,1 ,2 at lane N2TL <= 0.5\ngini = 0.016\nsamples = 1114\nvalue = [3708.331, 29.766]\nclass = Undesirable", fillcolor="#e5823b"] ;
200 -> 201 ;
202 [label="Average of indices 0 ,1 ,2 at lane S2N <= 0.5\ngini = 0.008\nsamples = 1048\nvalue = [3568.788, 14.591]\nclass = Undesirable", fillcolor="#e5823a"] ;
201 -> 202 ;
203 [label="gini = 0.0\nsamples = 967\nvalue = [3373.43, 0.0]\nclass = Undesirable", fillcolor="#e58139"] ;
202 -> 203 ;
204 [label="gini = 0.129\nsamples = 81\nvalue = [195.359, 14.591]\nclass = Undesirable", fillcolor="#e78a48"] ;
202 -> 204 ;
205 [label="ACTION = NSL <= 0.5\ngini = 0.177\nsamples = 66\nvalue = [139.542, 15.175]\nclass = Undesirable", fillcolor="#e88f4f"] ;
201 -> 205 ;
206 [label="gini = 0.017\nsamples = 40\nvalue = [132.565, 1.167]\nclass = Undesirable", fillcolor="#e5823b"] ;
205 -> 206 ;
207 [label="gini = 0.444\nsamples = 26\nvalue = [6.977, 14.008]\nclass = Desirable", fillcolor="#9ccef2"] ;
205 -> 207 ;
208 [label="ACTION = EWL <= 0.5\ngini = 0.283\nsamples = 87\nvalue = [136.054, 28.015]\nclass = Undesirable", fillcolor="#ea9b62"] ;
200 -> 208 ;
209 [label="Average of indices 0 ,1 ,2 at lane S2N <= 0.5\ngini = 0.025\nsamples = 42\nvalue = [136.054, 1.751]\nclass = Undesirable", fillcolor="#e5833c"] ;
208 -> 209 ;
210 [label="gini = 0.0\nsamples = 36\nvalue = [125.588, 0.0]\nclass = Undesirable", fillcolor="#e58139"] ;
209 -> 210 ;
211 [label="gini = 0.246\nsamples = 6\nvalue = [10.466, 1.751]\nclass = Undesirable", fillcolor="#e9965a"] ;
209 -> 211 ;
212 [label="Difference between indices 0, 7 at lane E2TL <= 0.5\ngini = 0.0\nsamples = 45\nvalue = [0.0, 26.264]\nclass = Desirable", fillcolor="#399de5"] ;
208 -> 212 ;
213 [label="gini = 0.0\nsamples = 1\nvalue = [0.0, 0.584]\nclass = Desirable", fillcolor="#399de5"] ;
212 -> 213 ;
214 [label="gini = 0.0\nsamples = 44\nvalue = [0.0, 25.681]\nclass = Desirable", fillcolor="#399de5"] ;
212 -> 214 ;
215 [label="ACTION = EWL <= 0.5\ngini = 0.261\nsamples = 142\nvalue = [237.222, 43.19]\nclass = Undesirable", fillcolor="#ea985d"] ;
199 -> 215 ;
216 [label="Average of indices 0 ,1 ,2 ,3 ,4 at lane N2TL <= 0.3\ngini = 0.033\nsamples = 75\nvalue = [237.222, 4.086]\nclass = Undesirable", fillcolor="#e5833c"] ;
215 -> 216 ;
217 [label="Value of index 4 at lane W2TL <= 0.5\ngini = 0.005\nsamples = 68\nvalue = [233.733, 0.584]\nclass = Undesirable", fillcolor="#e58139"] ;
216 -> 217 ;
218 [label="gini = 0.0\nsamples = 66\nvalue = [230.244, 0.0]\nclass = Undesirable", fillcolor="#e58139"] ;
217 -> 218 ;
219 [label="gini = 0.246\nsamples = 2\nvalue = [3.489, 0.584]\nclass = Undesirable", fillcolor="#e9965a"] ;
217 -> 219 ;
220 [label="Value of index 5 at lane W2E <= 0.5\ngini = 0.5\nsamples = 7\nvalue = [3.489, 3.502]\nclass = Desirable", fillcolor="#feffff"] ;
216 -> 220 ;
221 [label="gini = -0.0\nsamples = 6\nvalue = [0.0, 3.502]\nclass = Desirable", fillcolor="#399de5"] ;
220 -> 221 ;
222 [label="gini = 0.0\nsamples = 1\nvalue = [3.489, 0.0]\nclass = Undesirable", fillcolor="#e58139"] ;
220 -> 222 ;
223 [label="Value of index 6 at lane W2E <= 0.5\ngini = 0.0\nsamples = 67\nvalue = [0.0, 39.105]\nclass = Desirable", fillcolor="#399de5"] ;
215 -> 223 ;
224 [label="gini = 0.0\nsamples = 47\nvalue = [0.0, 27.432]\nclass = Desirable", fillcolor="#399de5"] ;
223 -> 224 ;
225 [label="gini = 0.0\nsamples = 20\nvalue = [0.0, 11.673]\nclass = Desirable", fillcolor="#399de5"] ;
223 -> 225 ;
226 [label="ACTION = NSL <= 0.5\ngini = 0.301\nsamples = 120\nvalue = [177.916, 40.272]\nclass = Undesirable", fillcolor="#eb9e66"] ;
198 -> 226 ;
227 [label="Average of indices 0 ,1 ,2 at lane W2TL <= 0.5\ngini = 0.039\nsamples = 56\nvalue = [174.428, 3.502]\nclass = Undesirable", fillcolor="#e6843d"] ;
226 -> 227 ;
228 [label="Value of index 5 at lane N2TL <= 0.5\ngini = 0.026\nsamples = 54\nvalue = [174.428, 2.335]\nclass = Undesirable", fillcolor="#e5833c"] ;
227 -> 228 ;
229 [label="Value of index 6 at lane N2TL <= 0.5\ngini = 0.02\nsamples = 53\nvalue = [174.428, 1.751]\nclass = Undesirable", fillcolor="#e5823b"] ;
228 -> 229 ;
230 [label="gini = 0.013\nsamples = 52\nvalue = [174.428, 1.167]\nclass = Undesirable", fillcolor="#e5823a"] ;
229 -> 230 ;
231 [label="gini = -0.0\nsamples = 1\nvalue = [0.0, 0.584]\nclass = Desirable", fillcolor="#399de5"] ;
229 -> 231 ;
232 [label="gini = -0.0\nsamples = 1\nvalue = [0.0, 0.584]\nclass = Desirable", fillcolor="#399de5"] ;
228 -> 232 ;
233 [label="gini = -0.0\nsamples = 2\nvalue = [0.0, 1.167]\nclass = Desirable", fillcolor="#399de5"] ;
227 -> 233 ;
234 [label="Difference between indices 0, 1 at lane S2TL <= 0.5\ngini = 0.158\nsamples = 64\nvalue = [3.489, 36.77]\nclass = Desirable", fillcolor="#4ca6e7"] ;
226 -> 234 ;
235 [label="gini = 0.0\nsamples = 63\nvalue = [0.0, 36.77]\nclass = Desirable", fillcolor="#399de5"] ;
234 -> 235 ;
236 [label="gini = -0.0\nsamples = 1\nvalue = [3.489, 0.0]\nclass = Undesirable", fillcolor="#e58139"] ;
234 -> 236 ;
237 [label="Average of indices 0 ,1 ,2 at lane S2N <= 0.5\ngini = 0.328\nsamples = 4554\nvalue = [662.825, 2547.06]\nclass = Desirable", fillcolor="#6db7ec"] ;
105 -> 237 ;
238 [label="Average of indices 0 ,1 ,2 ,3 at lane W2TL <= 0.375\ngini = 0.267\nsamples = 4383\nvalue = [467.466, 2479.94]\nclass = Desirable", fillcolor="#5eafea"] ;
237 -> 238 ;
239 [label="Average of indices 0 ,1 ,2 at lane E2TL <= 0.5\ngini = 0.194\nsamples = 4243\nvalue = [296.527, 2426.827]\nclass = Desirable", fillcolor="#51a9e8"] ;
238 -> 239 ;
240 [label="Average of indices 0 ,1 ,2 at lane S2TL <= 0.5\ngini = 0.114\nsamples = 4119\nvalue = [153.496, 2378.384]\nclass = Desirable", fillcolor="#46a3e7"] ;
239 -> 240 ;
241 [label="Average of indices 0 ,1 ,2 at lane N2TL <= 0.5\ngini = 0.048\nsamples = 4017\nvalue = [59.305, 2334.61]\nclass = Desirable", fillcolor="#3e9fe6"] ;
240 -> 241 ;
242 [label="gini = -0.0\nsamples = 3933\nvalue = [0.0, 2295.506]\nclass = Desirable", fillcolor="#399de5"] ;
241 -> 242 ;
243 [label="Average of indices 0 ,1 ,2 at lane W2E <= 0.5\ngini = 0.479\nsamples = 84\nvalue = [59.305, 39.105]\nclass = Undesirable", fillcolor="#f6d4bc"] ;
241 -> 243 ;
244 [label="Value of index 1 at lane E2W <= 0.5\ngini = 0.235\nsamples = 33\nvalue = [59.305, 9.338]\nclass = Undesirable", fillcolor="#e99558"] ;
243 -> 244 ;
245 [label="gini = 0.022\nsamples = 16\nvalue = [52.328, 0.584]\nclass = Undesirable", fillcolor="#e5823b"] ;
244 -> 245 ;
246 [label="gini = 0.494\nsamples = 17\nvalue = [6.977, 8.755]\nclass = Desirable", fillcolor="#d7ebfa"] ;
244 -> 246 ;
247 [label="Difference between indices 0, 7 at lane N2S <= -0.5\ngini = 0.0\nsamples = 51\nvalue = [0.0, 29.766]\nclass = Desirable", fillcolor="#399de5"] ;
243 -> 247 ;
248 [label="gini = 0.0\nsamples = 15\nvalue = [0.0, 8.755]\nclass = Desirable", fillcolor="#399de5"] ;
247 -> 248 ;
249 [label="gini = 0.0\nsamples = 36\nvalue = [0.0, 21.011]\nclass = Desirable", fillcolor="#399de5"] ;
247 -> 249 ;
250 [label="Value of index 1 at lane E2W <= 0.5\ngini = 0.433\nsamples = 102\nvalue = [94.191, 43.774]\nclass = Undesirable", fillcolor="#f1bc95"] ;
240 -> 250 ;
251 [label="Average of indices 0 ,1 ,2 ,3 ,4 at lane W2E <= 0.3\ngini = 0.188\nsamples = 46\nvalue = [94.191, 11.089]\nclass = Undesirable", fillcolor="#e89050"] ;
250 -> 251 ;
252 [label="Difference between indices 0, 1 at lane S2N <= -0.5\ngini = 0.013\nsamples = 27\nvalue = [90.702, 0.584]\nclass = Undesirable", fillcolor="#e5823a"] ;
251 -> 252 ;
253 [label="gini = 0.0\nsamples = 1\nvalue = [0.0, 0.584]\nclass = Desirable", fillcolor="#399de5"] ;
252 -> 253 ;
254 [label="gini = 0.0\nsamples = 26\nvalue = [90.702, 0.0]\nclass = Undesirable", fillcolor="#e58139"] ;
252 -> 254 ;
255 [label="Difference between indices 0, 1 at lane W2E <= 0.5\ngini = 0.374\nsamples = 19\nvalue = [3.489, 10.506]\nclass = Desirable", fillcolor="#7bbeee"] ;
251 -> 255 ;
256 [label="gini = 0.0\nsamples = 18\nvalue = [0.0, 10.506]\nclass = Desirable", fillcolor="#399de5"] ;
255 -> 256 ;
257 [label="gini = -0.0\nsamples = 1\nvalue = [3.489, 0.0]\nclass = Undesirable", fillcolor="#e58139"] ;
255 -> 257 ;
258 [label="Average of indices 0 ,1 ,2 at lane N2TL <= 0.165\ngini = 0.0\nsamples = 56\nvalue = [0.0, 32.685]\nclass = Desirable", fillcolor="#399de5"] ;
250 -> 258 ;
259 [label="gini = 0.0\nsamples = 37\nvalue = [0.0, 21.595]\nclass = Desirable", fillcolor="#399de5"] ;
258 -> 259 ;
260 [label="gini = 0.0\nsamples = 19\nvalue = [0.0, 11.089]\nclass = Desirable", fillcolor="#399de5"] ;
258 -> 260 ;
261 [label="Value of index 1 at lane E2W <= 0.5\ngini = 0.378\nsamples = 124\nvalue = [143.031, 48.443]\nclass = Undesirable", fillcolor="#eeac7c"] ;
239 -> 261 ;
262 [label="Value of index 1 at lane W2E <= 0.5\ngini = 0.162\nsamples = 65\nvalue = [143.031, 14.008]\nclass = Undesirable", fillcolor="#e88d4c"] ;
261 -> 262 ;
263 [label="Difference between indices 0, 1 at lane E2TL <= 0.5\ngini = 0.032\nsamples = 45\nvalue = [143.031, 2.335]\nclass = Undesirable", fillcolor="#e5833c"] ;
262 -> 263 ;
264 [label="Difference between indices 0, 5 at lane S2N <= -0.5\ngini = 0.0\nsamples = 41\nvalue = [143.031, 0.0]\nclass = Undesirable", fillcolor="#e58139"] ;
263 -> 264 ;
265 [label="gini = 0.0\nsamples = 6\nvalue = [20.931, 0.0]\nclass = Undesirable", fillcolor="#e58139"] ;
264 -> 265 ;
266 [label="gini = 0.0\nsamples = 35\nvalue = [122.099, 0.0]\nclass = Undesirable", fillcolor="#e58139"] ;
264 -> 266 ;
267 [label="gini = -0.0\nsamples = 4\nvalue = [0.0, 2.335]\nclass = Desirable", fillcolor="#399de5"] ;
263 -> 267 ;
268 [label="gini = -0.0\nsamples = 20\nvalue = [0.0, 11.673]\nclass = Desirable", fillcolor="#399de5"] ;
262 -> 268 ;
269 [label="gini = -0.0\nsamples = 59\nvalue = [0.0, 34.436]\nclass = Desirable", fillcolor="#399de5"] ;
261 -> 269 ;
270 [label="Average of indices 0 ,1 ,2 at lane E2W <= 0.5\ngini = 0.362\nsamples = 140\nvalue = [170.939, 53.112]\nclass = Undesirable", fillcolor="#eda877"] ;
238 -> 270 ;
271 [label="Value of index 1 at lane W2E <= 0.5\ngini = 0.14\nsamples = 70\nvalue = [163.962, 13.424]\nclass = Undesirable", fillcolor="#e78b49"] ;
270 -> 271 ;
272 [label="Value of index 1 at lane W2TL <= 0.5\ngini = 0.015\nsamples = 47\nvalue = [156.985, 1.167]\nclass = Undesirable", fillcolor="#e5823a"] ;
271 -> 272 ;
273 [label="Average of indices 0 ,1 ,2 ,3 ,4 ,5 ,6 at lane E2TL <= 0.145\ngini = 0.376\nsamples = 3\nvalue = [3.489, 1.167]\nclass = Undesirable", fillcolor="#eeab7b"] ;
272 -> 273 ;
274 [label="Value of index 0 at lane E2W <= 0.5\ngini = 0.0\nsamples = 2\nvalue = [0.0, 1.167]\nclass = Desirable", fillcolor="#399de5"] ;
273 -> 274 ;
275 [label="gini = 0.0\nsamples = 1\nvalue = [0.0, 0.584]\nclass = Desirable", fillcolor="#399de5"] ;
274 -> 275 ;
276 [label="gini = 0.0\nsamples = 1\nvalue = [0.0, 0.584]\nclass = Desirable", fillcolor="#399de5"] ;
274 -> 276 ;
277 [label="gini = 0.0\nsamples = 1\nvalue = [3.489, 0.0]\nclass = Undesirable", fillcolor="#e58139"] ;
273 -> 277 ;
278 [label="gini = 0.0\nsamples = 44\nvalue = [153.496, 0.0]\nclass = Undesirable", fillcolor="#e58139"] ;
272 -> 278 ;
279 [label="Average of indices 0 ,1 ,2 ,3 ,4 ,5 at lane S2N <= 0.25\ngini = 0.462\nsamples = 23\nvalue = [6.977, 12.257]\nclass = Desirable", fillcolor="#aad5f4"] ;
271 -> 279 ;
280 [label="gini = 0.0\nsamples = 21\nvalue = [0.0, 12.257]\nclass = Desirable", fillcolor="#399de5"] ;
279 -> 280 ;
281 [label="gini = -0.0\nsamples = 2\nvalue = [6.977, 0.0]\nclass = Undesirable", fillcolor="#e58139"] ;
279 -> 281 ;
282 [label="Value of index 6 at lane W2TL <= 0.5\ngini = 0.254\nsamples = 70\nvalue = [6.977, 39.688]\nclass = Desirable", fillcolor="#5caeea"] ;
270 -> 282 ;
283 [label="Difference between indices 0, 1 at lane E2W <= 0.5\ngini = 0.149\nsamples = 69\nvalue = [3.489, 39.688]\nclass = Desirable", fillcolor="#4aa6e7"] ;
282 -> 283 ;
284 [label="gini = 0.0\nsamples = 67\nvalue = [0.0, 39.105]\nclass = Desirable", fillcolor="#399de5"] ;
283 -> 284 ;
285 [label="Average of indices 0 ,1 ,2 ,3 ,4 ,5 ,6 at lane W2E <= 0.36\ngini = 0.246\nsamples = 2\nvalue = [3.489, 0.584]\nclass = Undesirable", fillcolor="#e9965a"] ;
283 -> 285 ;
286 [label="gini = 0.0\nsamples = 1\nvalue = [3.489, 0.0]\nclass = Undesirable", fillcolor="#e58139"] ;
285 -> 286 ;
287 [label="gini = 0.0\nsamples = 1\nvalue = [0.0, 0.584]\nclass = Desirable", fillcolor="#399de5"] ;
285 -> 287 ;
288 [label="gini = -0.0\nsamples = 1\nvalue = [3.489, 0.0]\nclass = Undesirable", fillcolor="#e58139"] ;
282 -> 288 ;
289 [label="Average of indices 0 ,1 ,2 at lane W2E <= 0.5\ngini = 0.381\nsamples = 171\nvalue = [195.359, 67.12]\nclass = Undesirable", fillcolor="#eeac7d"] ;
237 -> 289 ;
290 [label="Value of index 2 at lane S2N <= 0.5\ngini = 0.229\nsamples = 107\nvalue = [195.359, 29.766]\nclass = Undesirable", fillcolor="#e99457"] ;
289 -> 290 ;
291 [label="Average of indices 0 ,1 ,2 at lane E2W <= 0.5\ngini = 0.138\nsamples = 83\nvalue = [195.359, 15.759]\nclass = Undesirable", fillcolor="#e78b49"] ;
290 -> 291 ;
292 [label="Difference between indices 0, 3 at lane E2W <= -0.5\ngini = 0.0\nsamples = 51\nvalue = [177.916, 0.0]\nclass = Undesirable", fillcolor="#e58139"] ;
291 -> 292 ;
293 [label="gini = 0.0\nsamples = 1\nvalue = [3.489, 0.0]\nclass = Undesirable", fillcolor="#e58139"] ;
292 -> 293 ;
294 [label="gini = 0.0\nsamples = 50\nvalue = [174.428, 0.0]\nclass = Undesirable", fillcolor="#e58139"] ;
292 -> 294 ;
295 [label="Value of index 1 at lane E2W <= 0.5\ngini = 0.499\nsamples = 32\nvalue = [17.443, 15.759]\nclass = Undesirable", fillcolor="#fcf3ec"] ;
291 -> 295 ;
296 [label="gini = 0.0\nsamples = 5\nvalue = [17.443, 0.0]\nclass = Undesirable", fillcolor="#e58139"] ;
295 -> 296 ;
297 [label="gini = 0.0\nsamples = 27\nvalue = [0.0, 15.759]\nclass = Desirable", fillcolor="#399de5"] ;
295 -> 297 ;
298 [label="gini = -0.0\nsamples = 24\nvalue = [0.0, 14.008]\nclass = Desirable", fillcolor="#399de5"] ;
290 -> 298 ;
299 [label="gini = -0.0\nsamples = 64\nvalue = [0.0, 37.354]\nclass = Desirable", fillcolor="#399de5"] ;
289 -> 299 ;
300 [label="ACTION = NS <= 0.5\ngini = 0.425\nsamples = 29136\nvalue = [27908.414, 12336.08]\nclass = Undesirable", fillcolor="#f0b991"] ;
0 -> 300 [labeldistance=2.5, labelangle=-45, headlabel="False"] ;
301 [label="Average of indices 0 ,1 ,2 at lane N2S <= 0.5\ngini = 0.35\nsamples = 18747\nvalue = [23830.297, 6954.804]\nclass = Undesirable", fillcolor="#eda673"] ;
300 -> 301 ;
302 [label="Average of indices 0 ,1 ,2 at lane S2N <= 0.5\ngini = 0.461\nsamples = 13070\nvalue = [10455.19, 5879.132]\nclass = Undesirable", fillcolor="#f4c8a8"] ;
301 -> 302 ;
303 [label="ACTION = EW <= 0.5\ngini = 0.498\nsamples = 11113\nvalue = [6125.897, 5461.237]\nclass = Undesirable", fillcolor="#fcf1ea"] ;
302 -> 303 ;
304 [label="Average of indices 0 ,1 ,2 at lane E2W <= 0.5\ngini = 0.455\nsamples = 6313\nvalue = [5225.851, 2810.287]\nclass = Undesirable", fillcolor="#f3c5a3"] ;
303 -> 304 ;
305 [label="Average of indices 0 ,1 ,2 at lane W2E <= 0.5\ngini = 0.491\nsamples = 5112\nvalue = [2016.383, 2646.281]\nclass = Desirable", fillcolor="#d0e8f9"] ;
304 -> 305 ;
306 [label="Average of indices 0 ,1 ,2 at lane S2TL <= 0.5\ngini = 0.339\nsamples = 4557\nvalue = [701.199, 2542.391]\nclass = Desirable", fillcolor="#70b8ec"] ;
305 -> 306 ;
307 [label="Average of indices 0 ,1 ,2 ,3 at lane N2TL <= 0.375\ngini = 0.284\nsamples = 4283\nvalue = [498.863, 2416.322]\nclass = Desirable", fillcolor="#62b1ea"] ;
306 -> 307 ;
308 [label="Average of indices 0 ,1 ,2 at lane E2TL <= 0.5\ngini = 0.211\nsamples = 4035\nvalue = [313.97, 2302.509]\nclass = Desirable", fillcolor="#54aae9"] ;
307 -> 308 ;
309 [label="gini = 0.112\nsamples = 3818\nvalue = [139.542, 2205.039]\nclass = Desirable", fillcolor="#46a3e7"] ;
308 -> 309 ;
310 [label="gini = 0.46\nsamples = 217\nvalue = [174.428, 97.47]\nclass = Undesirable", fillcolor="#f4c7a8"] ;
308 -> 310 ;
311 [label="ACTION = NSL <= 0.5\ngini = 0.472\nsamples = 248\nvalue = [184.893, 113.812]\nclass = Undesirable", fillcolor="#f5cfb3"] ;
307 -> 311 ;
312 [label="gini = 0.142\nsamples = 78\nvalue = [181.405, 15.175]\nclass = Undesirable", fillcolor="#e78c4a"] ;
311 -> 312 ;
313 [label="gini = 0.066\nsamples = 170\nvalue = [3.489, 98.637]\nclass = Desirable", fillcolor="#40a0e6"] ;
311 -> 313 ;
314 [label="ACTION = NSL <= 0.5\ngini = 0.473\nsamples = 274\nvalue = [202.336, 126.069]\nclass = Undesirable", fillcolor="#f5d0b4"] ;
306 -> 314 ;
315 [label="Value of index 1 at lane W2TL <= 0.5\ngini = 0.132\nsamples = 83\nvalue = [198.847, 15.175]\nclass = Undesirable", fillcolor="#e78b48"] ;
314 -> 315 ;
316 [label="gini = 0.05\nsamples = 66\nvalue = [198.847, 5.253]\nclass = Undesirable", fillcolor="#e6843e"] ;
315 -> 316 ;
317 [label="gini = -0.0\nsamples = 17\nvalue = [0.0, 9.922]\nclass = Desirable", fillcolor="#399de5"] ;
315 -> 317 ;
318 [label="Difference between indices 0, 1 at lane S2TL <= 0.5\ngini = 0.059\nsamples = 191\nvalue = [3.489, 110.894]\nclass = Desirable", fillcolor="#3fa0e6"] ;
314 -> 318 ;
319 [label="gini = 0.0\nsamples = 187\nvalue = [0.0, 109.143]\nclass = Desirable", fillcolor="#399de5"] ;
318 -> 319 ;
320 [label="gini = 0.445\nsamples = 4\nvalue = [3.489, 1.751]\nclass = Undesirable", fillcolor="#f2c09c"] ;
318 -> 320 ;
321 [label="Difference between indices 0, 1 at lane W2E <= 0.5\ngini = 0.136\nsamples = 555\nvalue = [1315.184, 103.89]\nclass = Undesirable", fillcolor="#e78b49"] ;
305 -> 321 ;
322 [label="Average of indices 0 ,1 ,2 at lane W2TL <= 0.5\ngini = 0.102\nsamples = 499\nvalue = [1297.741, 74.124]\nclass = Undesirable", fillcolor="#e68844"] ;
321 -> 322 ;
323 [label="Average of indices 0 ,1 ,2 at lane E2TL <= 0.5\ngini = 0.069\nsamples = 439\nvalue = [1252.39, 46.692]\nclass = Undesirable", fillcolor="#e68640"] ;
322 -> 323 ;
324 [label="gini = 0.043\nsamples = 396\nvalue = [1217.505, 27.432]\nclass = Undesirable", fillcolor="#e6843d"] ;
323 -> 324 ;
325 [label="gini = 0.458\nsamples = 43\nvalue = [34.886, 19.261]\nclass = Undesirable", fillcolor="#f3c7a6"] ;
323 -> 325 ;
326 [label="ACTION = EWL <= 0.5\ngini = 0.47\nsamples = 60\nvalue = [45.351, 27.432]\nclass = Undesirable", fillcolor="#f5cdb1"] ;
322 -> 326 ;
327 [label="gini = 0.122\nsamples = 17\nvalue = [41.863, 2.918]\nclass = Undesirable", fillcolor="#e78a47"] ;
326 -> 327 ;
328 [label="gini = 0.218\nsamples = 43\nvalue = [3.489, 24.513]\nclass = Desirable", fillcolor="#55abe9"] ;
326 -> 328 ;
329 [label="Average of indices 0 ,1 ,2 ,3 ,4 ,5 at lane N2TL <= 0.085\ngini = 0.466\nsamples = 56\nvalue = [17.443, 29.766]\nclass = Desirable", fillcolor="#add6f4"] ;
321 -> 329 ;
330 [label="gini = 0.0\nsamples = 28\nvalue = [0.0, 16.342]\nclass = Desirable", fillcolor="#399de5"] ;
329 -> 330 ;
331 [label="Average of indices 0 ,1 ,2 ,3 ,4 at lane N2S <= 0.1\ngini = 0.492\nsamples = 28\nvalue = [17.443, 13.424]\nclass = Undesirable", fillcolor="#f9e2d1"] ;
329 -> 331 ;
332 [label="gini = 0.0\nsamples = 9\nvalue = [0.0, 5.253]\nclass = Desirable", fillcolor="#399de5"] ;
331 -> 332 ;
333 [label="gini = 0.434\nsamples = 19\nvalue = [17.443, 8.171]\nclass = Undesirable", fillcolor="#f1bc96"] ;
331 -> 333 ;
334 [label="Average of indices 0 ,1 ,2 ,3 ,4 ,5 at lane W2TL <= 0.25\ngini = 0.093\nsamples = 1201\nvalue = [3209.468, 164.006]\nclass = Undesirable", fillcolor="#e68743"] ;
304 -> 334 ;
335 [label="Average of indices 0 ,1 ,2 ,3 ,4 ,5 at lane S2TL <= 0.25\ngini = 0.063\nsamples = 1051\nvalue = [3052.483, 102.723]\nclass = Undesirable", fillcolor="#e68540"] ;
334 -> 335 ;
336 [label="Value of index 1 at lane E2W <= 0.5\ngini = 0.04\nsamples = 945\nvalue = [2933.872, 60.7]\nclass = Undesirable", fillcolor="#e6843d"] ;
335 -> 336 ;
337 [label="Average of indices 0 ,1 ,2 ,3 at lane W2E <= 0.375\ngini = 0.432\nsamples = 45\nvalue = [41.863, 19.261]\nclass = Undesirable", fillcolor="#f1bb94"] ;
336 -> 337 ;
338 [label="gini = 0.402\nsamples = 33\nvalue = [6.977, 18.093]\nclass = Desirable", fillcolor="#85c3ef"] ;
337 -> 338 ;
339 [label="gini = 0.063\nsamples = 12\nvalue = [34.886, 1.167]\nclass = Undesirable", fillcolor="#e68540"] ;
337 -> 339 ;
340 [label="Average of indices 0 ,1 ,2 ,3 at lane E2TL <= 0.375\ngini = 0.028\nsamples = 900\nvalue = [2892.009, 41.439]\nclass = Undesirable", fillcolor="#e5833c"] ;
336 -> 340 ;
341 [label="gini = 0.013\nsamples = 830\nvalue = [2787.353, 18.093]\nclass = Undesirable", fillcolor="#e5823a"] ;
340 -> 341 ;
342 [label="gini = 0.298\nsamples = 70\nvalue = [104.657, 23.346]\nclass = Undesirable", fillcolor="#eb9d65"] ;
340 -> 342 ;
343 [label="ACTION = NSL <= 0.5\ngini = 0.386\nsamples = 106\nvalue = [118.611, 42.023]\nclass = Undesirable", fillcolor="#eeae7f"] ;
335 -> 343 ;
344 [label="Average of indices 0 ,1 ,2 ,3 at lane E2TL <= 0.375\ngini = 0.056\nsamples = 40\nvalue = [118.611, 3.502]\nclass = Undesirable", fillcolor="#e6853f"] ;
343 -> 344 ;
345 [label="gini = -0.0\nsamples = 34\nvalue = [118.611, 0.0]\nclass = Undesirable", fillcolor="#e58139"] ;
344 -> 345 ;
346 [label="gini = 0.0\nsamples = 6\nvalue = [0.0, 3.502]\nclass = Desirable", fillcolor="#399de5"] ;
344 -> 346 ;
347 [label="Value of index 0 at lane N2TL <= 0.5\ngini = 0.0\nsamples = 66\nvalue = [0.0, 38.521]\nclass = Desirable", fillcolor="#399de5"] ;
343 -> 347 ;
348 [label="gini = 0.0\nsamples = 26\nvalue = [0.0, 15.175]\nclass = Desirable", fillcolor="#399de5"] ;
347 -> 348 ;
349 [label="gini = 0.0\nsamples = 40\nvalue = [0.0, 23.346]\nclass = Desirable", fillcolor="#399de5"] ;
347 -> 349 ;
350 [label="ACTION = EWL <= 0.5\ngini = 0.404\nsamples = 150\nvalue = [156.985, 61.284]\nclass = Undesirable", fillcolor="#efb286"] ;
334 -> 350 ;
351 [label="Average of indices 0 ,1 ,2 at lane N2TL <= 0.5\ngini = 0.079\nsamples = 54\nvalue = [150.008, 6.42]\nclass = Undesirable", fillcolor="#e68641"] ;
350 -> 351 ;
352 [label="Average of indices 0 ,1 ,2 ,3 at lane S2TL <= 0.375\ngini = 0.023\nsamples = 46\nvalue = [150.008, 1.751]\nclass = Undesirable", fillcolor="#e5823b"] ;
351 -> 352 ;
353 [label="gini = 0.0\nsamples = 43\nvalue = [150.008, 0.0]\nclass = Undesirable", fillcolor="#e58139"] ;
352 -> 353 ;
354 [label="gini = -0.0\nsamples = 3\nvalue = [0.0, 1.751]\nclass = Desirable", fillcolor="#399de5"] ;
352 -> 354 ;
355 [label="gini = -0.0\nsamples = 8\nvalue = [0.0, 4.669]\nclass = Desirable", fillcolor="#399de5"] ;
351 -> 355 ;
356 [label="Difference between indices 0, 1 at lane W2TL <= 0.5\ngini = 0.2\nsamples = 96\nvalue = [6.977, 54.863]\nclass = Desirable", fillcolor="#52a9e8"] ;
350 -> 356 ;
357 [label="gini = 0.0\nsamples = 93\nvalue = [0.0, 54.28]\nclass = Desirable", fillcolor="#399de5"] ;
356 -> 357 ;
358 [label="Value of index 6 at lane E2W <= 0.5\ngini = 0.142\nsamples = 3\nvalue = [6.977, 0.584]\nclass = Undesirable", fillcolor="#e78c4a"] ;
356 -> 358 ;
359 [label="gini = 0.0\nsamples = 2\nvalue = [6.977, 0.0]\nclass = Undesirable", fillcolor="#e58139"] ;
358 -> 359 ;
360 [label="gini = -0.0\nsamples = 1\nvalue = [0.0, 0.584]\nclass = Desirable", fillcolor="#399de5"] ;
358 -> 360 ;
361 [label="Average of indices 0 ,1 ,2 at lane W2TL <= 0.5\ngini = 0.378\nsamples = 4800\nvalue = [900.046, 2650.95]\nclass = Desirable", fillcolor="#7cbeee"] ;
303 -> 361 ;
362 [label="Average of indices 0 ,1 ,2 ,3 ,4 at lane S2TL <= 0.3\ngini = 0.308\nsamples = 4606\nvalue = [607.008, 2586.748]\nclass = Desirable", fillcolor="#67b4eb"] ;
361 -> 362 ;
363 [label="Average of indices 0 ,1 ,2 at lane E2TL <= 0.5\ngini = 0.217\nsamples = 4426\nvalue = [355.832, 2523.714]\nclass = Desirable", fillcolor="#55abe9"] ;
362 -> 363 ;
364 [label="Average of indices 0 ,1 ,2 at lane N2TL <= 0.5\ngini = 0.106\nsamples = 4265\nvalue = [146.519, 2464.765]\nclass = Desirable", fillcolor="#45a3e7"] ;
363 -> 364 ;
365 [label="gini = -0.0\nsamples = 4111\nvalue = [0.0, 2399.396]\nclass = Desirable", fillcolor="#399de5"] ;
364 -> 365 ;
366 [label="Average of indices 0 ,1 ,2 ,3 at lane E2W <= 0.375\ngini = 0.427\nsamples = 154\nvalue = [146.519, 65.369]\nclass = Undesirable", fillcolor="#f1b991"] ;
364 -> 366 ;
367 [label="gini = 0.166\nsamples = 64\nvalue = [139.542, 14.008]\nclass = Undesirable", fillcolor="#e88e4d"] ;
366 -> 367 ;
368 [label="gini = 0.211\nsamples = 90\nvalue = [6.977, 51.361]\nclass = Desirable", fillcolor="#54aae9"] ;
366 -> 368 ;
369 [label="Average of indices 0 ,1 ,2 ,3 at lane W2E <= 0.375\ngini = 0.343\nsamples = 161\nvalue = [209.313, 58.949]\nclass = Undesirable", fillcolor="#eca471"] ;
363 -> 369 ;
370 [label="Average of indices 0 ,1 ,2 at lane E2W <= 0.5\ngini = 0.119\nsamples = 83\nvalue = [205.825, 14.008]\nclass = Undesirable", fillcolor="#e78a46"] ;
369 -> 370 ;
371 [label="gini = 0.006\nsamples = 58\nvalue = [198.847, 0.584]\nclass = Undesirable", fillcolor="#e5813a"] ;
370 -> 371 ;
372 [label="gini = 0.45\nsamples = 25\nvalue = [6.977, 13.424]\nclass = Desirable", fillcolor="#a0d0f3"] ;
370 -> 372 ;
373 [label="Average of indices 0 ,1 ,2 ,3 ,4 ,5 ,6 at lane E2W <= 0.07\ngini = 0.134\nsamples = 78\nvalue = [3.489, 44.941]\nclass = Desirable", fillcolor="#48a5e7"] ;
369 -> 373 ;
374 [label="gini = 0.376\nsamples = 3\nvalue = [3.489, 1.167]\nclass = Undesirable", fillcolor="#eeab7b"] ;
373 -> 374 ;
375 [label="gini = 0.0\nsamples = 75\nvalue = [0.0, 43.774]\nclass = Desirable", fillcolor="#399de5"] ;
373 -> 375 ;
376 [label="Average of indices 0 ,1 ,2 at lane E2W <= 0.5\ngini = 0.321\nsamples = 180\nvalue = [251.176, 63.034]\nclass = Undesirable", fillcolor="#eca16b"] ;
362 -> 376 ;
377 [label="Average of indices 0 ,1 ,2 ,3 at lane W2E <= 0.625\ngini = 0.084\nsamples = 88\nvalue = [240.71, 11.089]\nclass = Undesirable", fillcolor="#e68742"] ;
376 -> 377 ;
378 [label="Average of indices 0 ,1 ,2 at lane W2E <= 0.5\ngini = 0.059\nsamples = 82\nvalue = [240.71, 7.587]\nclass = Undesirable", fillcolor="#e6853f"] ;
377 -> 378 ;
379 [label="gini = 0.015\nsamples = 67\nvalue = [223.267, 1.751]\nclass = Undesirable", fillcolor="#e5823b"] ;
378 -> 379 ;
380 [label="gini = 0.376\nsamples = 15\nvalue = [17.443, 5.837]\nclass = Undesirable", fillcolor="#eeab7b"] ;
378 -> 380 ;
381 [label="gini = -0.0\nsamples = 6\nvalue = [0.0, 3.502]\nclass = Desirable", fillcolor="#399de5"] ;
377 -> 381 ;
382 [label="Value of index 1 at lane E2W <= 0.5\ngini = 0.279\nsamples = 92\nvalue = [10.466, 51.945]\nclass = Desirable", fillcolor="#61b1ea"] ;
376 -> 382 ;
383 [label="gini = 0.0\nsamples = 3\nvalue = [10.466, 0.0]\nclass = Undesirable", fillcolor="#e58139"] ;
382 -> 383 ;
384 [label="gini = 0.0\nsamples = 89\nvalue = [0.0, 51.945]\nclass = Desirable", fillcolor="#399de5"] ;
382 -> 384 ;
385 [label="Value of index 1 at lane E2W <= 0.5\ngini = 0.295\nsamples = 194\nvalue = [293.038, 64.202]\nclass = Undesirable", fillcolor="#eb9d64"] ;
361 -> 385 ;
386 [label="Average of indices 0 ,1 ,2 at lane W2E <= 0.5\ngini = 0.108\nsamples = 113\nvalue = [289.55, 17.51]\nclass = Undesirable", fillcolor="#e78945"] ;
385 -> 386 ;
387 [label="Value of index 0 at lane W2TL <= 0.5\ngini = 0.016\nsamples = 85\nvalue = [282.573, 2.335]\nclass = Undesirable", fillcolor="#e5823b"] ;
386 -> 387 ;
388 [label="gini = 0.0\nsamples = 1\nvalue = [0.0, 0.584]\nclass = Desirable", fillcolor="#399de5"] ;
387 -> 388 ;
389 [label="Difference between indices 0, 3 at lane S2N <= -0.5\ngini = 0.012\nsamples = 84\nvalue = [282.573, 1.751]\nclass = Undesirable", fillcolor="#e5823a"] ;
387 -> 389 ;
390 [label="gini = 0.0\nsamples = 1\nvalue = [0.0, 0.584]\nclass = Desirable", fillcolor="#399de5"] ;
389 -> 390 ;
391 [label="gini = 0.008\nsamples = 83\nvalue = [282.573, 1.167]\nclass = Undesirable", fillcolor="#e5823a"] ;
389 -> 391 ;
392 [label="Value of index 7 at lane S2TL <= 0.5\ngini = 0.432\nsamples = 28\nvalue = [6.977, 15.175]\nclass = Desirable", fillcolor="#94caf1"] ;
386 -> 392 ;
393 [label="gini = 0.0\nsamples = 26\nvalue = [0.0, 15.175]\nclass = Desirable", fillcolor="#399de5"] ;
392 -> 393 ;
394 [label="gini = -0.0\nsamples = 2\nvalue = [6.977, 0.0]\nclass = Undesirable", fillcolor="#e58139"] ;
392 -> 394 ;
395 [label="Average of indices 0 ,1 ,2 ,3 at lane E2W <= 0.375\ngini = 0.129\nsamples = 81\nvalue = [3.489, 46.692]\nclass = Desirable", fillcolor="#48a4e7"] ;
385 -> 395 ;
396 [label="gini = 0.0\nsamples = 1\nvalue = [3.489, 0.0]\nclass = Undesirable", fillcolor="#e58139"] ;
395 -> 396 ;
397 [label="gini = 0.0\nsamples = 80\nvalue = [0.0, 46.692]\nclass = Desirable", fillcolor="#399de5"] ;
395 -> 397 ;
398 [label="Value of index 1 at lane S2N <= 0.5\ngini = 0.161\nsamples = 1957\nvalue = [4329.293, 417.895]\nclass = Undesirable", fillcolor="#e88d4c"] ;
302 -> 398 ;
399 [label="ACTION = EWL <= 0.5\ngini = 0.495\nsamples = 158\nvalue = [94.191, 76.458]\nclass = Undesirable", fillcolor="#fae7da"] ;
398 -> 399 ;
400 [label="Average of indices 0 ,1 ,2 ,3 at lane W2TL <= 0.375\ngini = 0.471\nsamples = 118\nvalue = [38.374, 62.451]\nclass = Desirable", fillcolor="#b3d9f5"] ;
399 -> 400 ;
401 [label="Difference between indices 0, 4 at lane S2N <= 0.5\ngini = 0.409\nsamples = 111\nvalue = [24.42, 60.7]\nclass = Desirable", fillcolor="#89c4ef"] ;
400 -> 401 ;
402 [label="Difference between indices 0, 7 at lane S2N <= 0.5\ngini = 0.298\nsamples = 7\nvalue = [10.466, 2.335]\nclass = Undesirable", fillcolor="#eb9d65"] ;
401 -> 402 ;
403 [label="gini = 0.0\nsamples = 2\nvalue = [0.0, 1.167]\nclass = Desirable", fillcolor="#399de5"] ;
402 -> 403 ;
404 [label="Difference between indices 0, 7 at lane W2E <= 0.5\ngini = 0.181\nsamples = 5\nvalue = [10.466, 1.167]\nclass = Undesirable", fillcolor="#e88f4f"] ;
402 -> 404 ;
405 [label="gini = 0.1\nsamples = 4\nvalue = [10.466, 0.584]\nclass = Undesirable", fillcolor="#e68844"] ;
404 -> 405 ;
406 [label="gini = -0.0\nsamples = 1\nvalue = [0.0, 0.584]\nclass = Desirable", fillcolor="#399de5"] ;
404 -> 406 ;
407 [label="Average of indices 0 ,1 ,2 ,3 ,4 at lane E2W <= 0.5\ngini = 0.311\nsamples = 104\nvalue = [13.954, 58.365]\nclass = Desirable", fillcolor="#68b4eb"] ;
401 -> 407 ;
408 [label="Difference between indices 0, 5 at lane E2W <= -0.5\ngini = 0.123\nsamples = 86\nvalue = [3.489, 49.61]\nclass = Desirable", fillcolor="#47a4e7"] ;
407 -> 408 ;
409 [label="gini = 0.246\nsamples = 2\nvalue = [3.489, 0.584]\nclass = Undesirable", fillcolor="#e9965a"] ;
408 -> 409 ;
410 [label="gini = 0.0\nsamples = 84\nvalue = [0.0, 49.027]\nclass = Desirable", fillcolor="#399de5"] ;
408 -> 410 ;
411 [label="ACTION = EW <= 0.5\ngini = 0.496\nsamples = 18\nvalue = [10.466, 8.755]\nclass = Undesirable", fillcolor="#fbeadf"] ;
407 -> 411 ;
412 [label="gini = 0.0\nsamples = 3\nvalue = [10.466, 0.0]\nclass = Undesirable", fillcolor="#e58139"] ;
411 -> 412 ;
413 [label="gini = -0.0\nsamples = 15\nvalue = [0.0, 8.755]\nclass = Desirable", fillcolor="#399de5"] ;
411 -> 413 ;
414 [label="Value of index 1 at lane N2S <= 0.5\ngini = 0.198\nsamples = 7\nvalue = [13.954, 1.751]\nclass = Undesirable", fillcolor="#e89152"] ;
400 -> 414 ;
415 [label="Value of index 7 at lane S2N <= 0.5\ngini = 0.077\nsamples = 5\nvalue = [13.954, 0.584]\nclass = Undesirable", fillcolor="#e68641"] ;
414 -> 415 ;
416 [label="gini = 0.0\nsamples = 4\nvalue = [13.954, 0.0]\nclass = Undesirable", fillcolor="#e58139"] ;
415 -> 416 ;
417 [label="gini = -0.0\nsamples = 1\nvalue = [0.0, 0.584]\nclass = Desirable", fillcolor="#399de5"] ;
415 -> 417 ;
418 [label="gini = -0.0\nsamples = 2\nvalue = [0.0, 1.167]\nclass = Desirable", fillcolor="#399de5"] ;
414 -> 418 ;
419 [label="Value of index 0 at lane E2W <= 0.5\ngini = 0.321\nsamples = 40\nvalue = [55.817, 14.008]\nclass = Undesirable", fillcolor="#eca16b"] ;
399 -> 419 ;
420 [label="Average of indices 0 ,1 ,2 ,3 at lane N2TL <= 0.5\ngini = 0.385\nsamples = 18\nvalue = [3.489, 9.922]\nclass = Desirable", fillcolor="#7fbfee"] ;
419 -> 420 ;
421 [label="gini = -0.0\nsamples = 17\nvalue = [0.0, 9.922]\nclass = Desirable", fillcolor="#399de5"] ;
420 -> 421 ;
422 [label="gini = -0.0\nsamples = 1\nvalue = [3.489, 0.0]\nclass = Undesirable", fillcolor="#e58139"] ;
420 -> 422 ;
423 [label="Average of indices 0 ,1 ,2 ,3 at lane E2TL <= 0.375\ngini = 0.134\nsamples = 22\nvalue = [52.328, 4.086]\nclass = Undesirable", fillcolor="#e78b48"] ;
419 -> 423 ;
424 [label="Average of indices 0 ,1 ,2 ,3 ,4 at lane W2E <= 0.1\ngini = 0.082\nsamples = 19\nvalue = [52.328, 2.335]\nclass = Undesirable", fillcolor="#e68742"] ;
423 -> 424 ;
425 [label="gini = 0.0\nsamples = 2\nvalue = [0.0, 1.167]\nclass = Desirable", fillcolor="#399de5"] ;
424 -> 425 ;
426 [label="Value of index 4 at lane S2TL <= 0.5\ngini = 0.043\nsamples = 17\nvalue = [52.328, 1.167]\nclass = Undesirable", fillcolor="#e6843d"] ;
424 -> 426 ;
427 [label="gini = 0.022\nsamples = 16\nvalue = [52.328, 0.584]\nclass = Undesirable", fillcolor="#e5823b"] ;
426 -> 427 ;
428 [label="gini = -0.0\nsamples = 1\nvalue = [0.0, 0.584]\nclass = Desirable", fillcolor="#399de5"] ;
426 -> 428 ;
429 [label="gini = -0.0\nsamples = 3\nvalue = [0.0, 1.751]\nclass = Desirable", fillcolor="#399de5"] ;
423 -> 429 ;
430 [label="Average of indices 0 ,1 ,2 at lane W2E <= 0.5\ngini = 0.138\nsamples = 1799\nvalue = [4235.102, 341.437]\nclass = Undesirable", fillcolor="#e78b49"] ;
398 -> 430 ;
431 [label="Average of indices 0 ,1 ,2 at lane S2TL <= 0.5\ngini = 0.082\nsamples = 1251\nvalue = [3443.201, 154.084]\nclass = Undesirable", fillcolor="#e68742"] ;
430 -> 431 ;
432 [label="Average of indices 0 ,1 ,2 ,3 at lane E2TL <= 0.375\ngini = 0.066\nsamples = 1156\nvalue = [3331.567, 117.314]\nclass = Undesirable", fillcolor="#e68540"] ;
431 -> 432 ;
433 [label="Average of indices 0 ,1 ,2 at lane N2TL <= 0.5\ngini = 0.051\nsamples = 1066\nvalue = [3205.979, 85.797]\nclass = Undesirable", fillcolor="#e6843e"] ;
432 -> 433 ;
434 [label="Average of indices 0 ,1 ,2 at lane E2W <= 0.5\ngini = 0.034\nsamples = 969\nvalue = [3055.971, 54.28]\nclass = Undesirable", fillcolor="#e5833d"] ;
433 -> 434 ;
435 [label="gini = 0.013\nsamples = 820\nvalue = [2755.956, 17.51]\nclass = Undesirable", fillcolor="#e5823a"] ;
434 -> 435 ;
436 [label="gini = 0.195\nsamples = 149\nvalue = [300.015, 36.77]\nclass = Undesirable", fillcolor="#e89051"] ;
434 -> 436 ;
437 [label="ACTION = NSL <= 0.5\ngini = 0.287\nsamples = 97\nvalue = [150.008, 31.517]\nclass = Undesirable", fillcolor="#ea9b63"] ;
433 -> 437 ;
438 [label="gini = 0.037\nsamples = 48\nvalue = [150.008, 2.918]\nclass = Undesirable", fillcolor="#e6833d"] ;
437 -> 438 ;
439 [label="gini = -0.0\nsamples = 49\nvalue = [0.0, 28.599]\nclass = Desirable", fillcolor="#399de5"] ;
437 -> 439 ;
440 [label="ACTION = EWL <= 0.5\ngini = 0.321\nsamples = 90\nvalue = [125.588, 31.517]\nclass = Undesirable", fillcolor="#eca16b"] ;
432 -> 440 ;
441 [label="Average of indices 0 ,1 ,2 ,3 ,4 ,5 at lane E2W <= 0.415\ngini = 0.087\nsamples = 45\nvalue = [122.099, 5.837]\nclass = Undesirable", fillcolor="#e68742"] ;
440 -> 441 ;
442 [label="gini = 0.046\nsamples = 40\nvalue = [122.099, 2.918]\nclass = Undesirable", fillcolor="#e6843e"] ;
441 -> 442 ;
443 [label="gini = 0.0\nsamples = 5\nvalue = [0.0, 2.918]\nclass = Desirable", fillcolor="#399de5"] ;
441 -> 443 ;
444 [label="Value of index 1 at lane E2TL <= 0.5\ngini = 0.211\nsamples = 45\nvalue = [3.489, 25.681]\nclass = Desirable", fillcolor="#54aae9"] ;
440 -> 444 ;
445 [label="gini = 0.376\nsamples = 3\nvalue = [3.489, 1.167]\nclass = Undesirable", fillcolor="#eeab7b"] ;
444 -> 445 ;
446 [label="gini = -0.0\nsamples = 42\nvalue = [0.0, 24.513]\nclass = Desirable", fillcolor="#399de5"] ;
444 -> 446 ;
447 [label="ACTION = NSL <= 0.5\ngini = 0.373\nsamples = 95\nvalue = [111.634, 36.77]\nclass = Undesirable", fillcolor="#eeab7a"] ;
431 -> 447 ;
448 [label="Difference between indices 0, 5 at lane S2TL <= 0.5\ngini = 0.079\nsamples = 39\nvalue = [108.145, 4.669]\nclass = Undesirable", fillcolor="#e68642"] ;
447 -> 448 ;
449 [label="gini = 0.0\nsamples = 2\nvalue = [0.0, 1.167]\nclass = Desirable", fillcolor="#399de5"] ;
448 -> 449 ;
450 [label="Average of indices 0 ,1 ,2 ,3 ,4 at lane W2TL <= 0.3\ngini = 0.061\nsamples = 37\nvalue = [108.145, 3.502]\nclass = Undesirable", fillcolor="#e6853f"] ;
448 -> 450 ;
451 [label="gini = 0.041\nsamples = 35\nvalue = [108.145, 2.335]\nclass = Undesirable", fillcolor="#e6843d"] ;
450 -> 451 ;
452 [label="gini = 0.0\nsamples = 2\nvalue = [0.0, 1.167]\nclass = Desirable", fillcolor="#399de5"] ;
450 -> 452 ;
453 [label="Difference between indices 0, 1 at lane S2TL <= 0.5\ngini = 0.177\nsamples = 56\nvalue = [3.489, 32.101]\nclass = Desirable", fillcolor="#4fa8e8"] ;
447 -> 453 ;
454 [label="gini = 0.0\nsamples = 55\nvalue = [0.0, 32.101]\nclass = Desirable", fillcolor="#399de5"] ;
453 -> 454 ;
455 [label="gini = -0.0\nsamples = 1\nvalue = [3.489, 0.0]\nclass = Undesirable", fillcolor="#e58139"] ;
453 -> 455 ;
456 [label="ACTION = EW <= 0.5\ngini = 0.309\nsamples = 548\nvalue = [791.901, 187.352]\nclass = Undesirable", fillcolor="#eb9f68"] ;
430 -> 456 ;
457 [label="Average of indices 0 ,1 ,2 ,3 ,4 at lane W2TL <= 0.3\ngini = 0.061\nsamples = 263\nvalue = [767.481, 25.097]\nclass = Undesirable", fillcolor="#e6853f"] ;
456 -> 457 ;
458 [label="Value of index 1 at lane N2TL <= 0.5\ngini = 0.039\nsamples = 241\nvalue = [750.039, 15.175]\nclass = Undesirable", fillcolor="#e6843d"] ;
457 -> 458 ;
459 [label="Value of index 1 at lane S2TL <= 0.5\ngini = 0.021\nsamples = 220\nvalue = [722.13, 7.587]\nclass = Undesirable", fillcolor="#e5823b"] ;
458 -> 459 ;
460 [label="gini = 0.008\nsamples = 204\nvalue = [694.222, 2.918]\nclass = Undesirable", fillcolor="#e5823a"] ;
459 -> 460 ;
461 [label="gini = 0.246\nsamples = 16\nvalue = [27.908, 4.669]\nclass = Undesirable", fillcolor="#e9965a"] ;
459 -> 461 ;
462 [label="ACTION = NSL <= 0.5\ngini = 0.336\nsamples = 21\nvalue = [27.908, 7.587]\nclass = Undesirable", fillcolor="#eca36f"] ;
458 -> 462 ;
463 [label="gini = 0.087\nsamples = 9\nvalue = [24.42, 1.167]\nclass = Undesirable", fillcolor="#e68742"] ;
462 -> 463 ;
464 [label="gini = 0.456\nsamples = 12\nvalue = [3.489, 6.42]\nclass = Desirable", fillcolor="#a5d2f3"] ;
462 -> 464 ;
465 [label="ACTION = EWL <= 0.5\ngini = 0.462\nsamples = 22\nvalue = [17.443, 9.922]\nclass = Undesirable", fillcolor="#f4c9aa"] ;
457 -> 465 ;
466 [label="gini = 0.0\nsamples = 5\nvalue = [17.443, 0.0]\nclass = Undesirable", fillcolor="#e58139"] ;
465 -> 466 ;
467 [label="gini = -0.0\nsamples = 17\nvalue = [0.0, 9.922]\nclass = Desirable", fillcolor="#399de5"] ;
465 -> 467 ;
468 [label="Value of index 1 at lane W2E <= 0.5\ngini = 0.227\nsamples = 285\nvalue = [24.42, 162.255]\nclass = Desirable", fillcolor="#57ace9"] ;
456 -> 468 ;
469 [label="Value of index 1 at lane E2W <= 0.5\ngini = 0.246\nsamples = 10\nvalue = [17.443, 2.918]\nclass = Undesirable", fillcolor="#e9965a"] ;
468 -> 469 ;
470 [label="gini = 0.0\nsamples = 5\nvalue = [17.443, 0.0]\nclass = Undesirable", fillcolor="#e58139"] ;
469 -> 470 ;
471 [label="gini = -0.0\nsamples = 5\nvalue = [0.0, 2.918]\nclass = Desirable", fillcolor="#399de5"] ;
469 -> 471 ;
472 [label="Difference between indices 0, 7 at lane W2E <= -0.5\ngini = 0.08\nsamples = 275\nvalue = [6.977, 159.337]\nclass = Desirable", fillcolor="#42a1e6"] ;
468 -> 472 ;
473 [label="gini = 0.0\nsamples = 2\nvalue = [6.977, 0.0]\nclass = Undesirable", fillcolor="#e58139"] ;
472 -> 473 ;
474 [label="gini = -0.0\nsamples = 273\nvalue = [0.0, 159.337]\nclass = Desirable", fillcolor="#399de5"] ;
472 -> 474 ;
475 [label="Average of indices 0 ,1 ,2 at lane E2W <= 0.5\ngini = 0.138\nsamples = 5677\nvalue = [13375.108, 1075.672]\nclass = Undesirable", fillcolor="#e78b49"] ;
301 -> 475 ;
476 [label="Difference between indices 0, 1 at lane N2S <= 0.5\ngini = 0.085\nsamples = 3839\nvalue = [10469.144, 489.101]\nclass = Undesirable", fillcolor="#e68742"] ;
475 -> 476 ;
477 [label="Average of indices 0 ,1 ,2 at lane W2E <= 0.5\ngini = 0.074\nsamples = 3653\nvalue = [10280.762, 412.059]\nclass = Undesirable", fillcolor="#e68641"] ;
476 -> 477 ;
478 [label="Average of indices 0 ,1 ,2 at lane N2TL <= 0.5\ngini = 0.051\nsamples = 3062\nvalue = [9209.777, 246.301]\nclass = Undesirable", fillcolor="#e6843e"] ;
477 -> 478 ;
479 [label="Value of index 1 at lane W2TL <= 0.5\ngini = 0.037\nsamples = 2791\nvalue = [8745.799, 165.757]\nclass = Undesirable", fillcolor="#e5833d"] ;
478 -> 479 ;
480 [label="Average of indices 0 ,1 ,2 at lane E2TL <= 0.5\ngini = 0.022\nsamples = 2505\nvalue = [8198.097, 90.466]\nclass = Undesirable", fillcolor="#e5823b"] ;
479 -> 480 ;
481 [label="Average of indices 0 ,1 ,2 at lane S2TL <= 0.5\ngini = 0.01\nsamples = 2296\nvalue = [7775.982, 39.105]\nclass = Undesirable", fillcolor="#e5823a"] ;
480 -> 481 ;
482 [label="gini = 0.001\nsamples = 2156\nvalue = [7500.386, 3.502]\nclass = Undesirable", fillcolor="#e58139"] ;
481 -> 482 ;
483 [label="gini = 0.203\nsamples = 140\nvalue = [275.596, 35.603]\nclass = Undesirable", fillcolor="#e89153"] ;
481 -> 483 ;
484 [label="ACTION = EWL <= 0.5\ngini = 0.193\nsamples = 209\nvalue = [422.115, 51.361]\nclass = Undesirable", fillcolor="#e89051"] ;
480 -> 484 ;
485 [label="gini = 0.003\nsamples = 120\nvalue = [415.138, 0.584]\nclass = Undesirable", fillcolor="#e58139"] ;
484 -> 485 ;
486 [label="gini = 0.212\nsamples = 89\nvalue = [6.977, 50.778]\nclass = Desirable", fillcolor="#54aae9"] ;
484 -> 486 ;
487 [label="ACTION = EWL <= 0.5\ngini = 0.212\nsamples = 286\nvalue = [547.703, 75.291]\nclass = Undesirable", fillcolor="#e99254"] ;
479 -> 487 ;
488 [label="Value of index 1 at lane S2TL <= 0.5\ngini = 0.017\nsamples = 161\nvalue = [533.748, 4.669]\nclass = Undesirable", fillcolor="#e5823b"] ;
487 -> 488 ;
489 [label="gini = 0.002\nsamples = 154\nvalue = [533.748, 0.584]\nclass = Undesirable", fillcolor="#e58139"] ;
488 -> 489 ;
490 [label="gini = 0.0\nsamples = 7\nvalue = [0.0, 4.086]\nclass = Desirable", fillcolor="#399de5"] ;
488 -> 490 ;
491 [label="Average of indices 0 ,1 ,2 ,3 ,4 ,5 ,6 at lane W2TL <= 0.215\ngini = 0.276\nsamples = 125\nvalue = [13.954, 70.622]\nclass = Desirable", fillcolor="#60b0ea"] ;
487 -> 491 ;
492 [label="gini = 0.0\nsamples = 4\nvalue = [13.954, 0.0]\nclass = Undesirable", fillcolor="#e58139"] ;
491 -> 492 ;
493 [label="gini = 0.0\nsamples = 121\nvalue = [0.0, 70.622]\nclass = Desirable", fillcolor="#399de5"] ;
491 -> 493 ;
494 [label="ACTION = NSL <= 0.5\ngini = 0.252\nsamples = 271\nvalue = [463.977, 80.544]\nclass = Undesirable", fillcolor="#ea975b"] ;
478 -> 494 ;
495 [label="Value of index 1 at lane W2TL <= 0.5\ngini = 0.044\nsamples = 149\nvalue = [457.0, 10.506]\nclass = Undesirable", fillcolor="#e6843e"] ;
494 -> 495 ;
496 [label="Value of index 1 at lane E2TL <= 0.5\ngini = 0.013\nsamples = 128\nvalue = [429.092, 2.918]\nclass = Undesirable", fillcolor="#e5823a"] ;
495 -> 496 ;
497 [label="gini = -0.0\nsamples = 118\nvalue = [411.649, 0.0]\nclass = Undesirable", fillcolor="#e58139"] ;
496 -> 497 ;
498 [label="gini = 0.246\nsamples = 10\nvalue = [17.443, 2.918]\nclass = Undesirable", fillcolor="#e9965a"] ;
496 -> 498 ;
499 [label="ACTION = EWL <= 0.5\ngini = 0.336\nsamples = 21\nvalue = [27.908, 7.587]\nclass = Undesirable", fillcolor="#eca36f"] ;
495 -> 499 ;
500 [label="gini = 0.0\nsamples = 8\nvalue = [27.908, 0.0]\nclass = Undesirable", fillcolor="#e58139"] ;
499 -> 500 ;
501 [label="gini = 0.0\nsamples = 13\nvalue = [0.0, 7.587]\nclass = Desirable", fillcolor="#399de5"] ;
499 -> 501 ;
502 [label="Difference between indices 0, 1 at lane N2TL <= 0.5\ngini = 0.165\nsamples = 122\nvalue = [6.977, 70.038]\nclass = Desirable", fillcolor="#4da7e8"] ;
494 -> 502 ;
503 [label="Value of index 4 at lane N2S <= 0.5\ngini = 0.0\nsamples = 120\nvalue = [0.0, 70.038]\nclass = Desirable", fillcolor="#399de5"] ;
502 -> 503 ;
504 [label="gini = 0.0\nsamples = 105\nvalue = [0.0, 61.284]\nclass = Desirable", fillcolor="#399de5"] ;
503 -> 504 ;
505 [label="gini = 0.0\nsamples = 15\nvalue = [0.0, 8.755]\nclass = Desirable", fillcolor="#399de5"] ;
503 -> 505 ;
506 [label="Difference between indices 0, 3 at lane W2TL <= 0.5\ngini = 0.0\nsamples = 2\nvalue = [6.977, 0.0]\nclass = Undesirable", fillcolor="#e58139"] ;
502 -> 506 ;
507 [label="gini = 0.0\nsamples = 1\nvalue = [3.489, 0.0]\nclass = Undesirable", fillcolor="#e58139"] ;
506 -> 507 ;
508 [label="gini = 0.0\nsamples = 1\nvalue = [3.489, 0.0]\nclass = Undesirable", fillcolor="#e58139"] ;
506 -> 508 ;
509 [label="ACTION = EW <= 0.5\ngini = 0.232\nsamples = 591\nvalue = [1070.985, 165.757]\nclass = Undesirable", fillcolor="#e99558"] ;
477 -> 509 ;
510 [label="Average of indices 0 ,1 ,2 ,3 ,4 at lane E2TL <= 0.5\ngini = 0.064\nsamples = 329\nvalue = [952.375, 32.685]\nclass = Undesirable", fillcolor="#e68540"] ;
509 -> 510 ;
511 [label="Average of indices 0 ,1 ,2 ,3 at lane S2TL <= 0.375\ngini = 0.052\nsamples = 314\nvalue = [941.909, 25.681]\nclass = Undesirable", fillcolor="#e6843e"] ;
510 -> 511 ;
512 [label="Average of indices 0 ,1 ,2 ,3 at lane N2TL <= 0.375\ngini = 0.033\nsamples = 282\nvalue = [893.069, 15.175]\nclass = Undesirable", fillcolor="#e5833c"] ;
511 -> 512 ;
513 [label="gini = 0.02\nsamples = 263\nvalue = [865.161, 8.755]\nclass = Undesirable", fillcolor="#e5823b"] ;
512 -> 513 ;
514 [label="gini = 0.304\nsamples = 19\nvalue = [27.908, 6.42]\nclass = Undesirable", fillcolor="#eb9e67"] ;
512 -> 514 ;
515 [label="ACTION = EWL <= 0.5\ngini = 0.291\nsamples = 32\nvalue = [48.84, 10.506]\nclass = Undesirable", fillcolor="#eb9c64"] ;
511 -> 515 ;
516 [label="gini = 0.0\nsamples = 16\nvalue = [0.0, 9.338]\nclass = Desirable", fillcolor="#399de5"] ;
515 -> 516 ;
517 [label="gini = 0.046\nsamples = 16\nvalue = [48.84, 1.167]\nclass = Undesirable", fillcolor="#e6843e"] ;
515 -> 517 ;
518 [label="ACTION = EWL <= 0.5\ngini = 0.48\nsamples = 15\nvalue = [10.466, 7.004]\nclass = Undesirable", fillcolor="#f6d5be"] ;
510 -> 518 ;
519 [label="gini = 0.0\nsamples = 3\nvalue = [10.466, 0.0]\nclass = Undesirable", fillcolor="#e58139"] ;
518 -> 519 ;
520 [label="gini = -0.0\nsamples = 12\nvalue = [0.0, 7.004]\nclass = Desirable", fillcolor="#399de5"] ;
518 -> 520 ;
521 [label="Difference between indices 0, 1 at lane W2E <= 0.5\ngini = 0.498\nsamples = 262\nvalue = [118.611, 133.073]\nclass = Desirable", fillcolor="#e9f4fc"] ;
509 -> 521 ;
522 [label="Value of index 0 at lane W2E <= 0.5\ngini = 0.309\nsamples = 237\nvalue = [31.397, 133.073]\nclass = Desirable", fillcolor="#68b4eb"] ;
521 -> 522 ;
523 [label="gini = 0.0\nsamples = 9\nvalue = [31.397, 0.0]\nclass = Undesirable", fillcolor="#e58139"] ;
522 -> 523 ;
524 [label="gini = -0.0\nsamples = 228\nvalue = [0.0, 133.073]\nclass = Desirable", fillcolor="#399de5"] ;
522 -> 524 ;
525 [label="gini = -0.0\nsamples = 25\nvalue = [87.214, 0.0]\nclass = Undesirable", fillcolor="#e58139"] ;
521 -> 525 ;
526 [label="Value of index 1 at lane S2N <= 0.5\ngini = 0.412\nsamples = 186\nvalue = [188.382, 77.042]\nclass = Undesirable", fillcolor="#f0b58a"] ;
476 -> 526 ;
527 [label="Average of indices 0 ,1 ,2 ,3 at lane W2TL <= 0.375\ngini = 0.5\nsamples = 138\nvalue = [69.771, 68.871]\nclass = Undesirable", fillcolor="#fffdfc"] ;
526 -> 527 ;
528 [label="Average of indices 0 ,1 ,2 ,3 ,4 ,5 at lane W2E <= 0.25\ngini = 0.49\nsamples = 126\nvalue = [48.84, 65.369]\nclass = Desirable", fillcolor="#cde6f8"] ;
527 -> 528 ;
529 [label="Average of indices 0 ,1 ,2 ,3 ,4 ,5 ,6 at lane S2TL <= 0.215\ngini = 0.392\nsamples = 104\nvalue = [20.931, 57.198]\nclass = Desirable", fillcolor="#81c1ef"] ;
528 -> 529 ;
530 [label="Value of index 1 at lane E2TL <= 0.5\ngini = 0.211\nsamples = 90\nvalue = [6.977, 51.361]\nclass = Desirable", fillcolor="#54aae9"] ;
529 -> 530 ;
531 [label="gini = 0.0\nsamples = 86\nvalue = [0.0, 50.194]\nclass = Desirable", fillcolor="#399de5"] ;
530 -> 531 ;
532 [label="gini = 0.246\nsamples = 4\nvalue = [6.977, 1.167]\nclass = Undesirable", fillcolor="#e9965a"] ;
530 -> 532 ;
533 [label="ACTION = NSL <= 0.5\ngini = 0.416\nsamples = 14\nvalue = [13.954, 5.837]\nclass = Undesirable", fillcolor="#f0b68c"] ;
529 -> 533 ;
534 [label="gini = 0.198\nsamples = 7\nvalue = [13.954, 1.751]\nclass = Undesirable", fillcolor="#e89152"] ;
533 -> 534 ;
535 [label="gini = 0.0\nsamples = 7\nvalue = [0.0, 4.086]\nclass = Desirable", fillcolor="#399de5"] ;
533 -> 535 ;
536 [label="ACTION = EW <= 0.5\ngini = 0.35\nsamples = 22\nvalue = [27.908, 8.171]\nclass = Undesirable", fillcolor="#eda673"] ;
528 -> 536 ;
537 [label="Value of index 7 at lane E2W <= 0.5\ngini = 0.077\nsamples = 10\nvalue = [27.908, 1.167]\nclass = Undesirable", fillcolor="#e68641"] ;
536 -> 537 ;
538 [label="gini = 0.0\nsamples = 8\nvalue = [27.908, 0.0]\nclass = Undesirable", fillcolor="#e58139"] ;
537 -> 538 ;
539 [label="gini = -0.0\nsamples = 2\nvalue = [0.0, 1.167]\nclass = Desirable", fillcolor="#399de5"] ;
537 -> 539 ;
540 [label="Difference between indices 0, 6 at lane W2E <= 0.5\ngini = 0.0\nsamples = 12\nvalue = [0.0, 7.004]\nclass = Desirable", fillcolor="#399de5"] ;
536 -> 540 ;
541 [label="gini = 0.0\nsamples = 2\nvalue = [0.0, 1.167]\nclass = Desirable", fillcolor="#399de5"] ;
540 -> 541 ;
542 [label="gini = 0.0\nsamples = 10\nvalue = [0.0, 5.837]\nclass = Desirable", fillcolor="#399de5"] ;
540 -> 542 ;
543 [label="Average of indices 0 ,1 ,2 at lane S2N <= 0.165\ngini = 0.246\nsamples = 12\nvalue = [20.931, 3.502]\nclass = Undesirable", fillcolor="#e9965a"] ;
527 -> 543 ;
544 [label="gini = 0.0\nsamples = 5\nvalue = [0.0, 2.918]\nclass = Desirable", fillcolor="#399de5"] ;
543 -> 544 ;
545 [label="Value of index 5 at lane N2S <= 0.5\ngini = 0.053\nsamples = 7\nvalue = [20.931, 0.584]\nclass = Undesirable", fillcolor="#e6853f"] ;
543 -> 545 ;
546 [label="gini = 0.0\nsamples = 6\nvalue = [20.931, 0.0]\nclass = Undesirable", fillcolor="#e58139"] ;
545 -> 546 ;
547 [label="gini = -0.0\nsamples = 1\nvalue = [0.0, 0.584]\nclass = Desirable", fillcolor="#399de5"] ;
545 -> 547 ;
548 [label="Difference between indices 0, 4 at lane S2N <= 0.5\ngini = 0.121\nsamples = 48\nvalue = [118.611, 8.171]\nclass = Undesirable", fillcolor="#e78a47"] ;
526 -> 548 ;
549 [label="gini = 0.0\nsamples = 2\nvalue = [0.0, 1.167]\nclass = Desirable", fillcolor="#399de5"] ;
548 -> 549 ;
550 [label="Average of indices 0 ,1 ,2 at lane S2TL <= 0.835\ngini = 0.105\nsamples = 46\nvalue = [118.611, 7.004]\nclass = Undesirable", fillcolor="#e78845"] ;
548 -> 550 ;
551 [label="Difference between indices 0, 5 at lane W2E <= -0.5\ngini = 0.089\nsamples = 44\nvalue = [118.611, 5.837]\nclass = Undesirable", fillcolor="#e68743"] ;
550 -> 551 ;
552 [label="Average of indices 0 ,1 ,2 ,3 ,4 ,5 at lane E2W <= 0.25\ngini = 0.48\nsamples = 5\nvalue = [3.489, 2.335]\nclass = Undesirable", fillcolor="#f6d5be"] ;
551 -> 552 ;
553 [label="gini = -0.0\nsamples = 4\nvalue = [0.0, 2.335]\nclass = Desirable", fillcolor="#399de5"] ;
552 -> 553 ;
554 [label="gini = 0.0\nsamples = 1\nvalue = [3.489, 0.0]\nclass = Undesirable", fillcolor="#e58139"] ;
552 -> 554 ;
555 [label="Difference between indices 0, 6 at lane W2TL <= -0.5\ngini = 0.057\nsamples = 39\nvalue = [115.122, 3.502]\nclass = Undesirable", fillcolor="#e6853f"] ;
551 -> 555 ;
556 [label="gini = 0.0\nsamples = 1\nvalue = [0.0, 0.584]\nclass = Desirable", fillcolor="#399de5"] ;
555 -> 556 ;
557 [label="gini = 0.048\nsamples = 38\nvalue = [115.122, 2.918]\nclass = Undesirable", fillcolor="#e6843e"] ;
555 -> 557 ;
558 [label="Difference between indices 0, 4 at lane N2TL <= 0.5\ngini = 0.0\nsamples = 2\nvalue = [0.0, 1.167]\nclass = Desirable", fillcolor="#399de5"] ;
550 -> 558 ;
559 [label="gini = 0.0\nsamples = 1\nvalue = [0.0, 0.584]\nclass = Desirable", fillcolor="#399de5"] ;
558 -> 559 ;
560 [label="gini = 0.0\nsamples = 1\nvalue = [0.0, 0.584]\nclass = Desirable", fillcolor="#399de5"] ;
558 -> 560 ;
561 [label="ACTION = EW <= 0.5\ngini = 0.279\nsamples = 1838\nvalue = [2905.964, 586.571]\nclass = Undesirable", fillcolor="#ea9a61"] ;
475 -> 561 ;
562 [label="Average of indices 0 ,1 ,2 ,3 at lane N2TL <= 0.375\ngini = 0.05\nsamples = 937\nvalue = [2825.727, 74.124]\nclass = Undesirable", fillcolor="#e6843e"] ;
561 -> 562 ;
563 [label="Average of indices 0 ,1 ,2 at lane S2TL <= 0.5\ngini = 0.035\nsamples = 868\nvalue = [2728.047, 50.194]\nclass = Undesirable", fillcolor="#e5833d"] ;
562 -> 563 ;
564 [label="Average of indices 0 ,1 ,2 at lane E2TL <= 0.5\ngini = 0.025\nsamples = 824\nvalue = [2668.742, 34.436]\nclass = Undesirable", fillcolor="#e5833c"] ;
563 -> 564 ;
565 [label="Average of indices 0 ,1 ,2 at lane W2TL <= 0.5\ngini = 0.01\nsamples = 747\nvalue = [2529.2, 12.84]\nclass = Undesirable", fillcolor="#e5823a"] ;
564 -> 565 ;
566 [label="Value of index 5 at lane N2S <= 0.5\ngini = 0.0\nsamples = 694\nvalue = [2421.055, 0.0]\nclass = Undesirable", fillcolor="#e58139"] ;
565 -> 566 ;
567 [label="gini = 0.0\nsamples = 607\nvalue = [2117.551, 0.0]\nclass = Undesirable", fillcolor="#e58139"] ;
566 -> 567 ;
568 [label="gini = 0.0\nsamples = 87\nvalue = [303.504, 0.0]\nclass = Undesirable", fillcolor="#e58139"] ;
566 -> 568 ;
569 [label="ACTION = EWL <= 0.5\ngini = 0.19\nsamples = 53\nvalue = [108.145, 12.84]\nclass = Undesirable", fillcolor="#e89051"] ;
565 -> 569 ;
570 [label="gini = -0.0\nsamples = 28\nvalue = [97.679, 0.0]\nclass = Undesirable", fillcolor="#e58139"] ;
569 -> 570 ;
571 [label="gini = 0.495\nsamples = 25\nvalue = [10.466, 12.84]\nclass = Desirable", fillcolor="#daedfa"] ;
569 -> 571 ;
572 [label="ACTION = EWL <= 0.5\ngini = 0.232\nsamples = 77\nvalue = [139.542, 21.595]\nclass = Undesirable", fillcolor="#e99458"] ;
564 -> 572 ;
573 [label="gini = 0.0\nsamples = 38\nvalue = [132.565, 0.0]\nclass = Undesirable", fillcolor="#e58139"] ;
572 -> 573 ;
574 [label="Value of index 1 at lane E2TL <= 0.5\ngini = 0.369\nsamples = 39\nvalue = [6.977, 21.595]\nclass = Desirable", fillcolor="#79bded"] ;
572 -> 574 ;
575 [label="gini = 0.142\nsamples = 3\nvalue = [6.977, 0.584]\nclass = Undesirable", fillcolor="#e78c4a"] ;
574 -> 575 ;
576 [label="gini = -0.0\nsamples = 36\nvalue = [0.0, 21.011]\nclass = Desirable", fillcolor="#399de5"] ;
574 -> 576 ;
577 [label="ACTION = NSL <= 0.5\ngini = 0.332\nsamples = 44\nvalue = [59.305, 15.759]\nclass = Undesirable", fillcolor="#eca26e"] ;
563 -> 577 ;
578 [label="gini = 0.0\nsamples = 15\nvalue = [52.328, 0.0]\nclass = Undesirable", fillcolor="#e58139"] ;
577 -> 578 ;
579 [label="Difference between indices 0, 6 at lane S2TL <= 0.5\ngini = 0.425\nsamples = 29\nvalue = [6.977, 15.759]\nclass = Desirable", fillcolor="#91c8f1"] ;
577 -> 579 ;
580 [label="Value of index 6 at lane S2N <= 0.5\ngini = 0.246\nsamples = 4\nvalue = [6.977, 1.167]\nclass = Undesirable", fillcolor="#e9965a"] ;
579 -> 580 ;
581 [label="gini = 0.142\nsamples = 3\nvalue = [6.977, 0.584]\nclass = Undesirable", fillcolor="#e78c4a"] ;
580 -> 581 ;
582 [label="gini = -0.0\nsamples = 1\nvalue = [0.0, 0.584]\nclass = Desirable", fillcolor="#399de5"] ;
580 -> 582 ;
583 [label="gini = -0.0\nsamples = 25\nvalue = [0.0, 14.591]\nclass = Desirable", fillcolor="#399de5"] ;
579 -> 583 ;
584 [label="ACTION = NSL <= 0.5\ngini = 0.316\nsamples = 69\nvalue = [97.679, 23.93]\nclass = Undesirable", fillcolor="#eba06a"] ;
562 -> 584 ;
585 [label="Difference between indices 0, 1 at lane W2E <= -0.5\ngini = 0.024\nsamples = 29\nvalue = [94.191, 1.167]\nclass = Undesirable", fillcolor="#e5833b"] ;
584 -> 585 ;
586 [label="gini = 0.0\nsamples = 2\nvalue = [0.0, 1.167]\nclass = Desirable", fillcolor="#399de5"] ;
585 -> 586 ;
587 [label="gini = 0.0\nsamples = 27\nvalue = [94.191, 0.0]\nclass = Undesirable", fillcolor="#e58139"] ;
585 -> 587 ;
588 [label="Difference between indices 0, 1 at lane N2TL <= 0.5\ngini = 0.23\nsamples = 40\nvalue = [3.489, 22.762]\nclass = Desirable", fillcolor="#57ace9"] ;
584 -> 588 ;
589 [label="gini = 0.0\nsamples = 39\nvalue = [0.0, 22.762]\nclass = Desirable", fillcolor="#399de5"] ;
588 -> 589 ;
590 [label="gini = -0.0\nsamples = 1\nvalue = [3.489, 0.0]\nclass = Undesirable", fillcolor="#e58139"] ;
588 -> 590 ;
591 [label="Value of index 1 at lane E2W <= 0.5\ngini = 0.234\nsamples = 901\nvalue = [80.237, 512.447]\nclass = Desirable", fillcolor="#58ace9"] ;
561 -> 591 ;
592 [label="Value of index 1 at lane W2E <= 0.5\ngini = 0.291\nsamples = 32\nvalue = [48.84, 10.506]\nclass = Undesirable", fillcolor="#eb9c64"] ;
591 -> 592 ;
593 [label="Difference between indices 0, 6 at lane S2N <= -0.5\ngini = 0.023\nsamples = 15\nvalue = [48.84, 0.584]\nclass = Undesirable", fillcolor="#e5833b"] ;
592 -> 593 ;
594 [label="gini = 0.0\nsamples = 1\nvalue = [0.0, 0.584]\nclass = Desirable", fillcolor="#399de5"] ;
593 -> 594 ;
595 [label="gini = 0.0\nsamples = 14\nvalue = [48.84, 0.0]\nclass = Undesirable", fillcolor="#e58139"] ;
593 -> 595 ;
596 [label="gini = -0.0\nsamples = 17\nvalue = [0.0, 9.922]\nclass = Desirable", fillcolor="#399de5"] ;
592 -> 596 ;
597 [label="Value of index 0 at lane E2W <= 0.5\ngini = 0.111\nsamples = 869\nvalue = [31.397, 501.941]\nclass = Desirable", fillcolor="#45a3e7"] ;
591 -> 597 ;
598 [label="Average of indices 0 ,1 ,2 ,3 ,4 ,5 at lane S2TL <= 0.415\ngini = 0.1\nsamples = 12\nvalue = [31.397, 1.751]\nclass = Undesirable", fillcolor="#e68844"] ;
597 -> 598 ;
599 [label="Average of indices 0 ,1 ,2 at lane W2E <= 0.835\ngini = 0.069\nsamples = 11\nvalue = [31.397, 1.167]\nclass = Undesirable", fillcolor="#e68640"] ;
598 -> 599 ;
600 [label="Difference between indices 0, 1 at lane N2S <= 0.5\ngini = 0.036\nsamples = 10\nvalue = [31.397, 0.584]\nclass = Undesirable", fillcolor="#e5833d"] ;
599 -> 600 ;
601 [label="gini = 0.0\nsamples = 9\nvalue = [31.397, 0.0]\nclass = Undesirable", fillcolor="#e58139"] ;
600 -> 601 ;
602 [label="gini = -0.0\nsamples = 1\nvalue = [0.0, 0.584]\nclass = Desirable", fillcolor="#399de5"] ;
600 -> 602 ;
603 [label="gini = -0.0\nsamples = 1\nvalue = [0.0, 0.584]\nclass = Desirable", fillcolor="#399de5"] ;
599 -> 603 ;
604 [label="gini = -0.0\nsamples = 1\nvalue = [0.0, 0.584]\nclass = Desirable", fillcolor="#399de5"] ;
598 -> 604 ;
605 [label="Difference between indices 0, 3 at lane E2TL <= -0.5\ngini = 0.0\nsamples = 857\nvalue = [0.0, 500.19]\nclass = Desirable", fillcolor="#399de5"] ;
597 -> 605 ;
606 [label="gini = 0.0\nsamples = 6\nvalue = [0.0, 3.502]\nclass = Desirable", fillcolor="#399de5"] ;
605 -> 606 ;
607 [label="gini = 0.0\nsamples = 851\nvalue = [0.0, 496.688]\nclass = Desirable", fillcolor="#399de5"] ;
605 -> 607 ;
608 [label="Average of indices 0 ,1 ,2 at lane N2S <= 0.5\ngini = 0.491\nsamples = 10389\nvalue = [4078.117, 5381.277]\nclass = Desirable", fillcolor="#cfe7f9"] ;
300 -> 608 ;
609 [label="Average of indices 0 ,1 ,2 ,3 at lane E2W <= 0.375\ngini = 0.491\nsamples = 6209\nvalue = [3900.201, 2971.375]\nclass = Undesirable", fillcolor="#f9e1d0"] ;
608 -> 609 ;
610 [label="Average of indices 0 ,1 ,2 at lane W2E <= 0.5\ngini = 0.481\nsamples = 5347\nvalue = [1897.772, 2803.283]\nclass = Desirable", fillcolor="#bfdff7"] ;
609 -> 610 ;
611 [label="Average of indices 0 ,1 ,2 ,3 at lane W2TL <= 0.375\ngini = 0.407\nsamples = 4986\nvalue = [1081.451, 2729.159]\nclass = Desirable", fillcolor="#87c4ef"] ;
610 -> 611 ;
612 [label="Average of indices 0 ,1 ,2 at lane N2TL <= 0.5\ngini = 0.321\nsamples = 4804\nvalue = [676.779, 2690.638]\nclass = Desirable", fillcolor="#6bb6ec"] ;
611 -> 612 ;
613 [label="Average of indices 0 ,1 ,2 ,3 ,4 at lane S2TL <= 0.3\ngini = 0.227\nsamples = 4692\nvalue = [401.183, 2671.378]\nclass = Desirable", fillcolor="#57ace9"] ;
612 -> 613 ;
614 [label="Average of indices 0 ,1 ,2 at lane E2TL <= 0.5\ngini = 0.118\nsamples = 4591\nvalue = [177.916, 2649.783]\nclass = Desirable", fillcolor="#46a4e7"] ;
613 -> 614 ;
615 [label="gini = -0.0\nsamples = 4501\nvalue = [0.0, 2627.02]\nclass = Desirable", fillcolor="#399de5"] ;
614 -> 615 ;
616 [label="Average of indices 0 ,1 ,2 at lane S2N <= 0.5\ngini = 0.201\nsamples = 90\nvalue = [177.916, 22.762]\nclass = Undesirable", fillcolor="#e89152"] ;
614 -> 616 ;
617 [label="gini = 0.02\nsamples = 52\nvalue = [170.939, 1.751]\nclass = Undesirable", fillcolor="#e5823b"] ;
616 -> 617 ;
618 [label="gini = 0.374\nsamples = 38\nvalue = [6.977, 21.011]\nclass = Desirable", fillcolor="#7bbeee"] ;
616 -> 618 ;
619 [label="Value of index 1 at lane S2N <= 0.5\ngini = 0.161\nsamples = 101\nvalue = [223.267, 21.595]\nclass = Undesirable", fillcolor="#e88d4c"] ;
613 -> 619 ;
620 [label="Value of index 1 at lane S2TL <= 0.5\ngini = 0.036\nsamples = 69\nvalue = [216.29, 4.086]\nclass = Undesirable", fillcolor="#e5833d"] ;
619 -> 620 ;
621 [label="gini = 0.5\nsamples = 7\nvalue = [3.489, 3.502]\nclass = Desirable", fillcolor="#feffff"] ;
620 -> 621 ;
622 [label="gini = 0.005\nsamples = 62\nvalue = [212.802, 0.584]\nclass = Undesirable", fillcolor="#e5813a"] ;
620 -> 622 ;
623 [label="Average of indices 0 ,1 ,2 at lane S2N <= 0.5\ngini = 0.407\nsamples = 32\nvalue = [6.977, 17.51]\nclass = Desirable", fillcolor="#88c4ef"] ;
619 -> 623 ;
624 [label="gini = 0.0\nsamples = 2\nvalue = [6.977, 0.0]\nclass = Undesirable", fillcolor="#e58139"] ;
623 -> 624 ;
625 [label="gini = 0.0\nsamples = 30\nvalue = [0.0, 17.51]\nclass = Desirable", fillcolor="#399de5"] ;
623 -> 625 ;
626 [label="Value of index 1 at lane S2N <= 0.5\ngini = 0.122\nsamples = 112\nvalue = [275.596, 19.261]\nclass = Undesirable", fillcolor="#e78a47"] ;
612 -> 626 ;
627 [label="Value of index 1 at lane N2TL <= 0.5\ngini = 0.009\nsamples = 75\nvalue = [254.664, 1.167]\nclass = Undesirable", fillcolor="#e5823a"] ;
626 -> 627 ;
628 [label="gini = 0.0\nsamples = 2\nvalue = [0.0, 1.167]\nclass = Desirable", fillcolor="#399de5"] ;
627 -> 628 ;
629 [label="gini = -0.0\nsamples = 73\nvalue = [254.664, 0.0]\nclass = Undesirable", fillcolor="#e58139"] ;
627 -> 629 ;
630 [label="Value of index 0 at lane S2N <= 0.5\ngini = 0.497\nsamples = 37\nvalue = [20.931, 18.093]\nclass = Undesirable", fillcolor="#fbeee4"] ;
626 -> 630 ;
631 [label="gini = 0.0\nsamples = 6\nvalue = [20.931, 0.0]\nclass = Undesirable", fillcolor="#e58139"] ;
630 -> 631 ;
632 [label="gini = 0.0\nsamples = 31\nvalue = [0.0, 18.093]\nclass = Desirable", fillcolor="#399de5"] ;
630 -> 632 ;
633 [label="Average of indices 0 ,1 ,2 at lane S2N <= 0.5\ngini = 0.159\nsamples = 182\nvalue = [404.672, 38.521]\nclass = Undesirable", fillcolor="#e78d4c"] ;
611 -> 633 ;
634 [label="Difference between indices 0, 1 at lane W2TL <= 0.5\ngini = 0.02\nsamples = 121\nvalue = [397.695, 4.086]\nclass = Undesirable", fillcolor="#e5823b"] ;
633 -> 634 ;
635 [label="gini = -0.0\nsamples = 113\nvalue = [394.206, 0.0]\nclass = Undesirable", fillcolor="#e58139"] ;
634 -> 635 ;
636 [label="Average of indices 0 ,1 ,2 ,3 ,4 ,5 ,6 at lane N2TL <= 0.215\ngini = 0.497\nsamples = 8\nvalue = [3.489, 4.086]\nclass = Desirable", fillcolor="#e2f1fb"] ;
634 -> 636 ;
637 [label="gini = -0.0\nsamples = 7\nvalue = [0.0, 4.086]\nclass = Desirable", fillcolor="#399de5"] ;
636 -> 637 ;
638 [label="gini = -0.0\nsamples = 1\nvalue = [3.489, 0.0]\nclass = Undesirable", fillcolor="#e58139"] ;
636 -> 638 ;
639 [label="Average of indices 0 ,1 ,2 at lane N2S <= 0.165\ngini = 0.28\nsamples = 61\nvalue = [6.977, 34.436]\nclass = Desirable", fillcolor="#61b1ea"] ;
633 -> 639 ;
640 [label="Average of indices 0 ,1 ,2 ,3 ,4 ,5 at lane W2E <= 0.085\ngini = 0.466\nsamples = 9\nvalue = [6.977, 4.086]\nclass = Undesirable", fillcolor="#f4cbad"] ;
639 -> 640 ;
641 [label="gini = -0.0\nsamples = 6\nvalue = [0.0, 3.502]\nclass = Desirable", fillcolor="#399de5"] ;
640 -> 641 ;
642 [label="Difference between indices 0, 7 at lane E2W <= 0.5\ngini = 0.142\nsamples = 3\nvalue = [6.977, 0.584]\nclass = Undesirable", fillcolor="#e78c4a"] ;
640 -> 642 ;
643 [label="gini = 0.0\nsamples = 2\nvalue = [6.977, 0.0]\nclass = Undesirable", fillcolor="#e58139"] ;
642 -> 643 ;
644 [label="gini = -0.0\nsamples = 1\nvalue = [0.0, 0.584]\nclass = Desirable", fillcolor="#399de5"] ;
642 -> 644 ;
645 [label="gini = 0.0\nsamples = 52\nvalue = [0.0, 30.35]\nclass = Desirable", fillcolor="#399de5"] ;
639 -> 645 ;
646 [label="Average of indices 0 ,1 ,2 at lane S2N <= 0.5\ngini = 0.153\nsamples = 361\nvalue = [816.321, 74.124]\nclass = Undesirable", fillcolor="#e78c4b"] ;
610 -> 646 ;
647 [label="Difference between indices 0, 5 at lane S2TL <= -0.5\ngini = 0.024\nsamples = 246\nvalue = [798.878, 9.922]\nclass = Undesirable", fillcolor="#e5833b"] ;
646 -> 647 ;
648 [label="gini = 0.0\nsamples = 3\nvalue = [0.0, 1.751]\nclass = Desirable", fillcolor="#399de5"] ;
647 -> 648 ;
649 [label="Difference between indices 0, 1 at lane W2E <= 0.5\ngini = 0.02\nsamples = 243\nvalue = [798.878, 8.171]\nclass = Undesirable", fillcolor="#e5823b"] ;
647 -> 649 ;
650 [label="Difference between indices 0, 7 at lane W2E <= -0.5\ngini = 0.005\nsamples = 225\nvalue = [774.458, 1.751]\nclass = Undesirable", fillcolor="#e58139"] ;
649 -> 650 ;
651 [label="gini = 0.0\nsamples = 2\nvalue = [0.0, 1.167]\nclass = Desirable", fillcolor="#399de5"] ;
650 -> 651 ;
652 [label="Difference between indices 0, 5 at lane W2E <= -0.5\ngini = 0.002\nsamples = 223\nvalue = [774.458, 0.584]\nclass = Undesirable", fillcolor="#e58139"] ;
650 -> 652 ;
653 [label="gini = 0.0\nsamples = 1\nvalue = [0.0, 0.584]\nclass = Desirable", fillcolor="#399de5"] ;
652 -> 653 ;
654 [label="gini = 0.0\nsamples = 222\nvalue = [774.458, 0.0]\nclass = Undesirable", fillcolor="#e58139"] ;
652 -> 654 ;
655 [label="Difference between indices 0, 7 at lane N2TL <= 0.5\ngini = 0.33\nsamples = 18\nvalue = [24.42, 6.42]\nclass = Undesirable", fillcolor="#eca26d"] ;
649 -> 655 ;
656 [label="Average of indices 0 ,1 ,2 at lane S2TL <= 0.5\ngini = 0.499\nsamples = 13\nvalue = [6.977, 6.42]\nclass = Undesirable", fillcolor="#fdf5ef"] ;
655 -> 656 ;
657 [label="gini = -0.0\nsamples = 11\nvalue = [0.0, 6.42]\nclass = Desirable", fillcolor="#399de5"] ;
656 -> 657 ;
658 [label="gini = -0.0\nsamples = 2\nvalue = [6.977, 0.0]\nclass = Undesirable", fillcolor="#e58139"] ;
656 -> 658 ;
659 [label="gini = 0.0\nsamples = 5\nvalue = [17.443, 0.0]\nclass = Undesirable", fillcolor="#e58139"] ;
655 -> 659 ;
660 [label="Difference between indices 0, 1 at lane S2N <= 0.5\ngini = 0.336\nsamples = 115\nvalue = [17.443, 64.202]\nclass = Desirable", fillcolor="#6fb8ec"] ;
646 -> 660 ;
661 [label="Value of index 0 at lane W2E <= 0.5\ngini = 0.0\nsamples = 109\nvalue = [0.0, 63.618]\nclass = Desirable", fillcolor="#399de5"] ;
660 -> 661 ;
662 [label="gini = 0.0\nsamples = 2\nvalue = [0.0, 1.167]\nclass = Desirable", fillcolor="#399de5"] ;
661 -> 662 ;
663 [label="gini = 0.0\nsamples = 107\nvalue = [0.0, 62.451]\nclass = Desirable", fillcolor="#399de5"] ;
661 -> 663 ;
664 [label="Average of indices 0 ,1 ,2 ,3 ,4 ,5 at lane S2TL <= 0.25\ngini = 0.063\nsamples = 6\nvalue = [17.443, 0.584]\nclass = Undesirable", fillcolor="#e68540"] ;
660 -> 664 ;
665 [label="gini = 0.0\nsamples = 5\nvalue = [17.443, 0.0]\nclass = Undesirable", fillcolor="#e58139"] ;
664 -> 665 ;
666 [label="gini = -0.0\nsamples = 1\nvalue = [0.0, 0.584]\nclass = Desirable", fillcolor="#399de5"] ;
664 -> 666 ;
667 [label="Average of indices 0 ,1 ,2 at lane S2N <= 0.5\ngini = 0.143\nsamples = 862\nvalue = [2002.429, 168.092]\nclass = Undesirable", fillcolor="#e78c4a"] ;
609 -> 667 ;
668 [label="Value of index 1 at lane E2W <= 0.5\ngini = 0.023\nsamples = 589\nvalue = [1922.192, 22.179]\nclass = Undesirable", fillcolor="#e5823b"] ;
667 -> 668 ;
669 [label="Average of indices 0 ,1 ,2 ,3 at lane W2E <= 0.375\ngini = 0.33\nsamples = 54\nvalue = [73.26, 19.261]\nclass = Undesirable", fillcolor="#eca26d"] ;
668 -> 669 ;
670 [label="Value of index 1 at lane E2TL <= 0.5\ngini = 0.499\nsamples = 37\nvalue = [17.443, 18.677]\nclass = Desirable", fillcolor="#f2f9fd"] ;
669 -> 670 ;
671 [label="Average of indices 0 ,1 ,2 ,3 ,4 at lane N2TL <= 0.3\ngini = 0.396\nsamples = 34\nvalue = [6.977, 18.677]\nclass = Desirable", fillcolor="#83c2ef"] ;
670 -> 671 ;
672 [label="gini = 0.0\nsamples = 32\nvalue = [0.0, 18.677]\nclass = Desirable", fillcolor="#399de5"] ;
671 -> 672 ;
673 [label="gini = -0.0\nsamples = 2\nvalue = [6.977, 0.0]\nclass = Undesirable", fillcolor="#e58139"] ;
671 -> 673 ;
674 [label="gini = 0.0\nsamples = 3\nvalue = [10.466, 0.0]\nclass = Undesirable", fillcolor="#e58139"] ;
670 -> 674 ;
675 [label="Value of index 6 at lane E2TL <= 0.5\ngini = 0.02\nsamples = 17\nvalue = [55.817, 0.584]\nclass = Undesirable", fillcolor="#e5823b"] ;
669 -> 675 ;
676 [label="gini = 0.0\nsamples = 16\nvalue = [55.817, 0.0]\nclass = Undesirable", fillcolor="#e58139"] ;
675 -> 676 ;
677 [label="gini = -0.0\nsamples = 1\nvalue = [0.0, 0.584]\nclass = Desirable", fillcolor="#399de5"] ;
675 -> 677 ;
678 [label="Difference between indices 0, 2 at lane E2W <= -0.5\ngini = 0.003\nsamples = 535\nvalue = [1848.932, 2.918]\nclass = Undesirable", fillcolor="#e58139"] ;
668 -> 678 ;
679 [label="gini = 0.0\nsamples = 4\nvalue = [0.0, 2.335]\nclass = Desirable", fillcolor="#399de5"] ;
678 -> 679 ;
680 [label="Difference between indices 0, 3 at lane E2W <= -0.5\ngini = 0.001\nsamples = 531\nvalue = [1848.932, 0.584]\nclass = Undesirable", fillcolor="#e58139"] ;
678 -> 680 ;
681 [label="Average of indices 0 ,1 ,2 ,3 at lane N2TL <= 0.5\ngini = 0.246\nsamples = 2\nvalue = [3.489, 0.584]\nclass = Undesirable", fillcolor="#e9965a"] ;
680 -> 681 ;
682 [label="gini = 0.0\nsamples = 1\nvalue = [0.0, 0.584]\nclass = Desirable", fillcolor="#399de5"] ;
681 -> 682 ;
683 [label="gini = 0.0\nsamples = 1\nvalue = [3.489, 0.0]\nclass = Undesirable", fillcolor="#e58139"] ;
681 -> 683 ;
684 [label="gini = 0.0\nsamples = 529\nvalue = [1845.444, 0.0]\nclass = Undesirable", fillcolor="#e58139"] ;
680 -> 684 ;
685 [label="Difference between indices 0, 1 at lane S2N <= 0.5\ngini = 0.458\nsamples = 273\nvalue = [80.237, 145.913]\nclass = Desirable", fillcolor="#a6d3f3"] ;
667 -> 685 ;
686 [label="Difference between indices 0, 1 at lane S2N <= -0.5\ngini = 0.159\nsamples = 254\nvalue = [13.954, 145.913]\nclass = Desirable", fillcolor="#4ca6e7"] ;
685 -> 686 ;
687 [label="gini = 0.0\nsamples = 4\nvalue = [13.954, 0.0]\nclass = Undesirable", fillcolor="#e58139"] ;
686 -> 687 ;
688 [label="gini = -0.0\nsamples = 250\nvalue = [0.0, 145.913]\nclass = Desirable", fillcolor="#399de5"] ;
686 -> 688 ;
689 [label="gini = -0.0\nsamples = 19\nvalue = [66.282, 0.0]\nclass = Undesirable", fillcolor="#e58139"] ;
685 -> 689 ;
690 [label="Difference between indices 0, 1 at lane N2S <= 0.5\ngini = 0.128\nsamples = 4180\nvalue = [177.916, 2409.901]\nclass = Desirable", fillcolor="#48a4e7"] ;
608 -> 690 ;
691 [label="Difference between indices 0, 1 at lane N2S <= -0.5\ngini = 0.026\nsamples = 4016\nvalue = [31.397, 2338.696]\nclass = Desirable", fillcolor="#3c9ee5"] ;
690 -> 691 ;
692 [label="Value of index 1 at lane E2W <= 0.5\ngini = 0.353\nsamples = 25\nvalue = [31.397, 9.338]\nclass = Undesirable", fillcolor="#eda674"] ;
691 -> 692 ;
693 [label="Average of indices 0 ,1 ,2 ,3 ,4 ,5 ,6 at lane W2E <= 0.36\ngini = 0.419\nsamples = 15\nvalue = [3.489, 8.171]\nclass = Desirable", fillcolor="#8ec7f0"] ;
692 -> 693 ;
694 [label="gini = -0.0\nsamples = 14\nvalue = [0.0, 8.171]\nclass = Desirable", fillcolor="#399de5"] ;
693 -> 694 ;
695 [label="gini = -0.0\nsamples = 1\nvalue = [3.489, 0.0]\nclass = Undesirable", fillcolor="#e58139"] ;
693 -> 695 ;
696 [label="Average of indices 0 ,1 ,2 ,3 at lane W2TL <= 0.25\ngini = 0.077\nsamples = 10\nvalue = [27.908, 1.167]\nclass = Undesirable", fillcolor="#e68641"] ;
692 -> 696 ;
697 [label="Value of index 6 at lane E2W <= 0.5\ngini = 0.04\nsamples = 9\nvalue = [27.908, 0.584]\nclass = Undesirable", fillcolor="#e6843d"] ;
696 -> 697 ;
