digraph Tree {
node [shape=box, style="filled", color="black", fontname="helvetica"] ;
edge [fontname="helvetica"] ;
0 [label="Equality of E2W and N2S at index 1 <= 0.5\ngini = 0.5\nsamples = 74048\nvalue = [37024.0, 37024.0]\nclass = Desirable", fillcolor="#ffffff"] ;
1 [label="Value of index 0 at category ACT <= 0.5\ngini = 0.313\nsamples = 14589\nvalue = [20826.654, 5030.501]\nclass = Undesirable", fillcolor="#eb9f69"] ;
0 -> 1 [labeldistance=2.5, labelangle=45, headlabel="True"] ;
2 [label="Value of index 2 at category ACT <= 0.5\ngini = 0.245\nsamples = 9908\nvalue = [17299.728, 2888.497]\nclass = Undesirable", fillcolor="#e9965a"] ;
1 -> 2 ;
3 [label="Equality of W2TL and S2TL at index 1 <= 0.5\ngini = 0.106\nsamples = 5222\nvalue = [13420.459, 802.522]\nclass = Undesirable", fillcolor="#e78945"] ;
2 -> 3 ;
4 [label="Equality of E2W and S2N at index 2 <= 0.5\ngini = 0.362\nsamples = 933\nvalue = [1137.268, 354.277]\nclass = Undesirable", fillcolor="#eda877"] ;
3 -> 4 ;
5 [label="Equality of W2E and S2TL at index 4 <= 0.5\ngini = 0.286\nsamples = 304\nvalue = [470.954, 98.637]\nclass = Undesirable", fillcolor="#ea9b62"] ;
4 -> 5 ;
6 [label="Equality of E2W and N2S at index 4 <= 0.5\ngini = 0.497\nsamples = 43\nvalue = [24.42, 21.011]\nclass = Undesirable", fillcolor="#fbede3"] ;
5 -> 6 ;
7 [label="gini = 0.0\nsamples = 13\nvalue = [0.0, 7.587]\nclass = Desirable", fillcolor="#399de5"] ;
6 -> 7 ;
8 [label="Equality of W2E and S2N at index 1 <= 0.5\ngini = 0.458\nsamples = 30\nvalue = [24.42, 13.424]\nclass = Undesirable", fillcolor="#f3c6a6"] ;
6 -> 8 ;
9 [label="Equality of N2TL and S2TL at index 2 <= 0.5\ngini = 0.376\nsamples = 21\nvalue = [24.42, 8.171]\nclass = Undesirable", fillcolor="#eeab7b"] ;
8 -> 9 ;
10 [label="gini = 0.0\nsamples = 4\nvalue = [0.0, 2.335]\nclass = Desirable", fillcolor="#399de5"] ;
9 -> 10 ;
11 [label="Equality of W2E and S2N at index 0 <= 0.5\ngini = 0.311\nsamples = 17\nvalue = [24.42, 5.837]\nclass = Undesirable", fillcolor="#eb9f68"] ;
9 -> 11 ;
12 [label="Value of index 6 at category W2TL <= 0.5\ngini = 0.246\nsamples = 14\nvalue = [24.42, 4.086]\nclass = Undesirable", fillcolor="#e9965a"] ;
11 -> 12 ;
13 [label="Equality of N2S and N2TL at index 7 <= 0.5\ngini = 0.191\nsamples = 12\nvalue = [24.42, 2.918]\nclass = Undesirable", fillcolor="#e89051"] ;
12 -> 13 ;
14 [label="gini = 0.0\nsamples = 5\nvalue = [17.443, 0.0]\nclass = Undesirable", fillcolor="#e58139"] ;
13 -> 14 ;
15 [label="Equality of S2N and S2TL at index 1 <= 0.5\ngini = 0.416\nsamples = 7\nvalue = [6.977, 2.918]\nclass = Undesirable", fillcolor="#f0b68c"] ;
13 -> 15 ;
16 [label="gini = -0.0\nsamples = 4\nvalue = [0.0, 2.335]\nclass = Desirable", fillcolor="#399de5"] ;
15 -> 16 ;
17 [label="Equality of W2E and S2N at index 4 <= 0.5\ngini = 0.142\nsamples = 3\nvalue = [6.977, 0.584]\nclass = Undesirable", fillcolor="#e78c4a"] ;
15 -> 17 ;
18 [label="gini = 0.0\nsamples = 2\nvalue = [6.977, 0.0]\nclass = Undesirable", fillcolor="#e58139"] ;
17 -> 18 ;
19 [label="gini = -0.0\nsamples = 1\nvalue = [0.0, 0.584]\nclass = Desirable", fillcolor="#399de5"] ;
17 -> 19 ;
20 [label="gini = -0.0\nsamples = 2\nvalue = [0.0, 1.167]\nclass = Desirable", fillcolor="#399de5"] ;
12 -> 20 ;
21 [label="gini = 0.0\nsamples = 3\nvalue = [0.0, 1.751]\nclass = Desirable", fillcolor="#399de5"] ;
11 -> 21 ;
22 [label="gini = 0.0\nsamples = 9\nvalue = [0.0, 5.253]\nclass = Desirable", fillcolor="#399de5"] ;
8 -> 22 ;
23 [label="Equality of W2TL and S2TL at index 7 <= 0.5\ngini = 0.252\nsamples = 261\nvalue = [446.535, 77.626]\nclass = Undesirable", fillcolor="#ea975b"] ;
5 -> 23 ;
24 [label="Equality of E2W and E2TL at index 1 <= 0.5\ngini = 0.5\nsamples = 14\nvalue = [6.977, 7.004]\nclass = Desirable", fillcolor="#feffff"] ;
23 -> 24 ;
25 [label="gini = 0.0\nsamples = 10\nvalue = [0.0, 5.837]\nclass = Desirable", fillcolor="#399de5"] ;
24 -> 25 ;
26 [label="Equality of E2W and S2TL at index 2 <= 0.5\ngini = 0.246\nsamples = 4\nvalue = [6.977, 1.167]\nclass = Undesirable", fillcolor="#e9965a"] ;
24 -> 26 ;
27 [label="gini = 0.0\nsamples = 2\nvalue = [6.977, 0.0]\nclass = Undesirable", fillcolor="#e58139"] ;
26 -> 27 ;
28 [label="gini = 0.0\nsamples = 2\nvalue = [0.0, 1.167]\nclass = Desirable", fillcolor="#399de5"] ;
26 -> 28 ;
29 [label="Equality of E2TL and N2S at index 2 <= 0.5\ngini = 0.239\nsamples = 247\nvalue = [439.558, 70.622]\nclass = Undesirable", fillcolor="#e99559"] ;
23 -> 29 ;
30 [label="Value of index 2 at category N2TL <= 0.5\ngini = 0.137\nsamples = 71\nvalue = [167.45, 13.424]\nclass = Undesirable", fillcolor="#e78b49"] ;
29 -> 30 ;
31 [label="Value of index 4 at category W2TL <= 0.5\ngini = 0.127\nsamples = 69\nvalue = [167.45, 12.257]\nclass = Undesirable", fillcolor="#e78a47"] ;
30 -> 31 ;
32 [label="Value of index 3 at category ACT <= 0.5\ngini = 0.122\nsamples = 68\nvalue = [167.45, 11.673]\nclass = Undesirable", fillcolor="#e78a47"] ;
31 -> 32 ;
33 [label="Equality of N2TL and S2TL at index 2 <= 0.5\ngini = 0.066\nsamples = 40\nvalue = [115.122, 4.086]\nclass = Undesirable", fillcolor="#e68540"] ;
32 -> 33 ;
34 [label="gini = 0.0\nsamples = 3\nvalue = [0.0, 1.751]\nclass = Desirable", fillcolor="#399de5"] ;
33 -> 34 ;
35 [label="Value of index 1 at category N2TL <= 0.5\ngini = 0.039\nsamples = 37\nvalue = [115.122, 2.335]\nclass = Undesirable", fillcolor="#e6843d"] ;
33 -> 35 ;
36 [label="Equality of E2W and S2N at index 1 <= 0.5\ngini = 0.02\nsamples = 35\nvalue = [115.122, 1.167]\nclass = Undesirable", fillcolor="#e5823b"] ;
35 -> 36 ;
37 [label="gini = 0.0\nsamples = 31\nvalue = [108.145, 0.0]\nclass = Undesirable", fillcolor="#e58139"] ;
36 -> 37 ;
38 [label="Equality of W2TL and N2S at index 6 <= 0.5\ngini = 0.246\nsamples = 4\nvalue = [6.977, 1.167]\nclass = Undesirable", fillcolor="#e9965a"] ;
36 -> 38 ;
39 [label="gini = 0.0\nsamples = 2\nvalue = [6.977, 0.0]\nclass = Undesirable", fillcolor="#e58139"] ;
38 -> 39 ;
40 [label="gini = 0.0\nsamples = 2\nvalue = [0.0, 1.167]\nclass = Desirable", fillcolor="#399de5"] ;
38 -> 40 ;
41 [label="Equality of N2S and N2TL at index 3 <= 0.5\ngini = 0.0\nsamples = 2\nvalue = [0.0, 1.167]\nclass = Desirable", fillcolor="#399de5"] ;
35 -> 41 ;
42 [label="gini = 0.0\nsamples = 1\nvalue = [0.0, 0.584]\nclass = Desirable", fillcolor="#399de5"] ;
41 -> 42 ;
43 [label="gini = 0.0\nsamples = 1\nvalue = [0.0, 0.584]\nclass = Desirable", fillcolor="#399de5"] ;
41 -> 43 ;
44 [label="Value of index 1 at category W2TL <= 0.5\ngini = 0.221\nsamples = 28\nvalue = [52.328, 7.587]\nclass = Undesirable", fillcolor="#e99356"] ;
32 -> 44 ;
45 [label="Value of index 1 at category E2TL <= 0.5\ngini = 0.023\nsamples = 15\nvalue = [48.84, 0.584]\nclass = Undesirable", fillcolor="#e5833b"] ;
44 -> 45 ;
46 [label="gini = 0.0\nsamples = 14\nvalue = [48.84, 0.0]\nclass = Undesirable", fillcolor="#e58139"] ;
45 -> 46 ;
47 [label="gini = -0.0\nsamples = 1\nvalue = [0.0, 0.584]\nclass = Desirable", fillcolor="#399de5"] ;
45 -> 47 ;
48 [label="Value of index 5 at category S2TL <= 0.5\ngini = 0.444\nsamples = 13\nvalue = [3.489, 7.004]\nclass = Desirable", fillcolor="#9ccef2"] ;
44 -> 48 ;
49 [label="gini = 0.0\nsamples = 12\nvalue = [0.0, 7.004]\nclass = Desirable", fillcolor="#399de5"] ;
48 -> 49 ;
50 [label="gini = -0.0\nsamples = 1\nvalue = [3.489, 0.0]\nclass = Undesirable", fillcolor="#e58139"] ;
48 -> 50 ;
51 [label="gini = -0.0\nsamples = 1\nvalue = [0.0, 0.584]\nclass = Desirable", fillcolor="#399de5"] ;
31 -> 51 ;
52 [label="gini = -0.0\nsamples = 2\nvalue = [0.0, 1.167]\nclass = Desirable", fillcolor="#399de5"] ;
30 -> 52 ;
53 [label="Value of index 6 at category S2N <= 0.5\ngini = 0.287\nsamples = 176\nvalue = [272.107, 57.198]\nclass = Undesirable", fillcolor="#ea9b63"] ;
29 -> 53 ;
54 [label="Value of index 1 at category E2TL <= 0.5\ngini = 0.235\nsamples = 128\nvalue = [230.244, 36.186]\nclass = Undesirable", fillcolor="#e99558"] ;
53 -> 54 ;
55 [label="Equality of W2TL and S2TL at index 5 <= 0.5\ngini = 0.208\nsamples = 115\nvalue = [223.267, 29.766]\nclass = Undesirable", fillcolor="#e89253"] ;
54 -> 55 ;
56 [label="gini = 0.0\nsamples = 2\nvalue = [0.0, 1.167]\nclass = Desirable", fillcolor="#399de5"] ;
55 -> 56 ;
57 [label="Equality of W2TL and S2TL at index 0 <= 0.5\ngini = 0.201\nsamples = 113\nvalue = [223.267, 28.599]\nclass = Undesirable", fillcolor="#e89152"] ;
55 -> 57 ;
58 [label="Value of index 7 at category N2TL <= 0.5\ngini = 0.249\nsamples = 93\nvalue = [160.473, 27.432]\nclass = Undesirable", fillcolor="#e9975b"] ;
57 -> 58 ;
59 [label="Equality of E2W and S2N at index 1 <= 0.5\ngini = 0.221\nsamples = 84\nvalue = [156.985, 22.762]\nclass = Undesirable", fillcolor="#e99356"] ;
58 -> 59 ;
60 [label="Equality of E2W and E2TL at index 5 <= 0.5\ngini = 0.166\nsamples = 56\nvalue = [122.099, 12.257]\nclass = Undesirable", fillcolor="#e88e4d"] ;
59 -> 60 ;
61 [label="gini = 0.0\nsamples = 2\nvalue = [0.0, 1.167]\nclass = Desirable", fillcolor="#399de5"] ;
60 -> 61 ;
62 [label="gini = 0.153\nsamples = 54\nvalue = [122.099, 11.089]\nclass = Undesirable", fillcolor="#e78c4b"] ;
60 -> 62 ;
63 [label="Value of index 0 at category E2TL <= 0.5\ngini = 0.356\nsamples = 28\nvalue = [34.886, 10.506]\nclass = Undesirable", fillcolor="#eda775"] ;
59 -> 63 ;
64 [label="gini = 0.208\nsamples = 18\nvalue = [34.886, 4.669]\nclass = Undesirable", fillcolor="#e89254"] ;
63 -> 64 ;
65 [label="gini = 0.0\nsamples = 10\nvalue = [0.0, 5.837]\nclass = Desirable", fillcolor="#399de5"] ;
63 -> 65 ;
66 [label="Equality of W2TL and N2TL at index 5 <= 0.5\ngini = 0.49\nsamples = 9\nvalue = [3.489, 4.669]\nclass = Desirable", fillcolor="#cde6f8"] ;
58 -> 66 ;
67 [label="Equality of E2W and S2N at index 7 <= 0.5\ngini = 0.246\nsamples = 2\nvalue = [3.489, 0.584]\nclass = Undesirable", fillcolor="#e9965a"] ;
66 -> 67 ;
68 [label="gini = 0.0\nsamples = 1\nvalue = [0.0, 0.584]\nclass = Desirable", fillcolor="#399de5"] ;
67 -> 68 ;
69 [label="gini = 0.0\nsamples = 1\nvalue = [3.489, 0.0]\nclass = Undesirable", fillcolor="#e58139"] ;
67 -> 69 ;
70 [label="gini = -0.0\nsamples = 7\nvalue = [0.0, 4.086]\nclass = Desirable", fillcolor="#399de5"] ;
66 -> 70 ;
71 [label="Value of index 2 at category W2TL <= 0.5\ngini = 0.036\nsamples = 20\nvalue = [62.794, 1.167]\nclass = Undesirable", fillcolor="#e5833d"] ;
57 -> 71 ;
72 [label="gini = 0.0\nsamples = 18\nvalue = [62.794, 0.0]\nclass = Undesirable", fillcolor="#e58139"] ;
71 -> 72 ;
73 [label="gini = -0.0\nsamples = 2\nvalue = [0.0, 1.167]\nclass = Desirable", fillcolor="#399de5"] ;
71 -> 73 ;
74 [label="Value of index 3 at category ACT <= 0.5\ngini = 0.499\nsamples = 13\nvalue = [6.977, 6.42]\nclass = Undesirable", fillcolor="#fdf5ef"] ;
54 -> 74 ;
75 [label="gini = 0.0\nsamples = 2\nvalue = [6.977, 0.0]\nclass = Undesirable", fillcolor="#e58139"] ;
74 -> 75 ;
76 [label="gini = -0.0\nsamples = 11\nvalue = [0.0, 6.42]\nclass = Desirable", fillcolor="#399de5"] ;
74 -> 76 ;
77 [label="Equality of W2E and N2S at index 0 <= 0.5\ngini = 0.445\nsamples = 48\nvalue = [41.863, 21.011]\nclass = Undesirable", fillcolor="#f2c09c"] ;
53 -> 77 ;
78 [label="Equality of E2W and N2S at index 4 <= 0.5\ngini = 0.368\nsamples = 35\nvalue = [41.863, 13.424]\nclass = Undesirable", fillcolor="#eda978"] ;
77 -> 78 ;
79 [label="gini = 0.0\nsamples = 9\nvalue = [0.0, 5.253]\nclass = Desirable", fillcolor="#399de5"] ;
78 -> 79 ;
80 [label="Equality of W2TL and E2TL at index 0 <= 0.5\ngini = 0.273\nsamples = 26\nvalue = [41.863, 8.171]\nclass = Undesirable", fillcolor="#ea9a60"] ;
78 -> 80 ;
81 [label="Value of index 7 at category E2TL <= 0.5\ngini = 0.49\nsamples = 11\nvalue = [6.977, 5.253]\nclass = Undesirable", fillcolor="#f9e0ce"] ;
80 -> 81 ;
82 [label="gini = -0.0\nsamples = 9\nvalue = [0.0, 5.253]\nclass = Desirable", fillcolor="#399de5"] ;
81 -> 82 ;
83 [label="gini = -0.0\nsamples = 2\nvalue = [6.977, 0.0]\nclass = Undesirable", fillcolor="#e58139"] ;
81 -> 83 ;
84 [label="Value of index 5 at category N2S <= 0.5\ngini = 0.142\nsamples = 15\nvalue = [34.886, 2.918]\nclass = Undesirable", fillcolor="#e78c4a"] ;
80 -> 84 ;
85 [label="Equality of E2W and S2N at index 1 <= 0.5\ngini = 0.091\nsamples = 13\nvalue = [34.886, 1.751]\nclass = Undesirable", fillcolor="#e68743"] ;
84 -> 85 ;
86 [label="Value of index 2 at category N2S <= 0.5\ngini = 0.063\nsamples = 12\nvalue = [34.886, 1.167]\nclass = Undesirable", fillcolor="#e68540"] ;
85 -> 86 ;
87 [label="gini = 0.032\nsamples = 11\nvalue = [34.886, 0.584]\nclass = Undesirable", fillcolor="#e5833c"] ;
86 -> 87 ;
88 [label="gini = -0.0\nsamples = 1\nvalue = [0.0, 0.584]\nclass = Desirable", fillcolor="#399de5"] ;
86 -> 88 ;
89 [label="gini = -0.0\nsamples = 1\nvalue = [0.0, 0.584]\nclass = Desirable", fillcolor="#399de5"] ;
85 -> 89 ;
90 [label="gini = -0.0\nsamples = 2\nvalue = [0.0, 1.167]\nclass = Desirable", fillcolor="#399de5"] ;
84 -> 90 ;
91 [label="gini = 0.0\nsamples = 13\nvalue = [0.0, 7.587]\nclass = Desirable", fillcolor="#399de5"] ;
77 -> 91 ;
92 [label="Equality of E2W and E2TL at index 0 <= 0.5\ngini = 0.401\nsamples = 629\nvalue = [666.313, 255.64]\nclass = Undesirable", fillcolor="#efb185"] ;
4 -> 92 ;
93 [label="Equality of W2TL and E2TL at index 2 <= 0.5\ngini = 0.348\nsamples = 333\nvalue = [425.603, 123.151]\nclass = Undesirable", fillcolor="#eda572"] ;
92 -> 93 ;
94 [label="Value of index 3 at category ACT <= 0.5\ngini = 0.468\nsamples = 64\nvalue = [48.84, 29.183]\nclass = Undesirable", fillcolor="#f5ccaf"] ;
93 -> 94 ;
95 [label="Value of index 0 at category N2TL <= 0.5\ngini = 0.198\nsamples = 21\nvalue = [41.863, 5.253]\nclass = Undesirable", fillcolor="#e89152"] ;
94 -> 95 ;
96 [label="Equality of W2TL and N2TL at index 0 <= 0.5\ngini = 0.053\nsamples = 14\nvalue = [41.863, 1.167]\nclass = Undesirable", fillcolor="#e6853f"] ;
95 -> 96 ;
97 [label="gini = 0.0\nsamples = 12\nvalue = [41.863, 0.0]\nclass = Undesirable", fillcolor="#e58139"] ;
96 -> 97 ;
98 [label="gini = -0.0\nsamples = 2\nvalue = [0.0, 1.167]\nclass = Desirable", fillcolor="#399de5"] ;
96 -> 98 ;
99 [label="gini = -0.0\nsamples = 7\nvalue = [0.0, 4.086]\nclass = Desirable", fillcolor="#399de5"] ;
95 -> 99 ;
100 [label="Value of index 1 at category W2TL <= 0.5\ngini = 0.35\nsamples = 43\nvalue = [6.977, 23.93]\nclass = Desirable", fillcolor="#73baed"] ;
94 -> 100 ;
101 [label="Equality of E2TL and S2N at index 2 <= 0.5\ngini = 0.246\nsamples = 4\nvalue = [6.977, 1.167]\nclass = Undesirable", fillcolor="#e9965a"] ;
100 -> 101 ;
102 [label="gini = 0.0\nsamples = 2\nvalue = [0.0, 1.167]\nclass = Desirable", fillcolor="#399de5"] ;
101 -> 102 ;
103 [label="gini = 0.0\nsamples = 2\nvalue = [6.977, 0.0]\nclass = Undesirable", fillcolor="#e58139"] ;
101 -> 103 ;
104 [label="gini = -0.0\nsamples = 39\nvalue = [0.0, 22.762]\nclass = Desirable", fillcolor="#399de5"] ;
100 -> 104 ;
105 [label="Value of index 5 at category S2TL <= 0.5\ngini = 0.32\nsamples = 269\nvalue = [376.764, 93.968]\nclass = Undesirable", fillcolor="#eba06a"] ;
93 -> 105 ;
106 [label="Equality of W2TL and S2N at index 7 <= 0.5\ngini = 0.313\nsamples = 264\nvalue = [376.764, 91.05]\nclass = Undesirable", fillcolor="#eb9f69"] ;
105 -> 106 ;
107 [label="Equality of N2S and S2N at index 6 <= 0.5\ngini = 0.417\nsamples = 74\nvalue = [73.26, 30.934]\nclass = Undesirable", fillcolor="#f0b68d"] ;
106 -> 107 ;
108 [label="Equality of W2TL and S2N at index 3 <= 0.5\ngini = 0.468\nsamples = 22\nvalue = [6.977, 11.673]\nclass = Desirable", fillcolor="#afd8f5"] ;
107 -> 108 ;
109 [label="Equality of N2S and N2TL at index 0 <= 0.5\ngini = 0.246\nsamples = 4\nvalue = [6.977, 1.167]\nclass = Undesirable", fillcolor="#e9965a"] ;
108 -> 109 ;
110 [label="gini = 0.0\nsamples = 2\nvalue = [6.977, 0.0]\nclass = Undesirable", fillcolor="#e58139"] ;
109 -> 110 ;
111 [label="gini = 0.0\nsamples = 2\nvalue = [0.0, 1.167]\nclass = Desirable", fillcolor="#399de5"] ;
109 -> 111 ;
112 [label="gini = -0.0\nsamples = 18\nvalue = [0.0, 10.506]\nclass = Desirable", fillcolor="#399de5"] ;
108 -> 112 ;
113 [label="Equality of S2N and S2TL at index 3 <= 0.5\ngini = 0.349\nsamples = 52\nvalue = [66.282, 19.261]\nclass = Undesirable", fillcolor="#eda673"] ;
107 -> 113 ;
114 [label="gini = 0.0\nsamples = 10\nvalue = [0.0, 5.837]\nclass = Desirable", fillcolor="#399de5"] ;
113 -> 114 ;
115 [label="Value of index 1 at category N2TL <= 0.5\ngini = 0.28\nsamples = 42\nvalue = [66.282, 13.424]\nclass = Undesirable", fillcolor="#ea9b61"] ;
113 -> 115 ;
116 [label="Equality of E2W and S2TL at index 5 <= 0.5\ngini = 0.236\nsamples = 35\nvalue = [62.794, 9.922]\nclass = Undesirable", fillcolor="#e99558"] ;
115 -> 116 ;
117 [label="gini = 0.0\nsamples = 3\nvalue = [0.0, 1.751]\nclass = Desirable", fillcolor="#399de5"] ;
116 -> 117 ;
118 [label="Equality of N2S and N2TL at index 0 <= 0.5\ngini = 0.204\nsamples = 32\nvalue = [62.794, 8.171]\nclass = Undesirable", fillcolor="#e89153"] ;
116 -> 118 ;
119 [label="Equality of E2W and E2TL at index 7 <= 0.5\ngini = 0.359\nsamples = 17\nvalue = [20.931, 6.42]\nclass = Undesirable", fillcolor="#eda876"] ;
118 -> 119 ;
120 [label="gini = 0.0\nsamples = 4\nvalue = [0.0, 2.335]\nclass = Desirable", fillcolor="#399de5"] ;
119 -> 120 ;
121 [label="gini = 0.273\nsamples = 13\nvalue = [20.931, 4.086]\nclass = Undesirable", fillcolor="#ea9a60"] ;
119 -> 121 ;
122 [label="Equality of N2TL and S2N at index 7 <= 0.5\ngini = 0.077\nsamples = 15\nvalue = [41.863, 1.751]\nclass = Undesirable", fillcolor="#e68641"] ;
118 -> 122 ;
123 [label="gini = 0.027\nsamples = 13\nvalue = [41.863, 0.584]\nclass = Undesirable", fillcolor="#e5833c"] ;
122 -> 123 ;
124 [label="gini = -0.0\nsamples = 2\nvalue = [0.0, 1.167]\nclass = Desirable", fillcolor="#399de5"] ;
122 -> 124 ;
125 [label="Equality of E2TL and S2TL at index 7 <= 0.5\ngini = 0.5\nsamples = 7\nvalue = [3.489, 3.502]\nclass = Desirable", fillcolor="#feffff"] ;
115 -> 125 ;
126 [label="gini = 0.0\nsamples = 1\nvalue = [3.489, 0.0]\nclass = Undesirable", fillcolor="#e58139"] ;
125 -> 126 ;
127 [label="gini = -0.0\nsamples = 6\nvalue = [0.0, 3.502]\nclass = Desirable", fillcolor="#399de5"] ;
125 -> 127 ;
128 [label="Equality of W2TL and S2N at index 5 <= 0.5\ngini = 0.276\nsamples = 190\nvalue = [303.504, 60.116]\nclass = Undesirable", fillcolor="#ea9a60"] ;
106 -> 128 ;
129 [label="Equality of W2E and S2TL at index 1 <= 0.5\ngini = 0.48\nsamples = 20\nvalue = [13.954, 9.338]\nclass = Undesirable", fillcolor="#f6d5be"] ;
128 -> 129 ;
130 [label="gini = 0.0\nsamples = 7\nvalue = [0.0, 4.086]\nclass = Desirable", fillcolor="#399de5"] ;
129 -> 130 ;
131 [label="Equality of E2W and N2S at index 6 <= 0.5\ngini = 0.397\nsamples = 13\nvalue = [13.954, 5.253]\nclass = Undesirable", fillcolor="#efb084"] ;
129 -> 131 ;
132 [label="gini = 0.0\nsamples = 5\nvalue = [0.0, 2.918]\nclass = Desirable", fillcolor="#399de5"] ;
131 -> 132 ;
133 [label="Equality of W2E and S2TL at index 7 <= 0.5\ngini = 0.246\nsamples = 8\nvalue = [13.954, 2.335]\nclass = Undesirable", fillcolor="#e9965a"] ;
131 -> 133 ;
134 [label="gini = 0.0\nsamples = 3\nvalue = [0.0, 1.751]\nclass = Desirable", fillcolor="#399de5"] ;
133 -> 134 ;
135 [label="Value of index 3 at category E2W <= 0.5\ngini = 0.077\nsamples = 5\nvalue = [13.954, 0.584]\nclass = Undesirable", fillcolor="#e68641"] ;
133 -> 135 ;
136 [label="gini = 0.0\nsamples = 4\nvalue = [13.954, 0.0]\nclass = Undesirable", fillcolor="#e58139"] ;
135 -> 136 ;
137 [label="gini = -0.0\nsamples = 1\nvalue = [0.0, 0.584]\nclass = Desirable", fillcolor="#399de5"] ;
135 -> 137 ;
138 [label="Value of index 0 at category S2N <= 0.5\ngini = 0.254\nsamples = 170\nvalue = [289.55, 50.778]\nclass = Undesirable", fillcolor="#ea975c"] ;
128 -> 138 ;
139 [label="Equality of E2W and S2TL at index 3 <= 0.5\ngini = 0.345\nsamples = 81\nvalue = [104.657, 29.766]\nclass = Undesirable", fillcolor="#eca571"] ;
138 -> 139 ;
140 [label="gini = 0.0\nsamples = 5\nvalue = [0.0, 2.918]\nclass = Desirable", fillcolor="#399de5"] ;
139 -> 140 ;
141 [label="Equality of W2E and N2TL at index 0 <= 0.5\ngini = 0.325\nsamples = 76\nvalue = [104.657, 26.848]\nclass = Undesirable", fillcolor="#eca16c"] ;
139 -> 141 ;
142 [label="Equality of W2TL and N2S at index 2 <= 0.5\ngini = 0.225\nsamples = 34\nvalue = [62.794, 9.338]\nclass = Undesirable", fillcolor="#e99456"] ;
141 -> 142 ;
143 [label="gini = 0.0\nsamples = 3\nvalue = [0.0, 1.751]\nclass = Desirable", fillcolor="#399de5"] ;
142 -> 143 ;
144 [label="Equality of W2E and N2TL at index 3 <= 0.5\ngini = 0.192\nsamples = 31\nvalue = [62.794, 7.587]\nclass = Undesirable", fillcolor="#e89051"] ;
142 -> 144 ;
145 [label="gini = 0.0\nsamples = 1\nvalue = [0.0, 0.584]\nclass = Desirable", fillcolor="#399de5"] ;
144 -> 145 ;
146 [label="gini = 0.181\nsamples = 30\nvalue = [62.794, 7.004]\nclass = Undesirable", fillcolor="#e88f4f"] ;
144 -> 146 ;
147 [label="Value of index 0 at category N2TL <= 0.5\ngini = 0.416\nsamples = 42\nvalue = [41.863, 17.51]\nclass = Undesirable", fillcolor="#f0b68c"] ;
141 -> 147 ;
148 [label="Equality of E2W and N2S at index 2 <= 0.5\ngini = 0.407\nsamples = 16\nvalue = [3.489, 8.755]\nclass = Desirable", fillcolor="#88c4ef"] ;
147 -> 148 ;
149 [label="gini = 0.246\nsamples = 2\nvalue = [3.489, 0.584]\nclass = Undesirable", fillcolor="#e9965a"] ;
148 -> 149 ;
150 [label="gini = -0.0\nsamples = 14\nvalue = [0.0, 8.171]\nclass = Desirable", fillcolor="#399de5"] ;
148 -> 150 ;
151 [label="Value of index 1 at category ACT <= 0.5\ngini = 0.303\nsamples = 26\nvalue = [38.374, 8.755]\nclass = Undesirable", fillcolor="#eb9e66"] ;
147 -> 151 ;
152 [label="gini = 0.077\nsamples = 10\nvalue = [27.908, 1.167]\nclass = Undesirable", fillcolor="#e68641"] ;
151 -> 152 ;
153 [label="gini = 0.487\nsamples = 16\nvalue = [10.466, 7.587]\nclass = Undesirable", fillcolor="#f8dcc9"] ;
151 -> 153 ;
154 [label="Equality of N2S and S2TL at index 5 <= 0.5\ngini = 0.183\nsamples = 89\nvalue = [184.893, 21.011]\nclass = Undesirable", fillcolor="#e88f50"] ;
138 -> 154 ;
155 [label="gini = 0.0\nsamples = 4\nvalue = [0.0, 2.335]\nclass = Desirable", fillcolor="#399de5"] ;
154 -> 155 ;
156 [label="Equality of W2E and W2TL at index 0 <= 0.5\ngini = 0.167\nsamples = 85\nvalue = [184.893, 18.677]\nclass = Undesirable", fillcolor="#e88e4d"] ;
154 -> 156 ;
157 [label="Value of index 4 at category W2TL <= 0.5\ngini = 0.091\nsamples = 52\nvalue = [139.542, 7.004]\nclass = Undesirable", fillcolor="#e68743"] ;
156 -> 157 ;
158 [label="Value of index 3 at category W2TL <= 0.5\ngini = 0.084\nsamples = 51\nvalue = [139.542, 6.42]\nclass = Undesirable", fillcolor="#e68742"] ;
157 -> 158 ;
159 [label="gini = 0.077\nsamples = 50\nvalue = [139.542, 5.837]\nclass = Undesirable", fillcolor="#e68641"] ;
158 -> 159 ;
160 [label="gini = -0.0\nsamples = 1\nvalue = [0.0, 0.584]\nclass = Desirable", fillcolor="#399de5"] ;
158 -> 160 ;
161 [label="gini = -0.0\nsamples = 1\nvalue = [0.0, 0.584]\nclass = Desirable", fillcolor="#399de5"] ;
157 -> 161 ;
162 [label="Value of index 0 at category N2TL <= 0.5\ngini = 0.326\nsamples = 33\nvalue = [45.351, 11.673]\nclass = Undesirable", fillcolor="#eca16c"] ;
156 -> 162 ;
163 [label="Equality of E2TL and S2N at index 3 <= 0.5\ngini = 0.259\nsamples = 27\nvalue = [45.351, 8.171]\nclass = Undesirable", fillcolor="#ea985d"] ;
162 -> 163 ;
164 [label="gini = 0.0\nsamples = 2\nvalue = [0.0, 1.167]\nclass = Desirable", fillcolor="#399de5"] ;
163 -> 164 ;
165 [label="gini = 0.232\nsamples = 25\nvalue = [45.351, 7.004]\nclass = Undesirable", fillcolor="#e99458"] ;
163 -> 165 ;
166 [label="gini = 0.0\nsamples = 6\nvalue = [0.0, 3.502]\nclass = Desirable", fillcolor="#399de5"] ;
162 -> 166 ;
167 [label="Value of index 0 at category N2S <= 0.5\ngini = 0.0\nsamples = 5\nvalue = [0.0, 2.918]\nclass = Desirable", fillcolor="#399de5"] ;
105 -> 167 ;
168 [label="gini = 0.0\nsamples = 2\nvalue = [0.0, 1.167]\nclass = Desirable", fillcolor="#399de5"] ;
167 -> 168 ;
169 [label="gini = 0.0\nsamples = 3\nvalue = [0.0, 1.751]\nclass = Desirable", fillcolor="#399de5"] ;
167 -> 169 ;
170 [label="Equality of W2TL and S2TL at index 6 <= 0.5\ngini = 0.458\nsamples = 296\nvalue = [240.71, 132.489]\nclass = Undesirable", fillcolor="#f3c6a6"] ;
92 -> 170 ;
171 [label="gini = 0.0\nsamples = 19\nvalue = [0.0, 11.089]\nclass = Desirable", fillcolor="#399de5"] ;
170 -> 171 ;
172 [label="Equality of N2S and S2N at index 0 <= 0.5\ngini = 0.446\nsamples = 277\nvalue = [240.71, 121.4]\nclass = Undesirable", fillcolor="#f2c19d"] ;
170 -> 172 ;
173 [label="Equality of W2TL and N2S at index 7 <= 0.5\ngini = 0.486\nsamples = 56\nvalue = [20.931, 29.183]\nclass = Desirable", fillcolor="#c7e3f8"] ;
172 -> 173 ;
174 [label="Equality of W2E and W2TL at index 7 <= 0.5\ngini = 0.409\nsamples = 17\nvalue = [17.443, 7.004]\nclass = Undesirable", fillcolor="#efb489"] ;
173 -> 174 ;
175 [label="gini = 0.0\nsamples = 6\nvalue = [0.0, 3.502]\nclass = Desirable", fillcolor="#399de5"] ;
174 -> 175 ;
176 [label="Equality of N2TL and S2N at index 1 <= 0.5\ngini = 0.278\nsamples = 11\nvalue = [17.443, 3.502]\nclass = Undesirable", fillcolor="#ea9a61"] ;
174 -> 176 ;
177 [label="gini = 0.0\nsamples = 3\nvalue = [0.0, 1.751]\nclass = Desirable", fillcolor="#399de5"] ;
176 -> 177 ;
178 [label="Equality of W2TL and S2N at index 0 <= 0.5\ngini = 0.166\nsamples = 8\nvalue = [17.443, 1.751]\nclass = Undesirable", fillcolor="#e88e4d"] ;
176 -> 178 ;
179 [label="Value of index 2 at category S2TL <= 0.5\ngini = 0.063\nsamples = 6\nvalue = [17.443, 0.584]\nclass = Undesirable", fillcolor="#e68540"] ;
178 -> 179 ;
180 [label="gini = 0.0\nsamples = 4\nvalue = [13.954, 0.0]\nclass = Undesirable", fillcolor="#e58139"] ;
179 -> 180 ;
181 [label="Equality of W2E and N2S at index 1 <= 0.5\ngini = 0.246\nsamples = 2\nvalue = [3.489, 0.584]\nclass = Undesirable", fillcolor="#e9965a"] ;
179 -> 181 ;
182 [label="gini = 0.0\nsamples = 1\nvalue = [0.0, 0.584]\nclass = Desirable", fillcolor="#399de5"] ;
181 -> 182 ;
183 [label="gini = 0.0\nsamples = 1\nvalue = [3.489, 0.0]\nclass = Undesirable", fillcolor="#e58139"] ;
181 -> 183 ;
184 [label="gini = -0.0\nsamples = 2\nvalue = [0.0, 1.167]\nclass = Desirable", fillcolor="#399de5"] ;
178 -> 184 ;
185 [label="Value of index 6 at category E2W <= 0.5\ngini = 0.235\nsamples = 39\nvalue = [3.489, 22.179]\nclass = Desirable", fillcolor="#58ace9"] ;
173 -> 185 ;
186 [label="gini = 0.0\nsamples = 33\nvalue = [0.0, 19.261]\nclass = Desirable", fillcolor="#399de5"] ;
185 -> 186 ;
187 [label="Equality of W2E and E2TL at index 0 <= 0.5\ngini = 0.496\nsamples = 6\nvalue = [3.489, 2.918]\nclass = Undesirable", fillcolor="#fbeadf"] ;
185 -> 187 ;
188 [label="gini = 0.0\nsamples = 1\nvalue = [3.489, 0.0]\nclass = Undesirable", fillcolor="#e58139"] ;
187 -> 188 ;
189 [label="gini = -0.0\nsamples = 5\nvalue = [0.0, 2.918]\nclass = Desirable", fillcolor="#399de5"] ;
187 -> 189 ;
190 [label="Equality of E2TL and N2TL at index 1 <= 0.5\ngini = 0.416\nsamples = 221\nvalue = [219.779, 92.217]\nclass = Undesirable", fillcolor="#f0b68c"] ;
172 -> 190 ;
191 [label="Equality of E2W and S2TL at index 0 <= 0.5\ngini = 0.5\nsamples = 65\nvalue = [31.397, 32.685]\nclass = Desirable", fillcolor="#f7fbfe"] ;
190 -> 191 ;
192 [label="Equality of W2TL and N2S at index 2 <= 0.5\ngini = 0.46\nsamples = 39\nvalue = [31.397, 17.51]\nclass = Undesirable", fillcolor="#f3c7a7"] ;
191 -> 192 ;
193 [label="Value of index 5 at category W2E <= 0.5\ngini = 0.291\nsamples = 16\nvalue = [24.42, 5.253]\nclass = Undesirable", fillcolor="#eb9c64"] ;
192 -> 193 ;
194 [label="Equality of E2W and N2TL at index 0 <= 0.5\ngini = 0.219\nsamples = 13\nvalue = [24.42, 3.502]\nclass = Undesirable", fillcolor="#e99355"] ;
193 -> 194 ;
195 [label="Value of index 4 at category S2TL <= 0.5\ngini = 0.159\nsamples = 11\nvalue = [24.42, 2.335]\nclass = Undesirable", fillcolor="#e78d4c"] ;
194 -> 195 ;
196 [label="Value of index 7 at category N2TL <= 0.5\ngini = 0.125\nsamples = 10\nvalue = [24.42, 1.751]\nclass = Undesirable", fillcolor="#e78a47"] ;
195 -> 196 ;
197 [label="gini = 0.087\nsamples = 9\nvalue = [24.42, 1.167]\nclass = Undesirable", fillcolor="#e68742"] ;
196 -> 197 ;
198 [label="gini = -0.0\nsamples = 1\nvalue = [0.0, 0.584]\nclass = Desirable", fillcolor="#399de5"] ;
196 -> 198 ;
199 [label="gini = -0.0\nsamples = 1\nvalue = [0.0, 0.584]\nclass = Desirable", fillcolor="#399de5"] ;
195 -> 199 ;
200 [label="gini = -0.0\nsamples = 2\nvalue = [0.0, 1.167]\nclass = Desirable", fillcolor="#399de5"] ;
194 -> 200 ;
201 [label="gini = -0.0\nsamples = 3\nvalue = [0.0, 1.751]\nclass = Desirable", fillcolor="#399de5"] ;
193 -> 201 ;
202 [label="Equality of E2W and S2TL at index 5 <= 0.5\ngini = 0.462\nsamples = 23\nvalue = [6.977, 12.257]\nclass = Desirable", fillcolor="#aad5f4"] ;
192 -> 202 ;
203 [label="Equality of W2TL and S2N at index 0 <= 0.5\ngini = 0.246\nsamples = 4\nvalue = [6.977, 1.167]\nclass = Undesirable", fillcolor="#e9965a"] ;
202 -> 203 ;
204 [label="gini = 0.0\nsamples = 2\nvalue = [0.0, 1.167]\nclass = Desirable", fillcolor="#399de5"] ;
203 -> 204 ;
205 [label="gini = 0.0\nsamples = 2\nvalue = [6.977, 0.0]\nclass = Undesirable", fillcolor="#e58139"] ;
203 -> 205 ;
206 [label="gini = -0.0\nsamples = 19\nvalue = [0.0, 11.089]\nclass = Desirable", fillcolor="#399de5"] ;
202 -> 206 ;
207 [label="gini = 0.0\nsamples = 26\nvalue = [0.0, 15.175]\nclass = Desirable", fillcolor="#399de5"] ;
191 -> 207 ;
208 [label="Equality of N2S and N2TL at index 0 <= 0.5\ngini = 0.365\nsamples = 156\nvalue = [188.382, 59.533]\nclass = Undesirable", fillcolor="#eda978"] ;
190 -> 208 ;
209 [label="Equality of E2TL and N2TL at index 7 <= 0.5\ngini = 0.303\nsamples = 90\nvalue = [132.565, 30.35]\nclass = Undesirable", fillcolor="#eb9e66"] ;
208 -> 209 ;
210 [label="gini = 0.0\nsamples = 5\nvalue = [0.0, 2.918]\nclass = Desirable", fillcolor="#399de5"] ;
209 -> 210 ;
211 [label="Equality of W2E and S2N at index 6 <= 0.5\ngini = 0.284\nsamples = 85\nvalue = [132.565, 27.432]\nclass = Undesirable", fillcolor="#ea9b62"] ;
209 -> 211 ;
212 [label="Equality of W2E and S2N at index 7 <= 0.5\ngini = 0.46\nsamples = 26\nvalue = [20.931, 11.673]\nclass = Undesirable", fillcolor="#f3c7a7"] ;
211 -> 212 ;
213 [label="Value of index 2 at category S2TL <= 0.5\ngini = 0.246\nsamples = 10\nvalue = [17.443, 2.918]\nclass = Undesirable", fillcolor="#e9965a"] ;
212 -> 213 ;
214 [label="Value of index 6 at category E2TL <= 0.5\ngini = 0.118\nsamples = 7\nvalue = [17.443, 1.167]\nclass = Undesirable", fillcolor="#e78946"] ;
213 -> 214 ;
215 [label="gini = 0.063\nsamples = 6\nvalue = [17.443, 0.584]\nclass = Undesirable", fillcolor="#e68540"] ;
214 -> 215 ;
216 [label="gini = -0.0\nsamples = 1\nvalue = [0.0, 0.584]\nclass = Desirable", fillcolor="#399de5"] ;
214 -> 216 ;
217 [label="gini = -0.0\nsamples = 3\nvalue = [0.0, 1.751]\nclass = Desirable", fillcolor="#399de5"] ;
213 -> 217 ;
218 [label="Equality of W2E and N2S at index 6 <= 0.5\ngini = 0.407\nsamples = 16\nvalue = [3.489, 8.755]\nclass = Desirable", fillcolor="#88c4ef"] ;
212 -> 218 ;
219 [label="Equality of W2E and S2TL at index 2 <= 0.5\ngini = 0.376\nsamples = 3\nvalue = [3.489, 1.167]\nclass = Undesirable", fillcolor="#eeab7b"] ;
218 -> 219 ;
220 [label="gini = 0.0\nsamples = 2\nvalue = [0.0, 1.167]\nclass = Desirable", fillcolor="#399de5"] ;
219 -> 220 ;
221 [label="gini = 0.0\nsamples = 1\nvalue = [3.489, 0.0]\nclass = Undesirable", fillcolor="#e58139"] ;
219 -> 221 ;
222 [label="gini = -0.0\nsamples = 13\nvalue = [0.0, 7.587]\nclass = Desirable", fillcolor="#399de5"] ;
218 -> 222 ;
223 [label="Equality of E2TL and N2TL at index 4 <= 0.5\ngini = 0.217\nsamples = 59\nvalue = [111.634, 15.759]\nclass = Undesirable", fillcolor="#e99355"] ;
211 -> 223 ;
224 [label="gini = 0.0\nsamples = 2\nvalue = [0.0, 1.167]\nclass = Desirable", fillcolor="#399de5"] ;
223 -> 224 ;
225 [label="Value of index 1 at category ACT <= 0.5\ngini = 0.204\nsamples = 57\nvalue = [111.634, 14.591]\nclass = Undesirable", fillcolor="#e89153"] ;
223 -> 225 ;
226 [label="Equality of N2TL and S2TL at index 1 <= 0.5\ngini = 0.333\nsamples = 26\nvalue = [34.886, 9.338]\nclass = Undesirable", fillcolor="#eca36e"] ;
225 -> 226 ;
227 [label="gini = 0.0\nsamples = 10\nvalue = [34.886, 0.0]\nclass = Undesirable", fillcolor="#e58139"] ;
226 -> 227 ;
228 [label="gini = -0.0\nsamples = 16\nvalue = [0.0, 9.338]\nclass = Desirable", fillcolor="#399de5"] ;
226 -> 228 ;
229 [label="Equality of W2TL and E2TL at index 1 <= 0.5\ngini = 0.12\nsamples = 31\nvalue = [76.748, 5.253]\nclass = Undesirable", fillcolor="#e78a47"] ;
225 -> 229 ;
230 [label="gini = -0.0\nsamples = 19\nvalue = [66.282, 0.0]\nclass = Undesirable", fillcolor="#e58139"] ;
229 -> 230 ;
231 [label="gini = 0.445\nsamples = 12\nvalue = [10.466, 5.253]\nclass = Undesirable", fillcolor="#f2c09c"] ;
229 -> 231 ;
232 [label="Equality of W2TL and S2TL at index 0 <= 0.5\ngini = 0.451\nsamples = 66\nvalue = [55.817, 29.183]\nclass = Undesirable", fillcolor="#f3c3a1"] ;
208 -> 232 ;
233 [label="Equality of N2S and S2TL at index 4 <= 0.5\ngini = 0.412\nsamples = 55\nvalue = [55.817, 22.762]\nclass = Undesirable", fillcolor="#f0b48a"] ;
232 -> 233 ;
234 [label="gini = 0.0\nsamples = 5\nvalue = [0.0, 2.918]\nclass = Desirable", fillcolor="#399de5"] ;
233 -> 234 ;
235 [label="Equality of W2E and S2N at index 2 <= 0.5\ngini = 0.387\nsamples = 50\nvalue = [55.817, 19.844]\nclass = Undesirable", fillcolor="#eeae7f"] ;
233 -> 235 ;
236 [label="Equality of W2E and S2N at index 1 <= 0.5\ngini = 0.053\nsamples = 7\nvalue = [20.931, 0.584]\nclass = Undesirable", fillcolor="#e6853f"] ;
235 -> 236 ;
237 [label="gini = 0.0\nsamples = 6\nvalue = [20.931, 0.0]\nclass = Undesirable", fillcolor="#e58139"] ;
236 -> 237 ;
238 [label="gini = -0.0\nsamples = 1\nvalue = [0.0, 0.584]\nclass = Desirable", fillcolor="#399de5"] ;
236 -> 238 ;
239 [label="Equality of W2TL and S2TL at index 2 <= 0.5\ngini = 0.458\nsamples = 43\nvalue = [34.886, 19.261]\nclass = Undesirable", fillcolor="#f3c7a6"] ;
235 -> 239 ;
240 [label="gini = 0.0\nsamples = 8\nvalue = [0.0, 4.669]\nclass = Desirable", fillcolor="#399de5"] ;
239 -> 240 ;
241 [label="Equality of W2TL and N2TL at index 1 <= 0.5\ngini = 0.416\nsamples = 35\nvalue = [34.886, 14.591]\nclass = Undesirable", fillcolor="#f0b68c"] ;
239 -> 241 ;
242 [label="gini = 0.49\nsamples = 18\nvalue = [6.977, 9.338]\nclass = Desirable", fillcolor="#cde6f8"] ;
241 -> 242 ;
243 [label="gini = 0.267\nsamples = 17\nvalue = [27.908, 5.253]\nclass = Undesirable", fillcolor="#ea995e"] ;
241 -> 243 ;
244 [label="Equality of E2W and N2S at index 6 <= 0.5\ngini = 0.0\nsamples = 11\nvalue = [0.0, 6.42]\nclass = Desirable", fillcolor="#399de5"] ;
232 -> 244 ;
245 [label="gini = 0.0\nsamples = 6\nvalue = [0.0, 3.502]\nclass = Desirable", fillcolor="#399de5"] ;
244 -> 245 ;
246 [label="gini = 0.0\nsamples = 5\nvalue = [0.0, 2.918]\nclass = Desirable", fillcolor="#399de5"] ;
244 -> 246 ;
247 [label="Equality of E2TL and N2TL at index 1 <= 0.5\ngini = 0.068\nsamples = 4289\nvalue = [12283.191, 448.245]\nclass = Undesirable", fillcolor="#e68640"] ;
3 -> 247 ;
248 [label="Value of index 1 at category S2TL <= 0.5\ngini = 0.305\nsamples = 688\nvalue = [1008.191, 232.877]\nclass = Undesirable", fillcolor="#eb9e67"] ;
247 -> 248 ;
249 [label="Equality of E2TL and N2TL at index 0 <= 0.5\ngini = 0.298\nsamples = 672\nvalue = [1004.703, 224.123]\nclass = Undesirable", fillcolor="#eb9d65"] ;
248 -> 249 ;
250 [label="Equality of W2E and N2TL at index 0 <= 0.5\ngini = 0.335\nsamples = 518\nvalue = [690.733, 186.769]\nclass = Undesirable", fillcolor="#eca36f"] ;
249 -> 250 ;
251 [label="Equality of E2TL and N2TL at index 5 <= 0.5\ngini = 0.39\nsamples = 262\nvalue = [289.55, 104.474]\nclass = Undesirable", fillcolor="#eeae80"] ;
250 -> 251 ;
252 [label="gini = 0.0\nsamples = 11\nvalue = [0.0, 6.42]\nclass = Desirable", fillcolor="#399de5"] ;
251 -> 252 ;
253 [label="Equality of W2E and N2S at index 2 <= 0.5\ngini = 0.378\nsamples = 251\nvalue = [289.55, 98.054]\nclass = Undesirable", fillcolor="#eeac7c"] ;
251 -> 253 ;
254 [label="Equality of N2S and S2N at index 0 <= 0.5\ngini = 0.266\nsamples = 70\nvalue = [115.122, 21.595]\nclass = Undesirable", fillcolor="#ea995e"] ;
253 -> 254 ;
255 [label="gini = 0.0\nsamples = 8\nvalue = [0.0, 4.669]\nclass = Desirable", fillcolor="#399de5"] ;
254 -> 255 ;
256 [label="Value of index 4 at category N2S <= 0.5\ngini = 0.223\nsamples = 62\nvalue = [115.122, 16.926]\nclass = Undesirable", fillcolor="#e99456"] ;
254 -> 256 ;
257 [label="Value of index 6 at category W2E <= 0.5\ngini = 0.198\nsamples = 56\nvalue = [111.634, 14.008]\nclass = Undesirable", fillcolor="#e89152"] ;
256 -> 257 ;
258 [label="Equality of W2E and N2TL at index 3 <= 0.5\ngini = 0.147\nsamples = 41\nvalue = [94.191, 8.171]\nclass = Undesirable", fillcolor="#e78c4a"] ;
257 -> 258 ;
259 [label="Equality of W2E and S2N at index 4 <= 0.5\ngini = 0.333\nsamples = 13\nvalue = [17.443, 4.669]\nclass = Undesirable", fillcolor="#eca36e"] ;
258 -> 259 ;
260 [label="gini = 0.063\nsamples = 6\nvalue = [17.443, 0.584]\nclass = Undesirable", fillcolor="#e68540"] ;
259 -> 260 ;
261 [label="gini = -0.0\nsamples = 7\nvalue = [0.0, 4.086]\nclass = Desirable", fillcolor="#399de5"] ;
259 -> 261 ;
262 [label="Equality of W2E and S2N at index 1 <= 0.5\ngini = 0.083\nsamples = 28\nvalue = [76.748, 3.502]\nclass = Undesirable", fillcolor="#e68742"] ;
258 -> 262 ;
263 [label="gini = 0.038\nsamples = 19\nvalue = [59.305, 1.167]\nclass = Undesirable", fillcolor="#e6833d"] ;
262 -> 263 ;
264 [label="gini = 0.208\nsamples = 9\nvalue = [17.443, 2.335]\nclass = Undesirable", fillcolor="#e89254"] ;
262 -> 264 ;
265 [label="Equality of W2E and E2W at index 5 <= 0.5\ngini = 0.376\nsamples = 15\nvalue = [17.443, 5.837]\nclass = Undesirable", fillcolor="#eeab7b"] ;
257 -> 265 ;
266 [label="gini = 0.0\nsamples = 5\nvalue = [0.0, 2.918]\nclass = Desirable", fillcolor="#399de5"] ;
265 -> 266 ;
267 [label="Equality of W2E and S2N at index 7 <= 0.5\ngini = 0.246\nsamples = 10\nvalue = [17.443, 2.918]\nclass = Undesirable", fillcolor="#e9965a"] ;
265 -> 267 ;
268 [label="gini = 0.0\nsamples = 4\nvalue = [13.954, 0.0]\nclass = Undesirable", fillcolor="#e58139"] ;
267 -> 268 ;
269 [label="gini = 0.496\nsamples = 6\nvalue = [3.489, 2.918]\nclass = Undesirable", fillcolor="#fbeadf"] ;
267 -> 269 ;
270 [label="Value of index 4 at category W2E <= 0.5\ngini = 0.496\nsamples = 6\nvalue = [3.489, 2.918]\nclass = Undesirable", fillcolor="#fbeadf"] ;
256 -> 270 ;
271 [label="gini = -0.0\nsamples = 5\nvalue = [0.0, 2.918]\nclass = Desirable", fillcolor="#399de5"] ;
270 -> 271 ;
272 [label="gini = 0.0\nsamples = 1\nvalue = [3.489, 0.0]\nclass = Undesirable", fillcolor="#e58139"] ;
270 -> 272 ;
273 [label="Equality of W2E and W2TL at index 5 <= 0.5\ngini = 0.424\nsamples = 181\nvalue = [174.428, 76.458]\nclass = Undesirable", fillcolor="#f0b890"] ;
253 -> 273 ;
274 [label="Equality of W2E and S2N at index 2 <= 0.5\ngini = 0.364\nsamples = 20\nvalue = [3.489, 11.089]\nclass = Desirable", fillcolor="#77bced"] ;
273 -> 274 ;
275 [label="Equality of W2TL and S2N at index 5 <= 0.5\ngini = 0.376\nsamples = 3\nvalue = [3.489, 1.167]\nclass = Undesirable", fillcolor="#eeab7b"] ;
274 -> 275 ;
276 [label="Equality of E2TL and S2N at index 6 <= 0.5\ngini = 0.0\nsamples = 2\nvalue = [0.0, 1.167]\nclass = Desirable", fillcolor="#399de5"] ;
275 -> 276 ;
277 [label="gini = 0.0\nsamples = 1\nvalue = [0.0, 0.584]\nclass = Desirable", fillcolor="#399de5"] ;
276 -> 277 ;
278 [label="gini = 0.0\nsamples = 1\nvalue = [0.0, 0.584]\nclass = Desirable", fillcolor="#399de5"] ;
276 -> 278 ;
279 [label="gini = 0.0\nsamples = 1\nvalue = [3.489, 0.0]\nclass = Undesirable", fillcolor="#e58139"] ;
275 -> 279 ;
280 [label="gini = -0.0\nsamples = 17\nvalue = [0.0, 9.922]\nclass = Desirable", fillcolor="#399de5"] ;
274 -> 280 ;
281 [label="Equality of W2TL and E2W at index 4 <= 0.5\ngini = 0.4\nsamples = 161\nvalue = [170.939, 65.369]\nclass = Undesirable", fillcolor="#efb185"] ;
273 -> 281 ;
282 [label="Value of index 4 at category N2TL <= 0.5\ngini = 0.432\nsamples = 14\nvalue = [3.489, 7.587]\nclass = Desirable", fillcolor="#94caf1"] ;
281 -> 282 ;
283 [label="gini = -0.0\nsamples = 13\nvalue = [0.0, 7.587]\nclass = Desirable", fillcolor="#399de5"] ;
282 -> 283 ;
284 [label="gini = -0.0\nsamples = 1\nvalue = [3.489, 0.0]\nclass = Undesirable", fillcolor="#e58139"] ;
282 -> 284 ;
285 [label="Equality of N2S and N2TL at index 3 <= 0.5\ngini = 0.381\nsamples = 147\nvalue = [167.45, 57.782]\nclass = Undesirable", fillcolor="#eeac7d"] ;
281 -> 285 ;
286 [label="Value of index 7 at category S2TL <= 0.5\ngini = 0.129\nsamples = 13\nvalue = [31.397, 2.335]\nclass = Undesirable", fillcolor="#e78a48"] ;
285 -> 286 ;
287 [label="Equality of W2TL and N2S at index 5 <= 0.5\ngini = 0.069\nsamples = 11\nvalue = [31.397, 1.167]\nclass = Undesirable", fillcolor="#e68640"] ;
286 -> 287 ;
288 [label="gini = 0.0\nsamples = 2\nvalue = [0.0, 1.167]\nclass = Desirable", fillcolor="#399de5"] ;
287 -> 288 ;
289 [label="gini = 0.0\nsamples = 9\nvalue = [31.397, 0.0]\nclass = Undesirable", fillcolor="#e58139"] ;
287 -> 289 ;
290 [label="gini = -0.0\nsamples = 2\nvalue = [0.0, 1.167]\nclass = Desirable", fillcolor="#399de5"] ;
286 -> 290 ;
291 [label="Equality of E2W and N2S at index 3 <= 0.5\ngini = 0.411\nsamples = 134\nvalue = [136.054, 55.447]\nclass = Undesirable", fillcolor="#f0b48a"] ;
285 -> 291 ;
292 [label="gini = 0.0\nsamples = 6\nvalue = [0.0, 3.502]\nclass = Desirable", fillcolor="#399de5"] ;
291 -> 292 ;
293 [label="Equality of S2N and S2TL at index 6 <= 0.5\ngini = 0.4\nsamples = 128\nvalue = [136.054, 51.945]\nclass = Undesirable", fillcolor="#efb185"] ;
291 -> 293 ;
294 [label="gini = 0.246\nsamples = 22\nvalue = [38.374, 6.42]\nclass = Undesirable", fillcolor="#e9965a"] ;
293 -> 294 ;
295 [label="gini = 0.434\nsamples = 106\nvalue = [97.679, 45.525]\nclass = Undesirable", fillcolor="#f1bc95"] ;
293 -> 295 ;
296 [label="Equality of E2W and N2TL at index 5 <= 0.5\ngini = 0.282\nsamples = 256\nvalue = [401.183, 82.295]\nclass = Undesirable", fillcolor="#ea9b62"] ;
250 -> 296 ;
297 [label="Equality of E2W and E2TL at index 2 <= 0.5\ngini = 0.445\nsamples = 40\nvalue = [34.886, 17.51]\nclass = Undesirable", fillcolor="#f2c09c"] ;
296 -> 297 ;
298 [label="gini = 0.0\nsamples = 10\nvalue = [0.0, 5.837]\nclass = Desirable", fillcolor="#399de5"] ;
297 -> 298 ;
299 [label="Equality of W2TL and E2W at index 6 <= 0.5\ngini = 0.376\nsamples = 30\nvalue = [34.886, 11.673]\nclass = Undesirable", fillcolor="#eeab7b"] ;
297 -> 299 ;
300 [label="gini = 0.0\nsamples = 7\nvalue = [0.0, 4.086]\nclass = Desirable", fillcolor="#399de5"] ;
299 -> 300 ;
301 [label="Equality of W2E and N2S at index 5 <= 0.5\ngini = 0.293\nsamples = 23\nvalue = [34.886, 7.587]\nclass = Undesirable", fillcolor="#eb9c64"] ;
299 -> 301 ;
302 [label="gini = 0.0\nsamples = 3\nvalue = [0.0, 1.751]\nclass = Desirable", fillcolor="#399de5"] ;
301 -> 302 ;
303 [label="Equality of S2N and S2TL at index 5 <= 0.5\ngini = 0.246\nsamples = 20\nvalue = [34.886, 5.837]\nclass = Undesirable", fillcolor="#e9965a"] ;
301 -> 303 ;
304 [label="gini = 0.0\nsamples = 2\nvalue = [0.0, 1.167]\nclass = Desirable", fillcolor="#399de5"] ;
303 -> 304 ;
305 [label="Value of index 7 at category E2W <= 0.5\ngini = 0.208\nsamples = 18\nvalue = [34.886, 4.669]\nclass = Undesirable", fillcolor="#e89254"] ;
303 -> 305 ;
306 [label="Equality of N2S and N2TL at index 6 <= 0.5\ngini = 0.1\nsamples = 12\nvalue = [31.397, 1.751]\nclass = Undesirable", fillcolor="#e68844"] ;
305 -> 306 ;
307 [label="gini = 0.0\nsamples = 2\nvalue = [0.0, 1.167]\nclass = Desirable", fillcolor="#399de5"] ;
306 -> 307 ;
308 [label="gini = 0.036\nsamples = 10\nvalue = [31.397, 0.584]\nclass = Undesirable", fillcolor="#e5833d"] ;
306 -> 308 ;
309 [label="Equality of E2W and S2N at index 0 <= 0.5\ngini = 0.496\nsamples = 6\nvalue = [3.489, 2.918]\nclass = Undesirable", fillcolor="#fbeadf"] ;
305 -> 309 ;
310 [label="gini = -0.0\nsamples = 4\nvalue = [0.0, 2.335]\nclass = Desirable", fillcolor="#399de5"] ;
309 -> 310 ;
311 [label="gini = 0.246\nsamples = 2\nvalue = [3.489, 0.584]\nclass = Undesirable", fillcolor="#e9965a"] ;
309 -> 311 ;
312 [label="Equality of N2TL and S2N at index 4 <= 0.5\ngini = 0.255\nsamples = 216\nvalue = [366.298, 64.785]\nclass = Undesirable", fillcolor="#ea975c"] ;
296 -> 312 ;
313 [label="Value of index 0 at category S2N <= 0.5\ngini = 0.404\nsamples = 30\nvalue = [31.397, 12.257]\nclass = Undesirable", fillcolor="#efb286"] ;
312 -> 313 ;
314 [label="gini = 0.0\nsamples = 10\nvalue = [0.0, 5.837]\nclass = Desirable", fillcolor="#399de5"] ;
313 -> 314 ;
315 [label="Equality of N2TL and S2N at index 5 <= 0.5\ngini = 0.282\nsamples = 20\nvalue = [31.397, 6.42]\nclass = Undesirable", fillcolor="#ea9b61"] ;
313 -> 315 ;
316 [label="gini = 0.0\nsamples = 3\nvalue = [0.0, 1.751]\nclass = Desirable", fillcolor="#399de5"] ;
315 -> 316 ;
317 [label="Equality of W2E and N2S at index 1 <= 0.5\ngini = 0.225\nsamples = 17\nvalue = [31.397, 4.669]\nclass = Undesirable", fillcolor="#e99456"] ;
315 -> 317 ;
318 [label="Equality of W2E and N2TL at index 3 <= 0.5\ngini = 0.156\nsamples = 14\nvalue = [31.397, 2.918]\nclass = Undesirable", fillcolor="#e78d4b"] ;
317 -> 318 ;
319 [label="gini = 0.0\nsamples = 3\nvalue = [0.0, 1.751]\nclass = Desirable", fillcolor="#399de5"] ;
318 -> 319 ;
320 [label="Equality of N2TL and S2N at index 2 <= 0.5\ngini = 0.069\nsamples = 11\nvalue = [31.397, 1.167]\nclass = Undesirable", fillcolor="#e68640"] ;
318 -> 320 ;
321 [label="gini = 0.0\nsamples = 7\nvalue = [24.42, 0.0]\nclass = Undesirable", fillcolor="#e58139"] ;
320 -> 321 ;
322 [label="gini = 0.246\nsamples = 4\nvalue = [6.977, 1.167]\nclass = Undesirable", fillcolor="#e9965a"] ;
320 -> 322 ;
323 [label="gini = -0.0\nsamples = 3\nvalue = [0.0, 1.751]\nclass = Desirable", fillcolor="#399de5"] ;
317 -> 323 ;
324 [label="Value of index 7 at category N2TL <= 0.5\ngini = 0.234\nsamples = 186\nvalue = [334.901, 52.529]\nclass = Undesirable", fillcolor="#e99558"] ;
312 -> 324 ;
325 [label="Equality of N2S and S2N at index 2 <= 0.5\ngini = 0.227\nsamples = 182\nvalue = [334.901, 50.194]\nclass = Undesirable", fillcolor="#e99457"] ;
324 -> 325 ;
326 [label="Equality of E2TL and N2TL at index 2 <= 0.5\ngini = 0.35\nsamples = 44\nvalue = [55.817, 16.342]\nclass = Undesirable", fillcolor="#eda673"] ;
325 -> 326 ;
327 [label="gini = 0.0\nsamples = 6\nvalue = [0.0, 3.502]\nclass = Desirable", fillcolor="#399de5"] ;
326 -> 327 ;
328 [label="Equality of W2E and E2W at index 4 <= 0.5\ngini = 0.304\nsamples = 38\nvalue = [55.817, 12.84]\nclass = Undesirable", fillcolor="#eb9e67"] ;
326 -> 328 ;
329 [label="gini = 0.0\nsamples = 5\nvalue = [0.0, 2.918]\nclass = Desirable", fillcolor="#399de5"] ;
328 -> 329 ;
330 [label="Equality of E2TL and S2N at index 1 <= 0.5\ngini = 0.256\nsamples = 33\nvalue = [55.817, 9.922]\nclass = Undesirable", fillcolor="#ea975c"] ;
328 -> 330 ;
331 [label="gini = 0.46\nsamples = 13\nvalue = [10.466, 5.837]\nclass = Undesirable", fillcolor="#f3c7a7"] ;
330 -> 331 ;
332 [label="gini = 0.152\nsamples = 20\nvalue = [45.351, 4.086]\nclass = Undesirable", fillcolor="#e78c4b"] ;
330 -> 332 ;
333 [label="Equality of N2S and S2TL at index 0 <= 0.5\ngini = 0.193\nsamples = 138\nvalue = [279.084, 33.852]\nclass = Undesirable", fillcolor="#e89051"] ;
325 -> 333 ;
334 [label="Value of index 4 at category W2TL <= 0.5\ngini = 0.135\nsamples = 75\nvalue = [177.916, 14.008]\nclass = Undesirable", fillcolor="#e78b49"] ;
333 -> 334 ;
335 [label="Equality of E2W and S2N at index 7 <= 0.5\ngini = 0.13\nsamples = 74\nvalue = [177.916, 13.424]\nclass = Undesirable", fillcolor="#e78b48"] ;
334 -> 335 ;
336 [label="gini = 0.053\nsamples = 28\nvalue = [83.725, 2.335]\nclass = Undesirable", fillcolor="#e6853f"] ;
335 -> 336 ;
337 [label="gini = 0.188\nsamples = 46\nvalue = [94.191, 11.089]\nclass = Undesirable", fillcolor="#e89050"] ;
335 -> 337 ;
338 [label="gini = -0.0\nsamples = 1\nvalue = [0.0, 0.584]\nclass = Desirable", fillcolor="#399de5"] ;
334 -> 338 ;
339 [label="Equality of E2TL and S2N at index 3 <= 0.5\ngini = 0.274\nsamples = 63\nvalue = [101.168, 19.844]\nclass = Undesirable", fillcolor="#ea9a60"] ;
333 -> 339 ;
340 [label="gini = 0.0\nsamples = 4\nvalue = [0.0, 2.335]\nclass = Desirable", fillcolor="#399de5"] ;
339 -> 340 ;
341 [label="Value of index 1 at category ACT <= 0.5\ngini = 0.252\nsamples = 59\nvalue = [101.168, 17.51]\nclass = Undesirable", fillcolor="#e9975b"] ;
339 -> 341 ;
342 [label="gini = 0.149\nsamples = 29\nvalue = [66.282, 5.837]\nclass = Undesirable", fillcolor="#e78c4a"] ;
341 -> 342 ;
343 [label="gini = 0.376\nsamples = 30\nvalue = [34.886, 11.673]\nclass = Undesirable", fillcolor="#eeab7b"] ;
341 -> 343 ;
344 [label="Equality of S2N and S2TL at index 0 <= 0.5\ngini = 0.0\nsamples = 4\nvalue = [0.0, 2.335]\nclass = Desirable", fillcolor="#399de5"] ;
324 -> 344 ;
345 [label="gini = 0.0\nsamples = 2\nvalue = [0.0, 1.167]\nclass = Desirable", fillcolor="#399de5"] ;
344 -> 345 ;
346 [label="gini = 0.0\nsamples = 2\nvalue = [0.0, 1.167]\nclass = Desirable", fillcolor="#399de5"] ;
344 -> 346 ;
347 [label="Value of index 0 at category N2TL <= 0.5\ngini = 0.19\nsamples = 154\nvalue = [313.97, 37.354]\nclass = Undesirable", fillcolor="#e89051"] ;
249 -> 347 ;
348 [label="Equality of E2TL and S2TL at index 7 <= 0.5\ngini = 0.01\nsamples = 34\nvalue = [115.122, 0.584]\nclass = Undesirable", fillcolor="#e5823a"] ;
347 -> 348 ;
349 [label="gini = 0.0\nsamples = 1\nvalue = [0.0, 0.584]\nclass = Desirable", fillcolor="#399de5"] ;
348 -> 349 ;
350 [label="gini = 0.0\nsamples = 33\nvalue = [115.122, 0.0]\nclass = Undesirable", fillcolor="#e58139"] ;
348 -> 350 ;
351 [label="Equality of N2S and N2TL at index 6 <= 0.5\ngini = 0.263\nsamples = 120\nvalue = [198.847, 36.77]\nclass = Undesirable", fillcolor="#ea985e"] ;
347 -> 351 ;
352 [label="Equality of W2E and E2TL at index 6 <= 0.5\ngini = 0.476\nsamples = 29\nvalue = [20.931, 13.424]\nclass = Undesirable", fillcolor="#f6d2b8"] ;
351 -> 352 ;
353 [label="gini = 0.0\nsamples = 9\nvalue = [0.0, 5.253]\nclass = Desirable", fillcolor="#399de5"] ;
352 -> 353 ;
354 [label="Equality of W2TL and E2W at index 7 <= 0.5\ngini = 0.404\nsamples = 20\nvalue = [20.931, 8.171]\nclass = Undesirable", fillcolor="#efb286"] ;
352 -> 354 ;
355 [label="gini = 0.0\nsamples = 6\nvalue = [0.0, 3.502]\nclass = Desirable", fillcolor="#399de5"] ;
354 -> 355 ;
356 [label="Equality of W2E and E2W at index 3 <= 0.5\ngini = 0.298\nsamples = 14\nvalue = [20.931, 4.669]\nclass = Undesirable", fillcolor="#eb9d65"] ;
354 -> 356 ;
357 [label="gini = 0.0\nsamples = 4\nvalue = [0.0, 2.335]\nclass = Desirable", fillcolor="#399de5"] ;
356 -> 357 ;
358 [label="Equality of E2W and S2N at index 0 <= 0.5\ngini = 0.181\nsamples = 10\nvalue = [20.931, 2.335]\nclass = Undesirable", fillcolor="#e88f4f"] ;
356 -> 358 ;
359 [label="Value of index 2 at category E2TL <= 0.5\ngini = 0.1\nsamples = 8\nvalue = [20.931, 1.167]\nclass = Undesirable", fillcolor="#e68844"] ;
358 -> 359 ;
360 [label="Value of index 7 at category S2TL <= 0.5\ngini = 0.053\nsamples = 7\nvalue = [20.931, 0.584]\nclass = Undesirable", fillcolor="#e6853f"] ;
359 -> 360 ;
361 [label="gini = 0.0\nsamples = 6\nvalue = [20.931, 0.0]\nclass = Undesirable", fillcolor="#e58139"] ;
360 -> 361 ;
362 [label="gini = -0.0\nsamples = 1\nvalue = [0.0, 0.584]\nclass = Desirable", fillcolor="#399de5"] ;
360 -> 362 ;
363 [label="gini = -0.0\nsamples = 1\nvalue = [0.0, 0.584]\nclass = Desirable", fillcolor="#399de5"] ;
359 -> 363 ;
364 [label="gini = -0.0\nsamples = 2\nvalue = [0.0, 1.167]\nclass = Desirable", fillcolor="#399de5"] ;
358 -> 364 ;
365 [label="Equality of E2W and E2TL at index 0 <= 0.5\ngini = 0.205\nsamples = 91\nvalue = [177.916, 23.346]\nclass = Undesirable", fillcolor="#e89253"] ;
351 -> 365 ;
366 [label="Equality of W2TL and S2N at index 0 <= 0.5\ngini = 0.316\nsamples = 37\nvalue = [52.328, 12.84]\nclass = Undesirable", fillcolor="#eba06a"] ;
365 -> 366 ;
367 [label="Equality of N2S and S2N at index 3 <= 0.5\ngini = 0.205\nsamples = 25\nvalue = [48.84, 6.42]\nclass = Undesirable", fillcolor="#e89253"] ;
366 -> 367 ;
368 [label="gini = 0.0\nsamples = 3\nvalue = [0.0, 1.751]\nclass = Desirable", fillcolor="#399de5"] ;
367 -> 368 ;
369 [label="Equality of E2W and N2TL at index 5 <= 0.5\ngini = 0.159\nsamples = 22\nvalue = [48.84, 4.669]\nclass = Undesirable", fillcolor="#e78d4c"] ;
367 -> 369 ;
370 [label="gini = 0.0\nsamples = 2\nvalue = [0.0, 1.167]\nclass = Desirable", fillcolor="#399de5"] ;
369 -> 370 ;
371 [label="Value of index 1 at category W2E <= 0.5\ngini = 0.125\nsamples = 20\nvalue = [48.84, 3.502]\nclass = Undesirable", fillcolor="#e78a47"] ;
369 -> 371 ;
372 [label="Equality of W2TL and E2TL at index 1 <= 0.5\ngini = 0.106\nsamples = 19\nvalue = [48.84, 2.918]\nclass = Undesirable", fillcolor="#e78945"] ;
371 -> 372 ;
373 [label="gini = 0.036\nsamples = 10\nvalue = [31.397, 0.584]\nclass = Undesirable", fillcolor="#e5833d"] ;
372 -> 373 ;
374 [label="gini = 0.208\nsamples = 9\nvalue = [17.443, 2.335]\nclass = Undesirable", fillcolor="#e89254"] ;
372 -> 374 ;
375 [label="gini = -0.0\nsamples = 1\nvalue = [0.0, 0.584]\nclass = Desirable", fillcolor="#399de5"] ;
371 -> 375 ;
376 [label="Value of index 2 at category N2TL <= 0.5\ngini = 0.456\nsamples = 12\nvalue = [3.489, 6.42]\nclass = Desirable", fillcolor="#a5d2f3"] ;
366 -> 376 ;
377 [label="gini = 0.0\nsamples = 11\nvalue = [0.0, 6.42]\nclass = Desirable", fillcolor="#399de5"] ;
376 -> 377 ;
378 [label="gini = -0.0\nsamples = 1\nvalue = [3.489, 0.0]\nclass = Undesirable", fillcolor="#e58139"] ;
376 -> 378 ;
379 [label="Value of index 5 at category N2TL <= 0.5\ngini = 0.142\nsamples = 54\nvalue = [125.588, 10.506]\nclass = Undesirable", fillcolor="#e78c4a"] ;
365 -> 379 ;
380 [label="Value of index 4 at category S2TL <= 0.5\ngini = 0.122\nsamples = 51\nvalue = [125.588, 8.755]\nclass = Undesirable", fillcolor="#e78a47"] ;
379 -> 380 ;
381 [label="Equality of W2E and E2TL at index 7 <= 0.5\ngini = 0.115\nsamples = 50\nvalue = [125.588, 8.171]\nclass = Undesirable", fillcolor="#e78946"] ;
380 -> 381 ;
382 [label="Equality of W2TL and S2TL at index 7 <= 0.5\ngini = 0.246\nsamples = 14\nvalue = [24.42, 4.086]\nclass = Undesirable", fillcolor="#e9965a"] ;
381 -> 382 ;
383 [label="gini = 0.0\nsamples = 3\nvalue = [0.0, 1.751]\nclass = Desirable", fillcolor="#399de5"] ;
382 -> 383 ;
384 [label="Value of index 5 at category S2N <= 0.5\ngini = 0.159\nsamples = 11\nvalue = [24.42, 2.335]\nclass = Undesirable", fillcolor="#e78d4c"] ;
382 -> 384 ;
385 [label="gini = 0.125\nsamples = 10\nvalue = [24.42, 1.751]\nclass = Undesirable", fillcolor="#e78a47"] ;
384 -> 385 ;
386 [label="gini = -0.0\nsamples = 1\nvalue = [0.0, 0.584]\nclass = Desirable", fillcolor="#399de5"] ;
384 -> 386 ;
387 [label="Equality of W2E and N2TL at index 1 <= 0.5\ngini = 0.075\nsamples = 36\nvalue = [101.168, 4.086]\nclass = Undesirable", fillcolor="#e68641"] ;
381 -> 387 ;
388 [label="Value of index 7 at category E2W <= 0.5\ngini = 0.02\nsamples = 17\nvalue = [55.817, 0.584]\nclass = Undesirable", fillcolor="#e5823b"] ;
387 -> 388 ;
389 [label="gini = 0.0\nsamples = 16\nvalue = [55.817, 0.0]\nclass = Undesirable", fillcolor="#e58139"] ;
388 -> 389 ;
390 [label="gini = -0.0\nsamples = 1\nvalue = [0.0, 0.584]\nclass = Desirable", fillcolor="#399de5"] ;
388 -> 390 ;
391 [label="Equality of W2E and S2N at index 2 <= 0.5\ngini = 0.133\nsamples = 19\nvalue = [45.351, 3.502]\nclass = Undesirable", fillcolor="#e78b48"] ;
387 -> 391 ;
392 [label="gini = 0.0\nsamples = 8\nvalue = [27.908, 0.0]\nclass = Undesirable", fillcolor="#e58139"] ;
391 -> 392 ;
393 [label="gini = 0.278\nsamples = 11\nvalue = [17.443, 3.502]\nclass = Undesirable", fillcolor="#ea9a61"] ;
391 -> 393 ;
394 [label="gini = -0.0\nsamples = 1\nvalue = [0.0, 0.584]\nclass = Desirable", fillcolor="#399de5"] ;
380 -> 394 ;
395 [label="gini = -0.0\nsamples = 3\nvalue = [0.0, 1.751]\nclass = Desirable", fillcolor="#399de5"] ;
379 -> 395 ;
396 [label="Value of index 3 at category E2W <= 0.5\ngini = 0.407\nsamples = 16\nvalue = [3.489, 8.755]\nclass = Desirable", fillcolor="#88c4ef"] ;
248 -> 396 ;
397 [label="gini = 0.0\nsamples = 14\nvalue = [0.0, 8.171]\nclass = Desirable", fillcolor="#399de5"] ;
396 -> 397 ;
398 [label="Equality of E2W and S2TL at index 0 <= 0.5\ngini = 0.246\nsamples = 2\nvalue = [3.489, 0.584]\nclass = Undesirable", fillcolor="#e9965a"] ;
396 -> 398 ;
399 [label="gini = 0.0\nsamples = 1\nvalue = [3.489, 0.0]\nclass = Undesirable", fillcolor="#e58139"] ;
398 -> 399 ;
400 [label="gini = 0.0\nsamples = 1\nvalue = [0.0, 0.584]\nclass = Desirable", fillcolor="#399de5"] ;
398 -> 400 ;
401 [label="Equality of W2TL and N2TL at index 1 <= 0.5\ngini = 0.037\nsamples = 3601\nvalue = [11274.999, 215.368]\nclass = Undesirable", fillcolor="#e5833d"] ;
247 -> 401 ;
402 [label="Value of index 0 at category W2TL <= 0.5\ngini = 0.449\nsamples = 63\nvalue = [17.443, 33.852]\nclass = Desirable", fillcolor="#9fcff2"] ;
401 -> 402 ;
403 [label="Value of index 0 at category E2TL <= 0.5\ngini = 0.48\nsamples = 25\nvalue = [17.443, 11.673]\nclass = Undesirable", fillcolor="#f6d5be"] ;
402 -> 403 ;
404 [label="Equality of S2N and S2TL at index 3 <= 0.5\ngini = 0.198\nsamples = 7\nvalue = [13.954, 1.751]\nclass = Undesirable", fillcolor="#e89152"] ;
403 -> 404 ;
405 [label="gini = 0.0\nsamples = 3\nvalue = [0.0, 1.751]\nclass = Desirable", fillcolor="#399de5"] ;
404 -> 405 ;
406 [label="gini = -0.0\nsamples = 4\nvalue = [13.954, 0.0]\nclass = Undesirable", fillcolor="#e58139"] ;
404 -> 406 ;
407 [label="Value of index 7 at category N2TL <= 0.5\ngini = 0.385\nsamples = 18\nvalue = [3.489, 9.922]\nclass = Desirable", fillcolor="#7fbfee"] ;
403 -> 407 ;
408 [label="gini = 0.0\nsamples = 17\nvalue = [0.0, 9.922]\nclass = Desirable", fillcolor="#399de5"] ;
407 -> 408 ;
409 [label="gini = -0.0\nsamples = 1\nvalue = [3.489, 0.0]\nclass = Undesirable", fillcolor="#e58139"] ;
407 -> 409 ;
410 [label="gini = 0.0\nsamples = 38\nvalue = [0.0, 22.179]\nclass = Desirable", fillcolor="#399de5"] ;
402 -> 410 ;
411 [label="Value of index 0 at category E2W <= 0.5\ngini = 0.031\nsamples = 3538\nvalue = [11257.557, 181.516]\nclass = Undesirable", fillcolor="#e5833c"] ;
401 -> 411 ;
412 [label="Value of index 0 at category N2S <= 0.5\ngini = 0.074\nsamples = 1345\nvalue = [3788.567, 151.166]\nclass = Undesirable", fillcolor="#e68641"] ;
411 -> 412 ;
413 [label="Equality of W2E and S2N at index 1 <= 0.5\ngini = 0.5\nsamples = 234\nvalue = [122.099, 116.147]\nclass = Undesirable", fillcolor="#fef9f5"] ;
412 -> 413 ;
414 [label="Equality of E2W and S2N at index 3 <= 0.5\ngini = 0.041\nsamples = 35\nvalue = [108.145, 2.335]\nclass = Undesirable", fillcolor="#e6843d"] ;
413 -> 414 ;
415 [label="gini = 0.0\nsamples = 1\nvalue = [0.0, 0.584]\nclass = Desirable", fillcolor="#399de5"] ;
414 -> 415 ;
416 [label="Equality of W2TL and N2TL at index 7 <= 0.5\ngini = 0.031\nsamples = 34\nvalue = [108.145, 1.751]\nclass = Undesirable", fillcolor="#e5833c"] ;
414 -> 416 ;
417 [label="gini = 0.0\nsamples = 1\nvalue = [0.0, 0.584]\nclass = Desirable", fillcolor="#399de5"] ;
416 -> 417 ;
418 [label="Value of index 2 at category E2W <= 0.5\ngini = 0.021\nsamples = 33\nvalue = [108.145, 1.167]\nclass = Undesirable", fillcolor="#e5823b"] ;
416 -> 418 ;
419 [label="Equality of W2E and S2N at index 4 <= 0.5\ngini = 0.011\nsamples = 31\nvalue = [104.657, 0.584]\nclass = Undesirable", fillcolor="#e5823a"] ;
418 -> 419 ;
420 [label="Value of index 7 at category E2W <= 0.5\ngini = 0.142\nsamples = 3\nvalue = [6.977, 0.584]\nclass = Undesirable", fillcolor="#e78c4a"] ;
419 -> 420 ;
421 [label="gini = 0.0\nsamples = 2\nvalue = [6.977, 0.0]\nclass = Undesirable", fillcolor="#e58139"] ;
420 -> 421 ;
422 [label="gini = -0.0\nsamples = 1\nvalue = [0.0, 0.584]\nclass = Desirable", fillcolor="#399de5"] ;
420 -> 422 ;
423 [label="gini = 0.0\nsamples = 28\nvalue = [97.679, 0.0]\nclass = Undesirable", fillcolor="#e58139"] ;
419 -> 423 ;
424 [label="Value of index 1 at category ACT <= 0.5\ngini = 0.246\nsamples = 2\nvalue = [3.489, 0.584]\nclass = Undesirable", fillcolor="#e9965a"] ;
418 -> 424 ;
425 [label="gini = 0.0\nsamples = 1\nvalue = [0.0, 0.584]\nclass = Desirable", fillcolor="#399de5"] ;
424 -> 425 ;
426 [label="gini = 0.0\nsamples = 1\nvalue = [3.489, 0.0]\nclass = Undesirable", fillcolor="#e58139"] ;
424 -> 426 ;
427 [label="Value of index 1 at category S2N <= 0.5\ngini = 0.195\nsamples = 199\nvalue = [13.954, 113.812]\nclass = Desirable", fillcolor="#51a9e8"] ;
413 -> 427 ;
428 [label="Equality of W2E and S2N at index 4 <= 0.5\ngini = 0.0\nsamples = 195\nvalue = [0.0, 113.812]\nclass = Desirable", fillcolor="#399de5"] ;
427 -> 428 ;
429 [label="gini = 0.0\nsamples = 7\nvalue = [0.0, 4.086]\nclass = Desirable", fillcolor="#399de5"] ;
428 -> 429 ;
430 [label="gini = 0.0\nsamples = 188\nvalue = [0.0, 109.727]\nclass = Desirable", fillcolor="#399de5"] ;
428 -> 430 ;
431 [label="Value of index 6 at category N2S <= 0.5\ngini = 0.0\nsamples = 4\nvalue = [13.954, 0.0]\nclass = Undesirable", fillcolor="#e58139"] ;
427 -> 431 ;
432 [label="gini = 0.0\nsamples = 3\nvalue = [10.466, 0.0]\nclass = Undesirable", fillcolor="#e58139"] ;
431 -> 432 ;
433 [label="gini = 0.0\nsamples = 1\nvalue = [3.489, 0.0]\nclass = Undesirable", fillcolor="#e58139"] ;
431 -> 433 ;
434 [label="Equality of E2W and S2TL at index 1 <= 0.5\ngini = 0.019\nsamples = 1111\nvalue = [3666.468, 35.019]\nclass = Undesirable", fillcolor="#e5823b"] ;
412 -> 434 ;
435 [label="Value of index 1 at category S2N <= 0.5\ngini = 0.416\nsamples = 84\nvalue = [83.725, 35.019]\nclass = Undesirable", fillcolor="#f0b68c"] ;
434 -> 435 ;
436 [label="Value of index 1 at category W2E <= 0.5\ngini = 0.277\nsamples = 62\nvalue = [6.977, 35.019]\nclass = Desirable", fillcolor="#60b1ea"] ;
435 -> 436 ;
437 [label="gini = 0.0\nsamples = 57\nvalue = [0.0, 33.268]\nclass = Desirable", fillcolor="#399de5"] ;
436 -> 437 ;
438 [label="Equality of N2TL and S2N at index 7 <= 0.5\ngini = 0.321\nsamples = 5\nvalue = [6.977, 1.751]\nclass = Undesirable", fillcolor="#eca16b"] ;
436 -> 438 ;
439 [label="gini = 0.0\nsamples = 3\nvalue = [0.0, 1.751]\nclass = Desirable", fillcolor="#399de5"] ;
438 -> 439 ;
440 [label="gini = -0.0\nsamples = 2\nvalue = [6.977, 0.0]\nclass = Undesirable", fillcolor="#e58139"] ;
438 -> 440 ;
441 [label="Equality of E2W and S2N at index 7 <= 0.5\ngini = 0.0\nsamples = 22\nvalue = [76.748, 0.0]\nclass = Undesirable", fillcolor="#e58139"] ;
435 -> 441 ;
442 [label="gini = 0.0\nsamples = 7\nvalue = [24.42, 0.0]\nclass = Undesirable", fillcolor="#e58139"] ;
441 -> 442 ;
443 [label="gini = 0.0\nsamples = 15\nvalue = [52.328, 0.0]\nclass = Undesirable", fillcolor="#e58139"] ;
441 -> 443 ;
444 [label="gini = -0.0\nsamples = 1027\nvalue = [3582.743, 0.0]\nclass = Undesirable", fillcolor="#e58139"] ;
434 -> 444 ;
445 [label="Equality of N2S and N2TL at index 1 <= 0.5\ngini = 0.008\nsamples = 2193\nvalue = [7468.989, 30.35]\nclass = Undesirable", fillcolor="#e5823a"] ;
411 -> 445 ;
446 [label="Value of index 0 at category N2S <= 0.5\ngini = 0.03\nsamples = 610\nvalue = [1946.612, 30.35]\nclass = Undesirable", fillcolor="#e5833c"] ;
445 -> 446 ;
447 [label="Equality of W2E and S2N at index 1 <= 0.5\ngini = 0.383\nsamples = 77\nvalue = [87.214, 30.35]\nclass = Undesirable", fillcolor="#eead7e"] ;
446 -> 447 ;
448 [label="Equality of W2TL and N2TL at index 6 <= 0.5\ngini = 0.055\nsamples = 27\nvalue = [80.237, 2.335]\nclass = Undesirable", fillcolor="#e6853f"] ;
447 -> 448 ;
449 [label="gini = 0.0\nsamples = 1\nvalue = [0.0, 0.584]\nclass = Desirable", fillcolor="#399de5"] ;
448 -> 449 ;
450 [label="Value of index 3 at category S2N <= 0.5\ngini = 0.042\nsamples = 26\nvalue = [80.237, 1.751]\nclass = Undesirable", fillcolor="#e6843d"] ;
448 -> 450 ;
451 [label="Equality of W2E and N2S at index 0 <= 0.5\ngini = 0.03\nsamples = 24\nvalue = [76.748, 1.167]\nclass = Undesirable", fillcolor="#e5833c"] ;
450 -> 451 ;
452 [label="Equality of W2E and W2TL at index 1 <= 0.5\ngini = 0.016\nsamples = 22\nvalue = [73.26, 0.584]\nclass = Undesirable", fillcolor="#e5823b"] ;
451 -> 452 ;
453 [label="gini = 0.0\nsamples = 18\nvalue = [62.794, 0.0]\nclass = Undesirable", fillcolor="#e58139"] ;
452 -> 453 ;
454 [label="Equality of E2TL and S2N at index 0 <= 0.5\ngini = 0.1\nsamples = 4\nvalue = [10.466, 0.584]\nclass = Undesirable", fillcolor="#e68844"] ;
452 -> 454 ;
455 [label="gini = 0.0\nsamples = 3\nvalue = [10.466, 0.0]\nclass = Undesirable", fillcolor="#e58139"] ;
454 -> 455 ;
456 [label="gini = -0.0\nsamples = 1\nvalue = [0.0, 0.584]\nclass = Desirable", fillcolor="#399de5"] ;
454 -> 456 ;
457 [label="Equality of W2E and W2TL at index 0 <= 0.5\ngini = 0.246\nsamples = 2\nvalue = [3.489, 0.584]\nclass = Undesirable", fillcolor="#e9965a"] ;
451 -> 457 ;
458 [label="gini = 0.0\nsamples = 1\nvalue = [0.0, 0.584]\nclass = Desirable", fillcolor="#399de5"] ;
457 -> 458 ;
459 [label="gini = 0.0\nsamples = 1\nvalue = [3.489, 0.0]\nclass = Undesirable", fillcolor="#e58139"] ;
457 -> 459 ;
460 [label="Equality of E2W and N2S at index 7 <= 0.5\ngini = 0.246\nsamples = 2\nvalue = [3.489, 0.584]\nclass = Undesirable", fillcolor="#e9965a"] ;
450 -> 460 ;
461 [label="gini = 0.0\nsamples = 1\nvalue = [0.0, 0.584]\nclass = Desirable", fillcolor="#399de5"] ;
460 -> 461 ;
462 [label="gini = 0.0\nsamples = 1\nvalue = [3.489, 0.0]\nclass = Undesirable", fillcolor="#e58139"] ;
460 -> 462 ;
463 [label="Value of index 1 at category W2E <= 0.5\ngini = 0.319\nsamples = 50\nvalue = [6.977, 28.015]\nclass = Desirable", fillcolor="#6ab5eb"] ;
447 -> 463 ;
464 [label="gini = 0.0\nsamples = 48\nvalue = [0.0, 28.015]\nclass = Desirable", fillcolor="#399de5"] ;
463 -> 464 ;
465 [label="gini = -0.0\nsamples = 2\nvalue = [6.977, 0.0]\nclass = Undesirable", fillcolor="#e58139"] ;
463 -> 465 ;
466 [label="Equality of E2W and S2N at index 5 <= 0.5\ngini = 0.0\nsamples = 533\nvalue = [1859.398, 0.0]\nclass = Undesirable", fillcolor="#e58139"] ;
446 -> 466 ;
467 [label="gini = 0.0\nsamples = 102\nvalue = [355.832, 0.0]\nclass = Undesirable", fillcolor="#e58139"] ;
466 -> 467 ;
468 [label="gini = 0.0\nsamples = 431\nvalue = [1503.566, 0.0]\nclass = Undesirable", fillcolor="#e58139"] ;
466 -> 468 ;
469 [label="gini = -0.0\nsamples = 1583\nvalue = [5522.377, 0.0]\nclass = Undesirable", fillcolor="#e58139"] ;
445 -> 469 ;
470 [label="Value of index 1 at category N2S <= 0.5\ngini = 0.455\nsamples = 4686\nvalue = [3879.27, 2085.974]\nclass = Undesirable", fillcolor="#f3c5a3"] ;
2 -> 470 ;
471 [label="Value of index 0 at category E2W <= 0.5\ngini = 0.14\nsamples = 3264\nvalue = [153.496, 1879.361]\nclass = Desirable", fillcolor="#49a5e7"] ;
470 -> 471 ;
472 [label="Equality of S2N and S2TL at index 1 <= 0.5\ngini = 0.465\nsamples = 197\nvalue = [153.496, 89.299]\nclass = Undesirable", fillcolor="#f4caac"] ;
471 -> 472 ;
473 [label="Equality of N2TL and S2N at index 4 <= 0.5\ngini = 0.059\nsamples = 38\nvalue = [111.634, 3.502]\nclass = Undesirable", fillcolor="#e6853f"] ;
472 -> 473 ;
474 [label="gini = 0.0\nsamples = 1\nvalue = [0.0, 0.584]\nclass = Desirable", fillcolor="#399de5"] ;
473 -> 474 ;
475 [label="Equality of E2TL and N2S at index 3 <= 0.5\ngini = 0.05\nsamples = 37\nvalue = [111.634, 2.918]\nclass = Undesirable", fillcolor="#e6843e"] ;
473 -> 475 ;
476 [label="gini = 0.0\nsamples = 1\nvalue = [0.0, 0.584]\nclass = Desirable", fillcolor="#399de5"] ;
475 -> 476 ;
477 [label="Equality of E2W and S2N at index 0 <= 0.5\ngini = 0.04\nsamples = 36\nvalue = [111.634, 2.335]\nclass = Undesirable", fillcolor="#e6843d"] ;
475 -> 477 ;
478 [label="Equality of E2TL and S2N at index 3 <= 0.5\ngini = 0.011\nsamples = 32\nvalue = [108.145, 0.584]\nclass = Undesirable", fillcolor="#e5823a"] ;
477 -> 478 ;
479 [label="Equality of W2TL and N2S at index 6 <= 0.5\ngini = 0.142\nsamples = 3\nvalue = [6.977, 0.584]\nclass = Undesirable", fillcolor="#e78c4a"] ;
478 -> 479 ;
480 [label="gini = 0.0\nsamples = 2\nvalue = [6.977, 0.0]\nclass = Undesirable", fillcolor="#e58139"] ;
479 -> 480 ;
481 [label="gini = -0.0\nsamples = 1\nvalue = [0.0, 0.584]\nclass = Desirable", fillcolor="#399de5"] ;
479 -> 481 ;
482 [label="gini = 0.0\nsamples = 29\nvalue = [101.168, 0.0]\nclass = Undesirable", fillcolor="#e58139"] ;
478 -> 482 ;
483 [label="Equality of N2TL and S2N at index 6 <= 0.5\ngini = 0.445\nsamples = 4\nvalue = [3.489, 1.751]\nclass = Undesirable", fillcolor="#f2c09c"] ;
477 -> 483 ;
484 [label="gini = 0.0\nsamples = 1\nvalue = [3.489, 0.0]\nclass = Undesirable", fillcolor="#e58139"] ;
483 -> 484 ;
485 [label="gini = 0.0\nsamples = 3\nvalue = [0.0, 1.751]\nclass = Desirable", fillcolor="#399de5"] ;
483 -> 485 ;
486 [label="Equality of W2TL and N2TL at index 1 <= 0.5\ngini = 0.441\nsamples = 159\nvalue = [41.863, 85.797]\nclass = Desirable", fillcolor="#9acdf2"] ;
472 -> 486 ;
487 [label="Value of index 1 at category W2E <= 0.5\ngini = 0.063\nsamples = 12\nvalue = [34.886, 1.167]\nclass = Undesirable", fillcolor="#e68540"] ;
486 -> 487 ;
488 [label="gini = 0.0\nsamples = 10\nvalue = [34.886, 0.0]\nclass = Undesirable", fillcolor="#e58139"] ;
487 -> 488 ;
489 [label="gini = -0.0\nsamples = 2\nvalue = [0.0, 1.167]\nclass = Desirable", fillcolor="#399de5"] ;
487 -> 489 ;
490 [label="Equality of E2TL and N2S at index 1 <= 0.5\ngini = 0.141\nsamples = 147\nvalue = [6.977, 84.63]\nclass = Desirable", fillcolor="#49a5e7"] ;
486 -> 490 ;
491 [label="gini = 0.0\nsamples = 2\nvalue = [6.977, 0.0]\nclass = Undesirable", fillcolor="#e58139"] ;
490 -> 491 ;
492 [label="Equality of E2TL and S2N at index 2 <= 0.5\ngini = 0.0\nsamples = 145\nvalue = [0.0, 84.63]\nclass = Desirable", fillcolor="#399de5"] ;
490 -> 492 ;
493 [label="gini = 0.0\nsamples = 5\nvalue = [0.0, 2.918]\nclass = Desirable", fillcolor="#399de5"] ;
492 -> 493 ;
494 [label="gini = 0.0\nsamples = 140\nvalue = [0.0, 81.711]\nclass = Desirable", fillcolor="#399de5"] ;
492 -> 494 ;
495 [label="Equality of N2S and N2TL at index 3 <= 0.5\ngini = 0.0\nsamples = 3067\nvalue = [0.0, 1790.062]\nclass = Desirable", fillcolor="#399de5"] ;
471 -> 495 ;
496 [label="gini = 0.0\nsamples = 125\nvalue = [0.0, 72.957]\nclass = Desirable", fillcolor="#399de5"] ;
495 -> 496 ;
497 [label="gini = 0.0\nsamples = 2942\nvalue = [0.0, 1717.106]\nclass = Desirable", fillcolor="#399de5"] ;
495 -> 497 ;
498 [label="Equality of W2E and E2W at index 1 <= 0.5\ngini = 0.1\nsamples = 1422\nvalue = [3725.773, 206.613]\nclass = Undesirable", fillcolor="#e68844"] ;
470 -> 498 ;
499 [label="Value of index 0 at category W2E <= 0.5\ngini = 0.49\nsamples = 324\nvalue = [205.825, 154.668]\nclass = Undesirable", fillcolor="#f9e0ce"] ;
498 -> 499 ;
500 [label="Equality of W2E and N2S at index 0 <= 0.5\ngini = 0.033\nsamples = 65\nvalue = [205.825, 3.502]\nclass = Undesirable", fillcolor="#e5833c"] ;
499 -> 500 ;
501 [label="gini = 0.0\nsamples = 57\nvalue = [198.847, 0.0]\nclass = Undesirable", fillcolor="#e58139"] ;
500 -> 501 ;
502 [label="Equality of W2TL and S2N at index 0 <= 0.5\ngini = 0.445\nsamples = 8\nvalue = [6.977, 3.502]\nclass = Undesirable", fillcolor="#f2c09c"] ;
500 -> 502 ;
503 [label="gini = 0.0\nsamples = 2\nvalue = [6.977, 0.0]\nclass = Undesirable", fillcolor="#e58139"] ;
502 -> 503 ;
504 [label="gini = -0.0\nsamples = 6\nvalue = [0.0, 3.502]\nclass = Desirable", fillcolor="#399de5"] ;
502 -> 504 ;
505 [label="Equality of W2TL and N2TL at index 6 <= 0.5\ngini = 0.0\nsamples = 259\nvalue = [0.0, 151.166]\nclass = Desirable", fillcolor="#399de5"] ;
499 -> 505 ;
506 [label="gini = 0.0\nsamples = 21\nvalue = [0.0, 12.257]\nclass = Desirable", fillcolor="#399de5"] ;
505 -> 506 ;
507 [label="gini = 0.0\nsamples = 238\nvalue = [0.0, 138.909]\nclass = Desirable", fillcolor="#399de5"] ;
505 -> 507 ;
508 [label="Value of index 0 at category N2S <= 0.5\ngini = 0.029\nsamples = 1098\nvalue = [3519.949, 51.945]\nclass = Undesirable", fillcolor="#e5833c"] ;
498 -> 508 ;
509 [label="Equality of W2TL and S2N at index 1 <= 0.5\ngini = 0.481\nsamples = 111\nvalue = [76.748, 51.945]\nclass = Undesirable", fillcolor="#f7d6bf"] ;
508 -> 509 ;
510 [label="Equality of W2TL and S2TL at index 7 <= 0.5\ngini = 0.067\nsamples = 17\nvalue = [48.84, 1.751]\nclass = Undesirable", fillcolor="#e68640"] ;
509 -> 510 ;
511 [label="gini = 0.0\nsamples = 2\nvalue = [0.0, 1.167]\nclass = Desirable", fillcolor="#399de5"] ;
510 -> 511 ;
512 [label="Value of index 3 at category W2E <= 0.5\ngini = 0.023\nsamples = 15\nvalue = [48.84, 0.584]\nclass = Undesirable", fillcolor="#e5833b"] ;
510 -> 512 ;
513 [label="gini = 0.0\nsamples = 14\nvalue = [48.84, 0.0]\nclass = Undesirable", fillcolor="#e58139"] ;
512 -> 513 ;
514 [label="gini = -0.0\nsamples = 1\nvalue = [0.0, 0.584]\nclass = Desirable", fillcolor="#399de5"] ;
512 -> 514 ;
515 [label="Equality of N2TL and S2TL at index 1 <= 0.5\ngini = 0.459\nsamples = 94\nvalue = [27.908, 50.194]\nclass = Desirable", fillcolor="#a7d3f3"] ;
509 -> 515 ;
516 [label="Equality of N2S and S2TL at index 0 <= 0.5\ngini = 0.053\nsamples = 7\nvalue = [20.931, 0.584]\nclass = Undesirable", fillcolor="#e6853f"] ;
515 -> 516 ;
517 [label="gini = 0.0\nsamples = 5\nvalue = [17.443, 0.0]\nclass = Undesirable", fillcolor="#e58139"] ;
516 -> 517 ;
518 [label="Equality of N2S and S2TL at index 6 <= 0.5\ngini = 0.246\nsamples = 2\nvalue = [3.489, 0.584]\nclass = Undesirable", fillcolor="#e9965a"] ;
516 -> 518 ;
519 [label="gini = 0.0\nsamples = 1\nvalue = [3.489, 0.0]\nclass = Undesirable", fillcolor="#e58139"] ;
518 -> 519 ;
520 [label="gini = 0.0\nsamples = 1\nvalue = [0.0, 0.584]\nclass = Desirable", fillcolor="#399de5"] ;
518 -> 520 ;
521 [label="Equality of E2TL and N2S at index 1 <= 0.5\ngini = 0.216\nsamples = 87\nvalue = [6.977, 49.61]\nclass = Desirable", fillcolor="#55abe9"] ;
515 -> 521 ;
522 [label="gini = 0.0\nsamples = 85\nvalue = [0.0, 49.61]\nclass = Desirable", fillcolor="#399de5"] ;
521 -> 522 ;
523 [label="gini = -0.0\nsamples = 2\nvalue = [6.977, 0.0]\nclass = Undesirable", fillcolor="#e58139"] ;
521 -> 523 ;
524 [label="gini = -0.0\nsamples = 987\nvalue = [3443.201, 0.0]\nclass = Undesirable", fillcolor="#e58139"] ;
508 -> 524 ;
525 [label="Value of index 1 at category E2W <= 0.5\ngini = 0.47\nsamples = 4681\nvalue = [3526.926, 2142.005]\nclass = Undesirable", fillcolor="#f5ceb1"] ;
1 -> 525 ;
526 [label="Value of index 0 at category N2S <= 0.5\ngini = 0.128\nsamples = 3294\nvalue = [139.542, 1899.205]\nclass = Desirable", fillcolor="#48a4e7"] ;
525 -> 526 ;
527 [label="Equality of W2E and E2TL at index 1 <= 0.5\ngini = 0.477\nsamples = 194\nvalue = [139.542, 89.882]\nclass = Undesirable", fillcolor="#f6d2b9"] ;
526 -> 527 ;
528 [label="Equality of W2TL and E2W at index 2 <= 0.5\ngini = 0.1\nsamples = 40\nvalue = [104.657, 5.837]\nclass = Undesirable", fillcolor="#e68844"] ;
527 -> 528 ;
529 [label="gini = 0.0\nsamples = 2\nvalue = [0.0, 1.167]\nclass = Desirable", fillcolor="#399de5"] ;
528 -> 529 ;
530 [label="Value of index 0 at category S2N <= 0.5\ngini = 0.082\nsamples = 38\nvalue = [104.657, 4.669]\nclass = Undesirable", fillcolor="#e68742"] ;
528 -> 530 ;
531 [label="Value of index 0 at category E2W <= 0.5\ngini = 0.028\nsamples = 25\nvalue = [80.237, 1.167]\nclass = Undesirable", fillcolor="#e5833c"] ;
530 -> 531 ;
532 [label="Equality of W2TL and E2TL at index 1 <= 0.5\ngini = 0.181\nsamples = 5\nvalue = [10.466, 1.167]\nclass = Undesirable", fillcolor="#e88f4f"] ;
531 -> 532 ;
533 [label="gini = 0.0\nsamples = 2\nvalue = [0.0, 1.167]\nclass = Desirable", fillcolor="#399de5"] ;
532 -> 533 ;
534 [label="gini = -0.0\nsamples = 3\nvalue = [10.466, 0.0]\nclass = Undesirable", fillcolor="#e58139"] ;
532 -> 534 ;
535 [label="Equality of W2E and E2TL at index 3 <= 0.5\ngini = 0.0\nsamples = 20\nvalue = [69.771, 0.0]\nclass = Undesirable", fillcolor="#e58139"] ;
531 -> 535 ;
536 [label="gini = 0.0\nsamples = 4\nvalue = [13.954, 0.0]\nclass = Undesirable", fillcolor="#e58139"] ;
535 -> 536 ;
537 [label="gini = 0.0\nsamples = 16\nvalue = [55.817, 0.0]\nclass = Undesirable", fillcolor="#e58139"] ;
535 -> 537 ;
538 [label="Equality of E2W and S2N at index 1 <= 0.5\ngini = 0.219\nsamples = 13\nvalue = [24.42, 3.502]\nclass = Undesirable", fillcolor="#e99355"] ;
530 -> 538 ;
539 [label="gini = 0.0\nsamples = 5\nvalue = [0.0, 2.918]\nclass = Desirable", fillcolor="#399de5"] ;
538 -> 539 ;
540 [label="Equality of W2TL and E2W at index 5 <= 0.5\ngini = 0.046\nsamples = 8\nvalue = [24.42, 0.584]\nclass = Undesirable", fillcolor="#e6843e"] ;
538 -> 540 ;
541 [label="gini = 0.0\nsamples = 1\nvalue = [0.0, 0.584]\nclass = Desirable", fillcolor="#399de5"] ;
540 -> 541 ;
542 [label="gini = 0.0\nsamples = 7\nvalue = [24.42, 0.0]\nclass = Undesirable", fillcolor="#e58139"] ;
540 -> 542 ;
543 [label="Equality of W2E and W2TL at index 1 <= 0.5\ngini = 0.415\nsamples = 154\nvalue = [34.886, 84.046]\nclass = Desirable", fillcolor="#8bc6f0"] ;
527 -> 543 ;
544 [label="Value of index 4 at category W2E <= 0.5\ngini = 0.04\nsamples = 9\nvalue = [27.908, 0.584]\nclass = Undesirable", fillcolor="#e6843d"] ;
543 -> 544 ;
545 [label="gini = 0.0\nsamples = 8\nvalue = [27.908, 0.0]\nclass = Undesirable", fillcolor="#e58139"] ;
544 -> 545 ;
546 [label="gini = -0.0\nsamples = 1\nvalue = [0.0, 0.584]\nclass = Desirable", fillcolor="#399de5"] ;
544 -> 546 ;
547 [label="Equality of W2E and N2TL at index 1 <= 0.5\ngini = 0.142\nsamples = 145\nvalue = [6.977, 83.462]\nclass = Desirable", fillcolor="#4aa5e7"] ;
543 -> 547 ;
548 [label="Equality of W2E and E2TL at index 0 <= 0.5\ngini = 0.142\nsamples = 3\nvalue = [6.977, 0.584]\nclass = Undesirable", fillcolor="#e78c4a"] ;
547 -> 548 ;
549 [label="gini = 0.0\nsamples = 2\nvalue = [6.977, 0.0]\nclass = Undesirable", fillcolor="#e58139"] ;
548 -> 549 ;
550 [label="gini = -0.0\nsamples = 1\nvalue = [0.0, 0.584]\nclass = Desirable", fillcolor="#399de5"] ;
548 -> 550 ;
551 [label="Equality of W2TL and S2TL at index 1 <= 0.5\ngini = 0.0\nsamples = 142\nvalue = [0.0, 82.879]\nclass = Desirable", fillcolor="#399de5"] ;
547 -> 551 ;
552 [label="gini = 0.0\nsamples = 2\nvalue = [0.0, 1.167]\nclass = Desirable", fillcolor="#399de5"] ;
551 -> 552 ;
553 [label="gini = 0.0\nsamples = 140\nvalue = [0.0, 81.711]\nclass = Desirable", fillcolor="#399de5"] ;
551 -> 553 ;
554 [label="gini = 0.0\nsamples = 3100\nvalue = [0.0, 1809.323]\nclass = Desirable", fillcolor="#399de5"] ;
526 -> 554 ;
555 [label="Equality of N2S and S2N at index 1 <= 0.5\ngini = 0.125\nsamples = 1387\nvalue = [3387.384, 242.799]\nclass = Undesirable", fillcolor="#e78a47"] ;
525 -> 555 ;
556 [label="Value of index 0 at category S2N <= 0.5\ngini = 0.497\nsamples = 364\nvalue = [205.825, 178.014]\nclass = Undesirable", fillcolor="#fbeee4"] ;
555 -> 556 ;
557 [label="Value of index 0 at category E2W <= 0.5\ngini = 0.011\nsamples = 61\nvalue = [205.825, 1.167]\nclass = Undesirable", fillcolor="#e5823a"] ;
556 -> 557 ;
558 [label="Value of index 1 at category W2E <= 0.5\ngini = 0.376\nsamples = 3\nvalue = [3.489, 1.167]\nclass = Undesirable", fillcolor="#eeab7b"] ;
557 -> 558 ;
559 [label="Equality of E2TL and N2S at index 7 <= 0.5\ngini = 0.0\nsamples = 2\nvalue = [0.0, 1.167]\nclass = Desirable", fillcolor="#399de5"] ;
558 -> 559 ;
560 [label="gini = 0.0\nsamples = 1\nvalue = [0.0, 0.584]\nclass = Desirable", fillcolor="#399de5"] ;
559 -> 560 ;
561 [label="gini = 0.0\nsamples = 1\nvalue = [0.0, 0.584]\nclass = Desirable", fillcolor="#399de5"] ;
559 -> 561 ;
562 [label="gini = 0.0\nsamples = 1\nvalue = [3.489, 0.0]\nclass = Undesirable", fillcolor="#e58139"] ;
558 -> 562 ;
563 [label="gini = -0.0\nsamples = 58\nvalue = [202.336, 0.0]\nclass = Undesirable", fillcolor="#e58139"] ;
557 -> 563 ;
564 [label="Value of index 7 at category S2TL <= 0.5\ngini = 0.0\nsamples = 303\nvalue = [0.0, 176.847]\nclass = Desirable", fillcolor="#399de5"] ;
556 -> 564 ;
565 [label="gini = 0.0\nsamples = 289\nvalue = [0.0, 168.676]\nclass = Desirable", fillcolor="#399de5"] ;
564 -> 565 ;
566 [label="gini = 0.0\nsamples = 14\nvalue = [0.0, 8.171]\nclass = Desirable", fillcolor="#399de5"] ;
564 -> 566 ;
567 [label="Value of index 0 at category E2W <= 0.5\ngini = 0.039\nsamples = 1023\nvalue = [3181.559, 64.785]\nclass = Undesirable", fillcolor="#e6843d"] ;
555 -> 567 ;
568 [label="Equality of W2TL and N2TL at index 1 <= 0.5\ngini = 0.477\nsamples = 123\nvalue = [41.863, 64.785]\nclass = Desirable", fillcolor="#b9dcf6"] ;
567 -> 568 ;
569 [label="Value of index 3 at category S2N <= 0.5\ngini = 0.046\nsamples = 8\nvalue = [24.42, 0.584]\nclass = Undesirable", fillcolor="#e6843e"] ;
568 -> 569 ;
570 [label="gini = 0.0\nsamples = 7\nvalue = [24.42, 0.0]\nclass = Undesirable", fillcolor="#e58139"] ;
569 -> 570 ;
571 [label="gini = -0.0\nsamples = 1\nvalue = [0.0, 0.584]\nclass = Desirable", fillcolor="#399de5"] ;
569 -> 571 ;
572 [label="Equality of E2TL and S2TL at index 1 <= 0.5\ngini = 0.336\nsamples = 115\nvalue = [17.443, 64.202]\nclass = Desirable", fillcolor="#6fb8ec"] ;
568 -> 572 ;
573 [label="Value of index 0 at category S2TL <= 0.5\ngini = 0.142\nsamples = 6\nvalue = [13.954, 1.167]\nclass = Undesirable", fillcolor="#e78c4a"] ;
572 -> 573 ;
574 [label="gini = 0.0\nsamples = 2\nvalue = [0.0, 1.167]\nclass = Desirable", fillcolor="#399de5"] ;
573 -> 574 ;
575 [label="gini = -0.0\nsamples = 4\nvalue = [13.954, 0.0]\nclass = Undesirable", fillcolor="#e58139"] ;
573 -> 575 ;
576 [label="Value of index 1 at category W2E <= 0.5\ngini = 0.099\nsamples = 109\nvalue = [3.489, 63.034]\nclass = Desirable", fillcolor="#44a2e6"] ;
572 -> 576 ;
577 [label="Equality of W2E and S2TL at index 3 <= 0.5\ngini = 0.0\nsamples = 104\nvalue = [0.0, 60.7]\nclass = Desirable", fillcolor="#399de5"] ;
576 -> 577 ;
578 [label="gini = 0.0\nsamples = 4\nvalue = [0.0, 2.335]\nclass = Desirable", fillcolor="#399de5"] ;
577 -> 578 ;
579 [label="gini = 0.0\nsamples = 100\nvalue = [0.0, 58.365]\nclass = Desirable", fillcolor="#399de5"] ;
577 -> 579 ;
580 [label="Equality of W2E and E2TL at index 0 <= 0.5\ngini = 0.48\nsamples = 5\nvalue = [3.489, 2.335]\nclass = Undesirable", fillcolor="#f6d5be"] ;
576 -> 580 ;
581 [label="gini = 0.0\nsamples = 1\nvalue = [3.489, 0.0]\nclass = Undesirable", fillcolor="#e58139"] ;
580 -> 581 ;
582 [label="gini = -0.0\nsamples = 4\nvalue = [0.0, 2.335]\nclass = Desirable", fillcolor="#399de5"] ;
580 -> 582 ;
583 [label="gini = -0.0\nsamples = 900\nvalue = [3139.697, 0.0]\nclass = Undesirable", fillcolor="#e58139"] ;
567 -> 583 ;
584 [label="Equality of W2E and S2N at index 1 <= 0.5\ngini = 0.446\nsamples = 59459\nvalue = [16197.346, 31993.499]\nclass = Desirable", fillcolor="#9dcff2"] ;
0 -> 584 [labeldistance=2.5, labelangle=-45, headlabel="False"] ;
585 [label="Value of index 2 at category ACT <= 0.5\ngini = 0.333\nsamples = 7227\nvalue = [9705.151, 2594.336]\nclass = Undesirable", fillcolor="#eca36e"] ;
584 -> 585 ;
586 [label="Value of index 0 at category ACT <= 0.5\ngini = 0.268\nsamples = 4921\nvalue = [8051.577, 1525.084]\nclass = Undesirable", fillcolor="#ea995f"] ;
585 -> 586 ;
587 [label="Equality of E2TL and S2TL at index 1 <= 0.5\ngini = 0.133\nsamples = 2634\nvalue = [6293.347, 484.432]\nclass = Undesirable", fillcolor="#e78b48"] ;
586 -> 587 ;
588 [label="Value of index 1 at category E2W <= 0.5\ngini = 0.399\nsamples = 435\nvalue = [463.977, 176.263]\nclass = Undesirable", fillcolor="#efb184"] ;
587 -> 588 ;
589 [label="Equality of E2W and S2N at index 7 <= 0.5\ngini = 0.43\nsamples = 358\nvalue = [334.901, 152.917]\nclass = Undesirable", fillcolor="#f1bb93"] ;
588 -> 589 ;
590 [label="Value of index 3 at category ACT <= 0.5\ngini = 0.489\nsamples = 147\nvalue = [94.191, 70.038]\nclass = Undesirable", fillcolor="#f8dfcc"] ;
589 -> 590 ;
591 [label="Equality of E2W and E2TL at index 1 <= 0.5\ngini = 0.423\nsamples = 83\nvalue = [80.237, 35.019]\nclass = Undesirable", fillcolor="#f0b88f"] ;
590 -> 591 ;
592 [label="Equality of E2W and N2TL at index 1 <= 0.5\ngini = 0.044\nsamples = 25\nvalue = [76.748, 1.751]\nclass = Undesirable", fillcolor="#e6843e"] ;
591 -> 592 ;
593 [label="gini = 0.0\nsamples = 3\nvalue = [0.0, 1.751]\nclass = Desirable", fillcolor="#399de5"] ;
592 -> 593 ;
594 [label="gini = 0.0\nsamples = 22\nvalue = [76.748, 0.0]\nclass = Undesirable", fillcolor="#e58139"] ;
592 -> 594 ;
595 [label="Value of index 0 at category S2TL <= 0.5\ngini = 0.172\nsamples = 58\nvalue = [3.489, 33.268]\nclass = Desirable", fillcolor="#4ea7e8"] ;
591 -> 595 ;
596 [label="gini = 0.0\nsamples = 1\nvalue = [3.489, 0.0]\nclass = Undesirable", fillcolor="#e58139"] ;
595 -> 596 ;
597 [label="gini = 0.0\nsamples = 57\nvalue = [0.0, 33.268]\nclass = Desirable", fillcolor="#399de5"] ;
595 -> 597 ;
598 [label="Equality of E2TL and N2S at index 1 <= 0.5\ngini = 0.407\nsamples = 64\nvalue = [13.954, 35.019]\nclass = Desirable", fillcolor="#88c4ef"] ;
590 -> 598 ;
599 [label="gini = 0.0\nsamples = 58\nvalue = [0.0, 33.852]\nclass = Desirable", fillcolor="#399de5"] ;
598 -> 599 ;
600 [label="Equality of W2TL and E2W at index 1 <= 0.5\ngini = 0.142\nsamples = 6\nvalue = [13.954, 1.167]\nclass = Undesirable", fillcolor="#e78c4a"] ;
598 -> 600 ;
601 [label="gini = 0.0\nsamples = 2\nvalue = [0.0, 1.167]\nclass = Desirable", fillcolor="#399de5"] ;
600 -> 601 ;
602 [label="gini = -0.0\nsamples = 4\nvalue = [13.954, 0.0]\nclass = Undesirable", fillcolor="#e58139"] ;
600 -> 602 ;
603 [label="Equality of S2N and S2TL at index 2 <= 0.5\ngini = 0.381\nsamples = 211\nvalue = [240.71, 82.879]\nclass = Undesirable", fillcolor="#eeac7d"] ;
589 -> 603 ;
604 [label="Equality of N2S and S2TL at index 0 <= 0.5\ngini = 0.496\nsamples = 42\nvalue = [24.42, 20.428]\nclass = Undesirable", fillcolor="#fbeadf"] ;
603 -> 604 ;
605 [label="Equality of N2S and S2N at index 7 <= 0.5\ngini = 0.43\nsamples = 26\nvalue = [24.42, 11.089]\nclass = Undesirable", fillcolor="#f1ba93"] ;
604 -> 605 ;
606 [label="gini = 0.0\nsamples = 9\nvalue = [0.0, 5.253]\nclass = Desirable", fillcolor="#399de5"] ;
605 -> 606 ;
607 [label="Equality of W2TL and E2W at index 6 <= 0.5\ngini = 0.311\nsamples = 17\nvalue = [24.42, 5.837]\nclass = Undesirable", fillcolor="#eb9f68"] ;
605 -> 607 ;
608 [label="gini = 0.0\nsamples = 4\nvalue = [0.0, 2.335]\nclass = Desirable", fillcolor="#399de5"] ;
607 -> 608 ;
609 [label="Equality of N2S and S2N at index 3 <= 0.5\ngini = 0.219\nsamples = 13\nvalue = [24.42, 3.502]\nclass = Undesirable", fillcolor="#e99355"] ;
607 -> 609 ;
610 [label="gini = 0.0\nsamples = 3\nvalue = [0.0, 1.751]\nclass = Desirable", fillcolor="#399de5"] ;
609 -> 610 ;
611 [label="Value of index 5 at category W2E <= 0.5\ngini = 0.125\nsamples = 10\nvalue = [24.42, 1.751]\nclass = Undesirable", fillcolor="#e78a47"] ;
609 -> 611 ;
612 [label="Equality of E2W and S2N at index 4 <= 0.5\ngini = 0.087\nsamples = 9\nvalue = [24.42, 1.167]\nclass = Undesirable", fillcolor="#e68742"] ;
611 -> 612 ;
613 [label="gini = 0.0\nsamples = 1\nvalue = [0.0, 0.584]\nclass = Desirable", fillcolor="#399de5"] ;
612 -> 613 ;
614 [label="Value of index 6 at category W2E <= 0.5\ngini = 0.046\nsamples = 8\nvalue = [24.42, 0.584]\nclass = Undesirable", fillcolor="#e6843e"] ;
612 -> 614 ;
615 [label="gini = 0.0\nsamples = 6\nvalue = [20.931, 0.0]\nclass = Undesirable", fillcolor="#e58139"] ;
614 -> 615 ;
616 [label="gini = 0.246\nsamples = 2\nvalue = [3.489, 0.584]\nclass = Undesirable", fillcolor="#e9965a"] ;
614 -> 616 ;
617 [label="gini = -0.0\nsamples = 1\nvalue = [0.0, 0.584]\nclass = Desirable", fillcolor="#399de5"] ;
611 -> 617 ;
618 [label="gini = 0.0\nsamples = 16\nvalue = [0.0, 9.338]\nclass = Desirable", fillcolor="#399de5"] ;
604 -> 618 ;
619 [label="Equality of W2E and E2W at index 6 <= 0.5\ngini = 0.348\nsamples = 169\nvalue = [216.29, 62.451]\nclass = Undesirable", fillcolor="#eda572"] ;
603 -> 619 ;
620 [label="Equality of W2E and N2TL at index 7 <= 0.5\ngini = 0.466\nsamples = 45\nvalue = [34.886, 20.428]\nclass = Undesirable", fillcolor="#f4cbad"] ;
619 -> 620 ;
621 [label="gini = 0.0\nsamples = 11\nvalue = [0.0, 6.42]\nclass = Desirable", fillcolor="#399de5"] ;
620 -> 621 ;
622 [label="Equality of N2TL and S2TL at index 0 <= 0.5\ngini = 0.409\nsamples = 34\nvalue = [34.886, 14.008]\nclass = Undesirable", fillcolor="#efb489"] ;
620 -> 622 ;
623 [label="Equality of W2TL and N2TL at index 1 <= 0.5\ngini = 0.219\nsamples = 13\nvalue = [24.42, 3.502]\nclass = Undesirable", fillcolor="#e99355"] ;
622 -> 623 ;
624 [label="Equality of W2TL and N2S at index 0 <= 0.5\ngini = 0.48\nsamples = 5\nvalue = [3.489, 2.335]\nclass = Undesirable", fillcolor="#f6d5be"] ;
623 -> 624 ;
625 [label="gini = -0.0\nsamples = 4\nvalue = [0.0, 2.335]\nclass = Desirable", fillcolor="#399de5"] ;
624 -> 625 ;
626 [label="gini = 0.0\nsamples = 1\nvalue = [3.489, 0.0]\nclass = Undesirable", fillcolor="#e58139"] ;
624 -> 626 ;
627 [label="Value of index 5 at category S2N <= 0.5\ngini = 0.1\nsamples = 8\nvalue = [20.931, 1.167]\nclass = Undesirable", fillcolor="#e68844"] ;
623 -> 627 ;
628 [label="Equality of E2W and S2TL at index 1 <= 0.5\ngini = 0.053\nsamples = 7\nvalue = [20.931, 0.584]\nclass = Undesirable", fillcolor="#e6853f"] ;
627 -> 628 ;
629 [label="gini = 0.0\nsamples = 5\nvalue = [17.443, 0.0]\nclass = Undesirable", fillcolor="#e58139"] ;
628 -> 629 ;
630 [label="Equality of E2TL and S2N at index 2 <= 0.5\ngini = 0.246\nsamples = 2\nvalue = [3.489, 0.584]\nclass = Undesirable", fillcolor="#e9965a"] ;
628 -> 630 ;
631 [label="gini = 0.0\nsamples = 1\nvalue = [3.489, 0.0]\nclass = Undesirable", fillcolor="#e58139"] ;
630 -> 631 ;
632 [label="gini = 0.0\nsamples = 1\nvalue = [0.0, 0.584]\nclass = Desirable", fillcolor="#399de5"] ;
630 -> 632 ;
633 [label="gini = -0.0\nsamples = 1\nvalue = [0.0, 0.584]\nclass = Desirable", fillcolor="#399de5"] ;
627 -> 633 ;
634 [label="Equality of W2TL and N2S at index 0 <= 0.5\ngini = 0.5\nsamples = 21\nvalue = [10.466, 10.506]\nclass = Desirable", fillcolor="#feffff"] ;
622 -> 634 ;
635 [label="gini = 0.0\nsamples = 10\nvalue = [0.0, 5.837]\nclass = Desirable", fillcolor="#399de5"] ;
634 -> 635 ;
636 [label="Equality of W2E and E2TL at index 1 <= 0.5\ngini = 0.427\nsamples = 11\nvalue = [10.466, 4.669]\nclass = Undesirable", fillcolor="#f1b991"] ;
634 -> 636 ;
637 [label="gini = 0.0\nsamples = 5\nvalue = [0.0, 2.918]\nclass = Desirable", fillcolor="#399de5"] ;
636 -> 637 ;
638 [label="Value of index 4 at category W2E <= 0.5\ngini = 0.246\nsamples = 6\nvalue = [10.466, 1.751]\nclass = Undesirable", fillcolor="#e9965a"] ;
636 -> 638 ;
639 [label="Value of index 3 at category W2TL <= 0.5\ngini = 0.181\nsamples = 5\nvalue = [10.466, 1.167]\nclass = Undesirable", fillcolor="#e88f4f"] ;
638 -> 639 ;
640 [label="gini = 0.1\nsamples = 4\nvalue = [10.466, 0.584]\nclass = Undesirable", fillcolor="#e68844"] ;
639 -> 640 ;
641 [label="gini = -0.0\nsamples = 1\nvalue = [0.0, 0.584]\nclass = Desirable", fillcolor="#399de5"] ;
639 -> 641 ;
642 [label="gini = -0.0\nsamples = 1\nvalue = [0.0, 0.584]\nclass = Desirable", fillcolor="#399de5"] ;
638 -> 642 ;
643 [label="Value of index 4 at category E2TL <= 0.5\ngini = 0.305\nsamples = 124\nvalue = [181.405, 42.023]\nclass = Undesirable", fillcolor="#eb9e67"] ;
619 -> 643 ;
644 [label="Equality of W2E and S2N at index 7 <= 0.5\ngini = 0.297\nsamples = 121\nvalue = [181.405, 40.272]\nclass = Undesirable", fillcolor="#eb9d65"] ;
643 -> 644 ;
645 [label="Equality of N2TL and S2TL at index 5 <= 0.5\ngini = 0.189\nsamples = 41\nvalue = [83.725, 9.922]\nclass = Undesirable", fillcolor="#e89050"] ;
644 -> 645 ;
646 [label="gini = 0.0\nsamples = 2\nvalue = [0.0, 1.167]\nclass = Desirable", fillcolor="#399de5"] ;
645 -> 646 ;
647 [label="Equality of W2E and E2TL at index 0 <= 0.5\ngini = 0.171\nsamples = 39\nvalue = [83.725, 8.755]\nclass = Undesirable", fillcolor="#e88e4e"] ;
645 -> 647 ;
648 [label="Equality of W2TL and E2W at index 1 <= 0.5\ngini = 0.095\nsamples = 25\nvalue = [66.282, 3.502]\nclass = Undesirable", fillcolor="#e68843"] ;
647 -> 648 ;
649 [label="gini = 0.0\nsamples = 1\nvalue = [0.0, 0.584]\nclass = Desirable", fillcolor="#399de5"] ;
648 -> 649 ;
650 [label="Equality of N2TL and S2TL at index 7 <= 0.5\ngini = 0.081\nsamples = 24\nvalue = [66.282, 2.918]\nclass = Undesirable", fillcolor="#e68742"] ;
648 -> 650 ;
651 [label="gini = 0.0\nsamples = 1\nvalue = [0.0, 0.584]\nclass = Desirable", fillcolor="#399de5"] ;
650 -> 651 ;
652 [label="gini = 0.066\nsamples = 23\nvalue = [66.282, 2.335]\nclass = Undesirable", fillcolor="#e68540"] ;
650 -> 652 ;
653 [label="Equality of E2W and N2S at index 4 <= 0.5\ngini = 0.356\nsamples = 14\nvalue = [17.443, 5.253]\nclass = Undesirable", fillcolor="#eda775"] ;
647 -> 653 ;
654 [label="gini = 0.0\nsamples = 4\nvalue = [0.0, 2.335]\nclass = Desirable", fillcolor="#399de5"] ;
653 -> 654 ;
655 [label="Equality of E2W and N2TL at index 0 <= 0.5\ngini = 0.246\nsamples = 10\nvalue = [17.443, 2.918]\nclass = Undesirable", fillcolor="#e9965a"] ;
653 -> 655 ;
656 [label="gini = 0.118\nsamples = 7\nvalue = [17.443, 1.167]\nclass = Undesirable", fillcolor="#e78946"] ;
655 -> 656 ;
657 [label="gini = -0.0\nsamples = 3\nvalue = [0.0, 1.751]\nclass = Desirable", fillcolor="#399de5"] ;
655 -> 657 ;
658 [label="Equality of N2S and S2TL at index 2 <= 0.5\ngini = 0.362\nsamples = 80\nvalue = [97.679, 30.35]\nclass = Undesirable", fillcolor="#eda877"] ;
644 -> 658 ;
659 [label="gini = 0.0\nsamples = 6\nvalue = [0.0, 3.502]\nclass = Desirable", fillcolor="#399de5"] ;
658 -> 659 ;
660 [label="Equality of W2E and E2TL at index 4 <= 0.5\ngini = 0.338\nsamples = 74\nvalue = [97.679, 26.848]\nclass = Undesirable", fillcolor="#eca46f"] ;
658 -> 660 ;
661 [label="gini = 0.0\nsamples = 4\nvalue = [0.0, 2.335]\nclass = Desirable", fillcolor="#399de5"] ;
660 -> 661 ;
662 [label="Equality of E2W and N2TL at index 2 <= 0.5\ngini = 0.321\nsamples = 70\nvalue = [97.679, 24.513]\nclass = Undesirable", fillcolor="#eca16b"] ;
660 -> 662 ;
663 [label="gini = 0.0\nsamples = 4\nvalue = [0.0, 2.335]\nclass = Desirable", fillcolor="#399de5"] ;
662 -> 663 ;
664 [label="Equality of W2E and E2W at index 0 <= 0.5\ngini = 0.302\nsamples = 66\nvalue = [97.679, 22.179]\nclass = Undesirable", fillcolor="#eb9e66"] ;
662 -> 664 ;
665 [label="gini = 0.48\nsamples = 15\nvalue = [10.466, 7.004]\nclass = Undesirable", fillcolor="#f6d5be"] ;
664 -> 665 ;
666 [label="gini = 0.252\nsamples = 51\nvalue = [87.214, 15.175]\nclass = Undesirable", fillcolor="#ea975b"] ;
664 -> 666 ;
667 [label="gini = -0.0\nsamples = 3\nvalue = [0.0, 1.751]\nclass = Desirable", fillcolor="#399de5"] ;
643 -> 667 ;
668 [label="Value of index 2 at category S2TL <= 0.5\ngini = 0.259\nsamples = 77\nvalue = [129.076, 23.346]\nclass = Undesirable", fillcolor="#ea985d"] ;
588 -> 668 ;
669 [label="Equality of W2E and E2W at index 7 <= 0.5\ngini = 0.236\nsamples = 72\nvalue = [129.076, 20.428]\nclass = Undesirable", fillcolor="#e99558"] ;
668 -> 669 ;
670 [label="Equality of W2TL and E2TL at index 2 <= 0.5\ngini = 0.115\nsamples = 32\nvalue = [80.237, 5.253]\nclass = Undesirable", fillcolor="#e78946"] ;
669 -> 670 ;
671 [label="gini = 0.0\nsamples = 2\nvalue = [0.0, 1.167]\nclass = Desirable", fillcolor="#399de5"] ;
670 -> 671 ;
672 [label="Equality of N2TL and S2TL at index 4 <= 0.5\ngini = 0.092\nsamples = 30\nvalue = [80.237, 4.086]\nclass = Undesirable", fillcolor="#e68743"] ;
670 -> 672 ;
673 [label="gini = 0.0\nsamples = 1\nvalue = [0.0, 0.584]\nclass = Desirable", fillcolor="#399de5"] ;
672 -> 673 ;
674 [label="Equality of W2TL and E2TL at index 0 <= 0.5\ngini = 0.08\nsamples = 29\nvalue = [80.237, 3.502]\nclass = Undesirable", fillcolor="#e68642"] ;
672 -> 674 ;
675 [label="Equality of W2E and N2S at index 2 <= 0.5\ngini = 0.246\nsamples = 8\nvalue = [13.954, 2.335]\nclass = Undesirable", fillcolor="#e9965a"] ;
674 -> 675 ;
676 [label="gini = 0.0\nsamples = 4\nvalue = [0.0, 2.335]\nclass = Desirable", fillcolor="#399de5"] ;
675 -> 676 ;
677 [label="gini = 0.0\nsamples = 4\nvalue = [13.954, 0.0]\nclass = Undesirable", fillcolor="#e58139"] ;
675 -> 677 ;
678 [label="Equality of W2E and E2TL at index 1 <= 0.5\ngini = 0.034\nsamples = 21\nvalue = [66.282, 1.167]\nclass = Undesirable", fillcolor="#e5833c"] ;
674 -> 678 ;
679 [label="gini = -0.0\nsamples = 15\nvalue = [52.328, 0.0]\nclass = Undesirable", fillcolor="#e58139"] ;
678 -> 679 ;
680 [label="Value of index 3 at category ACT <= 0.5\ngini = 0.142\nsamples = 6\nvalue = [13.954, 1.167]\nclass = Undesirable", fillcolor="#e78c4a"] ;
678 -> 680 ;
681 [label="gini = 0.0\nsamples = 2\nvalue = [0.0, 1.167]\nclass = Desirable", fillcolor="#399de5"] ;
680 -> 681 ;
682 [label="gini = -0.0\nsamples = 4\nvalue = [13.954, 0.0]\nclass = Undesirable", fillcolor="#e58139"] ;
680 -> 682 ;
683 [label="Equality of N2S and N2TL at index 3 <= 0.5\ngini = 0.362\nsamples = 40\nvalue = [48.84, 15.175]\nclass = Undesirable", fillcolor="#eda877"] ;
669 -> 683 ;
684 [label="gini = 0.0\nsamples = 9\nvalue = [0.0, 5.253]\nclass = Desirable", fillcolor="#399de5"] ;
683 -> 684 ;
685 [label="Value of index 1 at category N2TL <= 0.5\ngini = 0.281\nsamples = 31\nvalue = [48.84, 9.922]\nclass = Undesirable", fillcolor="#ea9b61"] ;
683 -> 685 ;
686 [label="Equality of W2TL and E2TL at index 7 <= 0.5\ngini = 0.233\nsamples = 27\nvalue = [48.84, 7.587]\nclass = Undesirable", fillcolor="#e99558"] ;
685 -> 686 ;
687 [label="gini = 0.0\nsamples = 3\nvalue = [0.0, 1.751]\nclass = Desirable", fillcolor="#399de5"] ;
686 -> 687 ;
688 [label="Equality of W2TL and N2S at index 4 <= 0.5\ngini = 0.191\nsamples = 24\nvalue = [48.84, 5.837]\nclass = Undesirable", fillcolor="#e89051"] ;
686 -> 688 ;
689 [label="Equality of E2W and S2N at index 1 <= 0.5\ngini = 0.48\nsamples = 5\nvalue = [3.489, 2.335]\nclass = Undesirable", fillcolor="#f6d5be"] ;
688 -> 689 ;
690 [label="gini = 0.0\nsamples = 1\nvalue = [3.489, 0.0]\nclass = Undesirable", fillcolor="#e58139"] ;
689 -> 690 ;
691 [label="gini = -0.0\nsamples = 4\nvalue = [0.0, 2.335]\nclass = Desirable", fillcolor="#399de5"] ;
689 -> 691 ;
692 [label="Value of index 2 at category N2TL <= 0.5\ngini = 0.133\nsamples = 19\nvalue = [45.351, 3.502]\nclass = Undesirable", fillcolor="#e78b48"] ;
688 -> 692 ;
693 [label="Value of index 0 at category N2S <= 0.5\ngini = 0.114\nsamples = 18\nvalue = [45.351, 2.918]\nclass = Undesirable", fillcolor="#e78946"] ;
692 -> 693 ;
694 [label="Equality of E2TL and N2S at index 7 <= 0.5\ngini = 0.321\nsamples = 5\nvalue = [6.977, 1.751]\nclass = Undesirable", fillcolor="#eca16b"] ;
693 -> 694 ;
695 [label="gini = 0.142\nsamples = 3\nvalue = [6.977, 0.584]\nclass = Undesirable", fillcolor="#e78c4a"] ;
694 -> 695 ;
696 [label="gini = -0.0\nsamples = 2\nvalue = [0.0, 1.167]\nclass = Desirable", fillcolor="#399de5"] ;
694 -> 696 ;
697 [label="Value of index 3 at category E2W <= 0.5\ngini = 0.057\nsamples = 13\nvalue = [38.374, 1.167]\nclass = Undesirable", fillcolor="#e6853f"] ;
693 -> 697 ;
698 [label="gini = 0.0\nsamples = 9\nvalue = [31.397, 0.0]\nclass = Undesirable", fillcolor="#e58139"] ;
697 -> 698 ;
699 [label="gini = 0.246\nsamples = 4\nvalue = [6.977, 1.167]\nclass = Undesirable", fillcolor="#e9965a"] ;
697 -> 699 ;
700 [label="gini = -0.0\nsamples = 1\nvalue = [0.0, 0.584]\nclass = Desirable", fillcolor="#399de5"] ;
692 -> 700 ;
701 [label="gini = 0.0\nsamples = 4\nvalue = [0.0, 2.335]\nclass = Desirable", fillcolor="#399de5"] ;
685 -> 701 ;
702 [label="gini = -0.0\nsamples = 5\nvalue = [0.0, 2.918]\nclass = Desirable", fillcolor="#399de5"] ;
668 -> 702 ;
703 [label="Equality of W2TL and N2TL at index 1 <= 0.5\ngini = 0.095\nsamples = 2199\nvalue = [5829.37, 308.169]\nclass = Undesirable", fillcolor="#e68843"] ;
587 -> 703 ;
704 [label="Equality of W2TL and N2TL at index 2 <= 0.5\ngini = 0.36\nsamples = 347\nvalue = [425.603, 131.322]\nclass = Undesirable", fillcolor="#eda876"] ;
703 -> 704 ;
